<?xml version="1.0"?>
<opencv_storage>
<stage12>
  <maxWeakCount>31</maxWeakCount>
  <stageThreshold>-1.2156689167022705e+00</stageThreshold>
  <weakClassifiers>
    <_>
      <internalNodes>
        0 -1 159255 -1.0857862420380116e-02</internalNodes>
      <leafValues>
        -1.7721518874168396e-02 -4.8819875717163086e-01</leafValues></_>
    <_>
      <internalNodes>
        0 -1 96318 5.8030746877193451e-03</internalNodes>
      <leafValues>
        -3.7943938374519348e-01 1.5919777750968933e-01</leafValues></_>
    <_>
      <internalNodes>
        0 -1 48775 -1.0782345198094845e-03</internalNodes>
      <leafValues>
        2.6901495456695557e-01 -2.0433722436428070e-01</leafValues></_>
    <_>
      <internalNodes>
        0 -1 120417 1.1326548410579562e-03</internalNodes>
      <leafValues>
        -2.7284049987792969e-01 2.2804459929466248e-01</leafValues></_>
    <_>
      <internalNodes>
        0 -1 152173 -3.8718156516551971e-02</internalNodes>
      <leafValues>
        -9.1402435302734375e-01 9.3388557434082031e-02</leafValues></_>
    <_>
      <internalNodes>
        0 -1 10040 -2.2122876252979040e-03</internalNodes>
      <leafValues>
        3.3826887607574463e-01 -1.7547550797462463e-01</leafValues></_>
    <_>
      <internalNodes>
        0 -1 133644 -1.6289845807477832e-03</internalNodes>
      <leafValues>
        2.5560465455055237e-01 -2.5188463926315308e-01</leafValues></_>
    <_>
      <internalNodes>
        0 -1 157578 4.0223567339126021e-05</internalNodes>
      <leafValues>
        -3.5421159863471985e-01 1.9159869849681854e-01</leafValues></_>
    <_>
      <internalNodes>
        0 -1 85167 1.7000904306769371e-02</internalNodes>
      <leafValues>
        -8.4733054041862488e-02 7.4648761749267578e-01</leafValues></_>
    <_>
      <internalNodes>
        0 -1 12233 -3.5376846790313721e-04</internalNodes>
      <leafValues>
        -7.8807610273361206e-01 8.3763509988784790e-02</leafValues></_>
    <_>
      <internalNodes>
        0 -1 111225 -4.3320357799530029e-03</internalNodes>
      <leafValues>
        3.6855581402778625e-01 -1.5266710519790649e-01</leafValues></_>
    <_>
      <internalNodes>
        0 -1 13302 3.3576373243704438e-04</internalNodes>
      <leafValues>
        -2.0567265152931213e-01 2.6853346824645996e-01</leafValues></_>
    <_>
      <internalNodes>
        0 -1 7462 -2.4697901681065559e-03</internalNodes>
      <leafValues>
        -1. 7.3027715086936951e-02</leafValues></_>
    <_>
      <internalNodes>
        0 -1 144718 3.9598875446245074e-04</internalNodes>
      <leafValues>
        6.7810393869876862e-02 -6.0867416858673096e-01</leafValues></_>
    <_>
      <internalNodes>
        0 -1 142633 9.6112058963626623e-04</internalNodes>
      <leafValues>
        -1.8809248507022858e-01 3.2639455795288086e-01</leafValues></_>
    <_>
      <internalNodes>
        0 -1 80880 -2.2327410057187080e-02</internalNodes>
      <leafValues>
        -9.2827588319778442e-01 5.3666297346353531e-02</leafValues></_>
    <_>
      <internalNodes>
        0 -1 11514 -6.2732142396271229e-04</internalNodes>
      <leafValues>
        -7.5532835721969604e-01 5.4078057408332825e-02</leafValues></_>
    <_>
      <internalNodes>
        0 -1 32136 -7.5536238728091121e-04</internalNodes>
      <leafValues>
        2.1834759414196014e-01 -2.4878853559494019e-01</leafValues></_>
    <_>
      <internalNodes>
        0 -1 96441 3.1421533785760403e-03</internalNodes>
      <leafValues>
        -1.1421723663806915e-01 4.5232638716697693e-01</leafValues></_>
    <_>
      <internalNodes>
        0 -1 77423 9.6257906407117844e-03</internalNodes>
      <leafValues>
        -1.0085841268301010e-01 5.7832401990890503e-01</leafValues></_>
    <_>
      <internalNodes>
        0 -1 5836 -4.1610997868701816e-04</internalNodes>
      <leafValues>
        -7.2600680589675903e-01 8.6685799062252045e-02</leafValues></_>
    <_>
      <internalNodes>
        0 -1 95970 -2.7145925909280777e-02</internalNodes>
      <leafValues>
        7.3712527751922607e-01 -9.1827146708965302e-02</leafValues></_>
    <_>
      <internalNodes>
        0 -1 208 -1.8738783895969391e-02</internalNodes>
      <leafValues>
        3.0412846803665161e-01 -2.0014828443527222e-01</leafValues></_>
    <_>
      <internalNodes>
        0 -1 141510 1.5541457105427980e-03</internalNodes>
      <leafValues>
        -1.8765021860599518e-01 3.1291797757148743e-01</leafValues></_>
    <_>
      <internalNodes>
        0 -1 128200 7.0249626878648996e-04</internalNodes>
      <leafValues>
        -2.1797880530357361e-01 2.6398360729217529e-01</leafValues></_>
    <_>
      <internalNodes>
        0 -1 10094 6.1762658879160881e-04</internalNodes>
      <leafValues>
        -2.6463577151298523e-01 2.1842977404594421e-01</leafValues></_>
    <_>
      <internalNodes>
        0 -1 15961 -1.8723145127296448e-01</internalNodes>
      <leafValues>
        5.4694122076034546e-01 -1.0615486651659012e-01</leafValues></_>
    <_>
      <internalNodes>
        0 -1 1254 1.4280159957706928e-03</internalNodes>
      <leafValues>
        -1.4013522863388062e-01 4.1875666379928589e-01</leafValues></_>
    <_>
      <internalNodes>
        0 -1 155812 5.1363450475037098e-03</internalNodes>
      <leafValues>
        7.4452944099903107e-02 -7.6970654726028442e-01</leafValues></_>
    <_>
      <internalNodes>
        0 -1 8284 -2.7925721369683743e-03</internalNodes>
      <leafValues>
        -6.7587500810623169e-01 6.7439839243888855e-02</leafValues></_>
    <_>
      <internalNodes>
        0 -1 62139 -1.6895208507776260e-02</internalNodes>
      <leafValues>
        -9.5376956462860107e-01 4.4894054532051086e-02</leafValues></_></weakClassifiers></stage12>
</opencv_storage>
