<?xml version="1.0"?>
<opencv_storage>
<stage2>
  <maxWeakCount>12</maxWeakCount>
  <stageThreshold>-1.2791848182678223e+00</stageThreshold>
  <weakClassifiers>
    <_>
      <internalNodes>
        0 -1 159074 1.0076539590954781e-02</internalNodes>
      <leafValues>
        -6.1130744218826294e-01 3.3903133869171143e-01</leafValues></_>
    <_>
      <internalNodes>
        0 -1 7751 -5.5587027221918106e-02</internalNodes>
      <leafValues>
        4.9036601185798645e-01 -4.1280665993690491e-01</leafValues></_>
    <_>
      <internalNodes>
        0 -1 159734 -1.3864241540431976e-02</internalNodes>
      <leafValues>
        -9.3026918172836304e-01 1.9169405102729797e-01</leafValues></_>
    <_>
      <internalNodes>
        0 -1 67747 4.9619274213910103e-03</internalNodes>
      <leafValues>
        -2.8029477596282959e-01 7.2509950399398804e-01</leafValues></_>
    <_>
      <internalNodes>
        0 -1 33728 7.8937388956546783e-02</internalNodes>
      <leafValues>
        -7.7341556549072266e-01 2.0183648169040680e-01</leafValues></_>
    <_>
      <internalNodes>
        0 -1 150386 1.2554487213492393e-02</internalNodes>
      <leafValues>
        -2.8636789321899414e-01 5.4563206434249878e-01</leafValues></_>
    <_>
      <internalNodes>
        0 -1 77896 1.2530244886875153e-02</internalNodes>
      <leafValues>
        -2.3910978436470032e-01 5.8476853370666504e-01</leafValues></_>
    <_>
      <internalNodes>
        0 -1 13333 4.2306147515773773e-03</internalNodes>
      <leafValues>
        1.7451998591423035e-01 -9.2186158895492554e-01</leafValues></_>
    <_>
      <internalNodes>
        0 -1 89579 2.9804382938891649e-04</internalNodes>
      <leafValues>
        -5.5875247716903687e-01 2.5446641445159912e-01</leafValues></_>
    <_>
      <internalNodes>
        0 -1 22244 -9.5160622149705887e-03</internalNodes>
      <leafValues>
        4.5237153768539429e-01 -2.8021508455276489e-01</leafValues></_>
    <_>
      <internalNodes>
        0 -1 29349 -2.3712074756622314e-01</internalNodes>
      <leafValues>
        -4.4683909416198730e-01 3.2908490300178528e-01</leafValues></_>
    <_>
      <internalNodes>
        0 -1 45608 3.9437110535800457e-03</internalNodes>
      <leafValues>
        -2.2404937446117401e-01 6.9928961992263794e-01</leafValues></_></weakClassifiers></stage2>
</opencv_storage>
