<?xml version="1.0"?>
<opencv_storage>
<stage13>
  <maxWeakCount>27</maxWeakCount>
  <stageThreshold>-1.0395289659500122e+00</stageThreshold>
  <weakClassifiers>
    <_>
      <internalNodes>
        0 -1 153972 1.9124276004731655e-03</internalNodes>
      <leafValues>
        -5.5371898412704468e-01 -1.0924369841814041e-01</leafValues></_>
    <_>
      <internalNodes>
        0 -1 159425 2.5408864021301270e-03</internalNodes>
      <leafValues>
        -4.4718468189239502e-01 1.1393415182828903e-01</leafValues></_>
    <_>
      <internalNodes>
        0 -1 78232 2.3264717310667038e-03</internalNodes>
      <leafValues>
        -7.0951960980892181e-02 5.2948141098022461e-01</leafValues></_>
    <_>
      <internalNodes>
        0 -1 125265 -1.3430083170533180e-02</internalNodes>
      <leafValues>
        3.6956462264060974e-01 -1.4434060454368591e-01</leafValues></_>
    <_>
      <internalNodes>
        0 -1 96068 -2.3287190124392509e-03</internalNodes>
      <leafValues>
        4.6642363071441650e-01 -1.3361342251300812e-01</leafValues></_>
    <_>
      <internalNodes>
        0 -1 121301 1.5198846813291311e-03</internalNodes>
      <leafValues>
        7.3459364473819733e-02 -7.4141526222229004e-01</leafValues></_>
    <_>
      <internalNodes>
        0 -1 119681 -1.2223608791828156e-02</internalNodes>
      <leafValues>
        -1.0059078037738800e-01 5.1405411958694458e-01</leafValues></_>
    <_>
      <internalNodes>
        0 -1 140379 -3.1383393798023462e-03</internalNodes>
      <leafValues>
        -8.3601891994476318e-01 7.2257399559020996e-02</leafValues></_>
    <_>
      <internalNodes>
        0 -1 5833 -7.0681516081094742e-04</internalNodes>
      <leafValues>
        -7.1049273014068604e-01 6.5886579453945160e-02</leafValues></_>
    <_>
      <internalNodes>
        0 -1 6439 -6.3796277390792966e-04</internalNodes>
      <leafValues>
        1.7349405586719513e-01 -2.9738038778305054e-01</leafValues></_>
    <_>
      <internalNodes>
        0 -1 161361 1.2395936064422131e-03</internalNodes>
      <leafValues>
        -2.0564514398574829e-01 2.5965175032615662e-01</leafValues></_>
    <_>
      <internalNodes>
        0 -1 20 -8.3228177390992641e-04</internalNodes>
      <leafValues>
        2.6194769144058228e-01 -2.0148850977420807e-01</leafValues></_>
    <_>
      <internalNodes>
        0 -1 161402 4.4649990741163492e-04</internalNodes>
      <leafValues>
        9.0922132134437561e-02 -6.0828202962875366e-01</leafValues></_>
    <_>
      <internalNodes>
        0 -1 90434 -2.4499421939253807e-02</internalNodes>
      <leafValues>
        4.9242353439331055e-01 -1.2046265602111816e-01</leafValues></_>
    <_>
      <internalNodes>
        0 -1 107350 1.7385615035891533e-02</internalNodes>
      <leafValues>
        -1.1098551750183105e-01 4.7027179598808289e-01</leafValues></_>
    <_>
      <internalNodes>
        0 -1 161681 -3.7266134750097990e-03</internalNodes>
      <leafValues>
        -5.7959806919097900e-01 9.2301100492477417e-02</leafValues></_>
    <_>
      <internalNodes>
        0 -1 19585 -4.8891000449657440e-02</internalNodes>
      <leafValues>
        -7.5757521390914917e-01 5.9312969446182251e-02</leafValues></_>
    <_>
      <internalNodes>
        0 -1 77900 1.2140479870140553e-02</internalNodes>
      <leafValues>
        -2.0141308009624481e-01 2.7675625681877136e-01</leafValues></_>
    <_>
      <internalNodes>
        0 -1 76278 -1.0659249965101480e-03</internalNodes>
      <leafValues>
        3.0077335238456726e-01 -1.9894850254058838e-01</leafValues></_>
    <_>
      <internalNodes>
        0 -1 15136 1.8087591230869293e-01</internalNodes>
      <leafValues>
        8.0621443688869476e-02 -5.8571463823318481e-01</leafValues></_>
    <_>
      <internalNodes>
        0 -1 159184 -3.0199352186173201e-03</internalNodes>
      <leafValues>
        -8.2606977224349976e-01 5.6485734879970551e-02</leafValues></_>
    <_>
      <internalNodes>
        0 -1 142062 -1.6375161707401276e-02</internalNodes>
      <leafValues>
        4.8111206293106079e-01 -1.4400574564933777e-01</leafValues></_>
    <_>
      <internalNodes>
        0 -1 133760 -3.9044086588546634e-04</internalNodes>
      <leafValues>
        -5.7897937297821045e-01 9.1714538633823395e-02</leafValues></_>
    <_>
      <internalNodes>
        0 -1 162322 -1.4875613851472735e-04</internalNodes>
      <leafValues>
        -4.9472886323928833e-01 1.0941316187381744e-01</leafValues></_>
    <_>
      <internalNodes>
        0 -1 89683 -4.7941500088199973e-04</internalNodes>
      <leafValues>
        -8.1176722049713135e-01 5.2159089595079422e-02</leafValues></_>
    <_>
      <internalNodes>
        0 -1 105083 1.4563717413693666e-03</internalNodes>
      <leafValues>
        -9.8517939448356628e-02 5.4028630256652832e-01</leafValues></_>
    <_>
      <internalNodes>
        0 -1 67708 -3.9691431447863579e-04</internalNodes>
      <leafValues>
        2.3933704197406769e-01 -1.9370242953300476e-01</leafValues></_></weakClassifiers></stage13>
</opencv_storage>
