<?xml version="1.0"?>
<opencv_storage>
<stage6>
  <maxWeakCount>20</maxWeakCount>
  <stageThreshold>-1.3017637729644775e+00</stageThreshold>
  <weakClassifiers>
    <_>
      <internalNodes>
        0 -1 34361 2.7676528692245483e-01</internalNodes>
      <leafValues>
        -6.7202574014663696e-01 3.1141867861151695e-02</leafValues></_>
    <_>
      <internalNodes>
        0 -1 77718 1.3987282291054726e-02</internalNodes>
      <leafValues>
        -3.4680402278900146e-01 3.2012602686882019e-01</leafValues></_>
    <_>
      <internalNodes>
        0 -1 48936 1.7847090959548950e-02</internalNodes>
      <leafValues>
        -3.9855030179023743e-01 2.5155153870582581e-01</leafValues></_>
    <_>
      <internalNodes>
        0 -1 119022 -1.2423319742083549e-02</internalNodes>
      <leafValues>
        -5.0935846567153931e-01 1.8080356717109680e-01</leafValues></_>
    <_>
      <internalNodes>
        0 -1 47046 -3.6412075860425830e-04</internalNodes>
      <leafValues>
        4.5655891299247742e-01 -2.1255363523960114e-01</leafValues></_>
    <_>
      <internalNodes>
        0 -1 86180 1.7634551972150803e-02</internalNodes>
      <leafValues>
        -1.3129800558090210e-01 7.3345971107482910e-01</leafValues></_>
    <_>
      <internalNodes>
        0 -1 124850 -1.5149803832173347e-02</internalNodes>
      <leafValues>
        4.4699147343635559e-01 -2.3785418272018433e-01</leafValues></_>
    <_>
      <internalNodes>
        0 -1 53198 -8.6521707475185394e-02</internalNodes>
      <leafValues>
        4.9398297071456909e-01 -1.8160936236381531e-01</leafValues></_>
    <_>
      <internalNodes>
        0 -1 11938 -1.0334562975913286e-03</internalNodes>
      <leafValues>
        -7.0079934597015381e-01 1.0853210836648941e-01</leafValues></_>
    <_>
      <internalNodes>
        0 -1 97666 3.9888487663120031e-04</internalNodes>
      <leafValues>
        -2.3776330053806305e-01 3.5039162635803223e-01</leafValues></_>
    <_>
      <internalNodes>
        0 -1 24754 1.9656906370073557e-03</internalNodes>
      <leafValues>
        1.1663526296615601e-01 -7.9000449180603027e-01</leafValues></_>
    <_>
      <internalNodes>
        0 -1 155226 -5.5111956316977739e-04</internalNodes>
      <leafValues>
        -5.7749837636947632e-01 1.1625807732343674e-01</leafValues></_>
    <_>
      <internalNodes>
        0 -1 157596 2.7841823175549507e-03</internalNodes>
      <leafValues>
        7.9515814781188965e-02 -8.3232104778289795e-01</leafValues></_>
    <_>
      <internalNodes>
        0 -1 162236 -4.2194463312625885e-03</internalNodes>
      <leafValues>
        -7.7848374843597412e-01 7.9521261155605316e-02</leafValues></_>
    <_>
      <internalNodes>
        0 -1 146315 -5.4482026025652885e-03</internalNodes>
      <leafValues>
        2.7895686030387878e-01 -2.6500570774078369e-01</leafValues></_>
    <_>
      <internalNodes>
        0 -1 15416 -2.7252952568233013e-03</internalNodes>
      <leafValues>
        3.1103083491325378e-01 -2.6157864928245544e-01</leafValues></_>
    <_>
      <internalNodes>
        0 -1 132163 5.8734985068440437e-03</internalNodes>
      <leafValues>
        -1.3835546374320984e-01 5.7938593626022339e-01</leafValues></_>
    <_>
      <internalNodes>
        0 -1 11033 -5.6370696984231472e-04</internalNodes>
      <leafValues>
        -7.5403881072998047e-01 1.0879230499267578e-01</leafValues></_>
    <_>
      <internalNodes>
        0 -1 6661 -6.6595053067430854e-04</internalNodes>
      <leafValues>
        -8.2773756980895996e-01 6.5272070467472076e-02</leafValues></_>
    <_>
      <internalNodes>
        0 -1 67341 1.3447091914713383e-03</internalNodes>
      <leafValues>
        -2.0761683583259583e-01 3.7185877561569214e-01</leafValues></_></weakClassifiers></stage6>
</opencv_storage>
