<?xml version="1.0"?>
<opencv_storage>
<stage6>
  <maxWeakCount>25</maxWeakCount>
  <stageThreshold>-1.5479110479354858e+00</stageThreshold>
  <weakClassifiers>
    <_>
      <internalNodes>
        0 -1 22128 2.6088237762451172e-01</internalNodes>
      <leafValues>
        -7.2871571779251099e-01 6.1957868747413158e-03</leafValues></_>
    <_>
      <internalNodes>
        0 -1 133742 4.2151563684456050e-04</internalNodes>
      <leafValues>
        -4.0928691625595093e-01 1.7361676692962646e-01</leafValues></_>
    <_>
      <internalNodes>
        0 -1 35835 -2.6724991039372981e-04</internalNodes>
      <leafValues>
        3.3009672164916992e-01 -2.5415614247322083e-01</leafValues></_>
    <_>
      <internalNodes>
        0 -1 144034 -4.1069269180297852e-02</internalNodes>
      <leafValues>
        -8.3448517322540283e-01 1.6043834388256073e-01</leafValues></_>
    <_>
      <internalNodes>
        0 -1 78556 4.4545335695147514e-03</internalNodes>
      <leafValues>
        -3.3035820722579956e-01 3.2340645790100098e-01</leafValues></_>
    <_>
      <internalNodes>
        0 -1 85195 -3.7668887525796890e-03</internalNodes>
      <leafValues>
        3.6089763045310974e-01 -2.3326605558395386e-01</leafValues></_>
    <_>
      <internalNodes>
        0 -1 110297 9.4576692208647728e-04</internalNodes>
      <leafValues>
        -1.7094890773296356e-01 5.4067200422286987e-01</leafValues></_>
    <_>
      <internalNodes>
        0 -1 121766 8.1845797598361969e-02</internalNodes>
      <leafValues>
        -1.9948950409889221e-01 3.5473909974098206e-01</leafValues></_>
    <_>
      <internalNodes>
        0 -1 112514 -1.2766369618475437e-03</internalNodes>
      <leafValues>
        3.3526968955993652e-01 -2.2265304625034332e-01</leafValues></_>
    <_>
      <internalNodes>
        0 -1 161934 3.9632196421734989e-04</internalNodes>
      <leafValues>
        -3.5282152891159058e-01 2.4255433678627014e-01</leafValues></_>
    <_>
      <internalNodes>
        0 -1 127853 1.9472507992759347e-03</internalNodes>
      <leafValues>
        7.6985634863376617e-02 -9.1137886047363281e-01</leafValues></_>
    <_>
      <internalNodes>
        0 -1 6899 -2.2652924060821533e-02</internalNodes>
      <leafValues>
        4.5933926105499268e-01 -1.9478042423725128e-01</leafValues></_>
    <_>
      <internalNodes>
        0 -1 110622 -4.5159474015235901e-02</internalNodes>
      <leafValues>
        -3.3524030447006226e-01 2.3785564303398132e-01</leafValues></_>
    <_>
      <internalNodes>
        0 -1 147062 -1.9204290583729744e-03</internalNodes>
      <leafValues>
        4.5832106471061707e-01 -1.7831216752529144e-01</leafValues></_>
    <_>
      <internalNodes>
        0 -1 117972 1.6389673110097647e-03</internalNodes>
      <leafValues>
        -9.9081374704837799e-02 6.5110129117965698e-01</leafValues></_>
    <_>
      <internalNodes>
        0 -1 124446 -6.1285188421607018e-03</internalNodes>
      <leafValues>
        3.3427938818931580e-01 -2.5264492630958557e-01</leafValues></_>
    <_>
      <internalNodes>
        0 -1 158631 -2.2689274046570063e-03</internalNodes>
      <leafValues>
        -7.1155953407287598e-01 1.1638710647821426e-01</leafValues></_>
    <_>
      <internalNodes>
        0 -1 828 1.1166447401046753e-01</internalNodes>
      <leafValues>
        -1.7029705643653870e-01 4.8823493719100952e-01</leafValues></_>
    <_>
      <internalNodes>
        0 -1 162225 -6.5210293978452682e-03</internalNodes>
      <leafValues>
        -7.3799377679824829e-01 1.3256669044494629e-01</leafValues></_>
    <_>
      <internalNodes>
        0 -1 372 -3.8513433188199997e-02</internalNodes>
      <leafValues>
        2.7377635240554810e-01 -2.8830191493034363e-01</leafValues></_>
    <_>
      <internalNodes>
        0 -1 76720 -7.7506296336650848e-02</internalNodes>
      <leafValues>
        7.7638554573059082e-01 -1.1660704016685486e-01</leafValues></_>
    <_>
      <internalNodes>
        0 -1 111855 6.6732981940731406e-04</internalNodes>
      <leafValues>
        -1.7091637849807739e-01 4.5249953866004944e-01</leafValues></_>
    <_>
      <internalNodes>
        0 -1 96330 1.9870433956384659e-02</internalNodes>
      <leafValues>
        -6.4763027429580688e-01 1.2651377916336060e-01</leafValues></_>
    <_>
      <internalNodes>
        0 -1 143892 1.6020929906517267e-03</internalNodes>
      <leafValues>
        -4.4347867369651794e-01 1.7894750833511353e-01</leafValues></_>
    <_>
      <internalNodes>
        0 -1 161136 2.1871107164770365e-03</internalNodes>
      <leafValues>
        8.3348758518695831e-02 -8.1455850601196289e-01</leafValues></_></weakClassifiers></stage6>
</opencv_storage>
