<?xml version="1.0"?>
<opencv_storage>
<stage1>
  <maxWeakCount>5</maxWeakCount>
  <stageThreshold>-1.2449454069137573e+00</stageThreshold>
  <weakClassifiers>
    <_>
      <internalNodes>
        0 -1 125751 -6.3990792259573936e-03</internalNodes>
      <leafValues>
        -8.6017477512359619e-01 2.7038627862930298e-01</leafValues></_>
    <_>
      <internalNodes>
        0 -1 104382 1.2545835971832275e-01</internalNodes>
      <leafValues>
        -8.0760157108306885e-01 3.0578231811523438e-01</leafValues></_>
    <_>
      <internalNodes>
        0 -1 74122 -1.7453435808420181e-02</internalNodes>
      <leafValues>
        4.6685799956321716e-01 -5.0651842355728149e-01</leafValues></_>
    <_>
      <internalNodes>
        0 -1 128290 -1.4787982404232025e-01</internalNodes>
      <leafValues>
        -9.1945749521255493e-01 1.8911206722259521e-01</leafValues></_>
    <_>
      <internalNodes>
        0 -1 67738 5.0874715670943260e-03</internalNodes>
      <leafValues>
        -2.3313909769058228e-01 8.0832630395889282e-01</leafValues></_></weakClassifiers></stage1>
</opencv_storage>
