<?xml version="1.0"?>
<opencv_storage>
<stage4>
  <maxWeakCount>15</maxWeakCount>
  <stageThreshold>-1.3929729461669922e+00</stageThreshold>
  <weakClassifiers>
    <_>
      <internalNodes>
        0 -1 123849 -4.8930477350950241e-02</internalNodes>
      <leafValues>
        -1. -1.2739965319633484e-01</leafValues></_>
    <_>
      <internalNodes>
        0 -1 8391 -1.6665138304233551e-02</internalNodes>
      <leafValues>
        2.8349852561950684e-01 -4.9712663888931274e-01</leafValues></_>
    <_>
      <internalNodes>
        0 -1 13294 -4.1585945291444659e-04</internalNodes>
      <leafValues>
        -6.7674279212951660e-01 2.2623954713344574e-01</leafValues></_>
    <_>
      <internalNodes>
        0 -1 136052 2.9110534116625786e-02</internalNodes>
      <leafValues>
        -4.1587087512016296e-01 3.3023580908775330e-01</leafValues></_>
    <_>
      <internalNodes>
        0 -1 12277 -4.6425301115959883e-04</internalNodes>
      <leafValues>
        -7.3116791248321533e-01 1.9198016822338104e-01</leafValues></_>
    <_>
      <internalNodes>
        0 -1 121346 -1.5190153382718563e-02</internalNodes>
      <leafValues>
        -9.9198198318481445e-01 9.5857858657836914e-02</leafValues></_>
    <_>
      <internalNodes>
        0 -1 95246 -1.1509852483868599e-03</internalNodes>
      <leafValues>
        4.2258712649345398e-01 -3.2172763347625732e-01</leafValues></_>
    <_>
      <internalNodes>
        0 -1 96342 2.1519940346479416e-03</internalNodes>
      <leafValues>
        -3.0768713355064392e-01 3.8321501016616821e-01</leafValues></_>
    <_>
      <internalNodes>
        0 -1 117076 -1.9714158028364182e-02</internalNodes>
      <leafValues>
        5.3471523523330688e-01 -2.7242812514305115e-01</leafValues></_>
    <_>
      <internalNodes>
        0 -1 12910 -1.9985130056738853e-03</internalNodes>
      <leafValues>
        -8.4679287672042847e-01 1.6631333529949188e-01</leafValues></_>
    <_>
      <internalNodes>
        0 -1 161812 -9.8682451061904430e-04</internalNodes>
      <leafValues>
        3.0926969647407532e-01 -3.6085852980613708e-01</leafValues></_>
    <_>
      <internalNodes>
        0 -1 10476 4.0495030581951141e-02</internalNodes>
      <leafValues>
        -4.8990714550018311e-01 2.0050060749053955e-01</leafValues></_>
    <_>
      <internalNodes>
        0 -1 119681 -1.7786230891942978e-02</internalNodes>
      <leafValues>
        -1.8856577575206757e-01 6.0182708501815796e-01</leafValues></_>
    <_>
      <internalNodes>
        0 -1 86302 2.4410570040345192e-03</internalNodes>
      <leafValues>
        -1.7988592386245728e-01 5.7132124900817871e-01</leafValues></_>
    <_>
      <internalNodes>
        0 -1 45602 -2.7973288670182228e-03</internalNodes>
      <leafValues>
        5.3810095787048340e-01 -1.9664573669433594e-01</leafValues></_></weakClassifiers></stage4>
</opencv_storage>
