<?xml version="1.0"?>
<opencv_storage>
<stage11>
  <maxWeakCount>35</maxWeakCount>
  <stageThreshold>-1.3164459466934204e+00</stageThreshold>
  <weakClassifiers>
    <_>
      <internalNodes>
        0 -1 46096 -1.7352437134832144e-03</internalNodes>
      <leafValues>
        2.0491803064942360e-02 -5.0395256280899048e-01</leafValues></_>
    <_>
      <internalNodes>
        0 -1 151199 9.7792025189846754e-04</internalNodes>
      <leafValues>
        -2.6658791303634644e-01 2.2365678846836090e-01</leafValues></_>
    <_>
      <internalNodes>
        0 -1 154948 1.0129841975867748e-03</internalNodes>
      <leafValues>
        -2.4028021097183228e-01 2.2286488115787506e-01</leafValues></_>
    <_>
      <internalNodes>
        0 -1 10014 -2.0423687528818846e-03</internalNodes>
      <leafValues>
        -8.2048839330673218e-01 6.7973293364048004e-02</leafValues></_>
    <_>
      <internalNodes>
        0 -1 12255 -7.0772081380710006e-04</internalNodes>
      <leafValues>
        -7.3979139328002930e-01 7.0542208850383759e-02</leafValues></_>
    <_>
      <internalNodes>
        0 -1 131579 1.7988343024626374e-03</internalNodes>
      <leafValues>
        -2.2935831546783447e-01 2.3555162549018860e-01</leafValues></_>
    <_>
      <internalNodes>
        0 -1 95968 5.1303482614457607e-03</internalNodes>
      <leafValues>
        -1.4428289234638214e-01 4.0168535709381104e-01</leafValues></_>
    <_>
      <internalNodes>
        0 -1 86417 -1.8655746243894100e-03</internalNodes>
      <leafValues>
        3.4715682268142700e-01 -1.4052891731262207e-01</leafValues></_>
    <_>
      <internalNodes>
        0 -1 11521 -4.1910305619239807e-02</internalNodes>
      <leafValues>
        -4.9250739812850952e-01 1.1829914897680283e-01</leafValues></_>
    <_>
      <internalNodes>
        0 -1 161773 3.0636261217296124e-03</internalNodes>
      <leafValues>
        -1.8802025914192200e-01 2.7931699156761169e-01</leafValues></_>
    <_>
      <internalNodes>
        0 -1 162219 7.7471800614148378e-04</internalNodes>
      <leafValues>
        6.5507873892784119e-02 -7.9722094535827637e-01</leafValues></_>
    <_>
      <internalNodes>
        0 -1 154074 -5.5124331265687943e-03</internalNodes>
      <leafValues>
        -7.3291218280792236e-01 5.2468132227659225e-02</leafValues></_>
    <_>
      <internalNodes>
        0 -1 148635 -3.7504858337342739e-03</internalNodes>
      <leafValues>
        -7.3551046848297119e-01 5.6196767836809158e-02</leafValues></_>
    <_>
      <internalNodes>
        0 -1 113388 1.0800857562571764e-03</internalNodes>
      <leafValues>
        -2.6263338327407837e-01 1.8372601270675659e-01</leafValues></_>
    <_>
      <internalNodes>
        0 -1 208 -1.7311044037342072e-02</internalNodes>
      <leafValues>
        2.6265197992324829e-01 -1.8631044030189514e-01</leafValues></_>
    <_>
      <internalNodes>
        0 -1 13024 2.7514039538800716e-03</internalNodes>
      <leafValues>
        -1.5910643339157104e-01 3.5315120220184326e-01</leafValues></_>
    <_>
      <internalNodes>
        0 -1 13186 -6.8614061456173658e-04</internalNodes>
      <leafValues>
        -7.4584746360778809e-01 7.1008697152137756e-02</leafValues></_>
    <_>
      <internalNodes>
        0 -1 99268 2.3926492780447006e-02</internalNodes>
      <leafValues>
        -1.3115781545639038e-01 4.1828736662864685e-01</leafValues></_>
    <_>
      <internalNodes>
        0 -1 116038 6.6840357612818480e-04</internalNodes>
      <leafValues>
        7.7605843544006348e-02 -7.6936972141265869e-01</leafValues></_>
    <_>
      <internalNodes>
        0 -1 81350 -2.4198684841394424e-02</internalNodes>
      <leafValues>
        4.6289747953414917e-01 -1.1849782615900040e-01</leafValues></_>
    <_>
      <internalNodes>
        0 -1 73781 -2.2420198656618595e-03</internalNodes>
      <leafValues>
        -8.4665143489837646e-01 6.3142918050289154e-02</leafValues></_>
    <_>
      <internalNodes>
        0 -1 159640 1.1570637580007315e-03</internalNodes>
      <leafValues>
        4.4884625822305679e-02 -7.5697809457778931e-01</leafValues></_>
    <_>
      <internalNodes>
        0 -1 98628 1.1789428535848856e-03</internalNodes>
      <leafValues>
        -2.2382372617721558e-01 2.1971972286701202e-01</leafValues></_>
    <_>
      <internalNodes>
        0 -1 110257 4.3796632438898087e-02</internalNodes>
      <leafValues>
        -8.6352132260799408e-02 7.7380830049514771e-01</leafValues></_>
    <_>
      <internalNodes>
        0 -1 157065 -1.0851963423192501e-02</internalNodes>
      <leafValues>
        3.6184823513031006e-01 -1.2811680138111115e-01</leafValues></_>
    <_>
      <internalNodes>
        0 -1 96927 1.4180761063471437e-03</internalNodes>
      <leafValues>
        -2.5576815009117126e-01 2.0818138122558594e-01</leafValues></_>
    <_>
      <internalNodes>
        0 -1 132822 1.4809375628829002e-02</internalNodes>
      <leafValues>
        -7.8518480062484741e-02 6.0342657566070557e-01</leafValues></_>
    <_>
      <internalNodes>
        0 -1 14570 -3.1955898739397526e-03</internalNodes>
      <leafValues>
        -8.4392148256301880e-01 6.6668301820755005e-02</leafValues></_>
    <_>
      <internalNodes>
        0 -1 68588 -2.9425248503684998e-03</internalNodes>
      <leafValues>
        4.1370251774787903e-01 -1.3502539694309235e-01</leafValues></_>
    <_>
      <internalNodes>
        0 -1 12272 -4.5287818647921085e-03</internalNodes>
      <leafValues>
        3.4824487566947937e-01 -1.4093889296054840e-01</leafValues></_>
    <_>
      <internalNodes>
        0 -1 48995 3.4521514317020774e-04</internalNodes>
      <leafValues>
        -2.1365980803966522e-01 2.2605143487453461e-01</leafValues></_>
    <_>
      <internalNodes>
        0 -1 155199 -2.9917475767433643e-03</internalNodes>
      <leafValues>
        -9.3541759252548218e-01 5.0153464078903198e-02</leafValues></_>
    <_>
      <internalNodes>
        0 -1 28730 -5.1617277786135674e-03</internalNodes>
      <leafValues>
        -9.0884971618652344e-01 3.6073166877031326e-02</leafValues></_>
    <_>
      <internalNodes>
        0 -1 121064 -2.5649829767644405e-03</internalNodes>
      <leafValues>
        -6.2798976898193359e-01 6.2032274901866913e-02</leafValues></_>
    <_>
      <internalNodes>
        0 -1 5 -1.3633791240863502e-04</internalNodes>
      <leafValues>
        2.1336403489112854e-01 -2.1787694096565247e-01</leafValues></_></weakClassifiers></stage11>
</opencv_storage>
