<?xml version="1.0"?>
<opencv_storage>
<stage9>
  <maxWeakCount>10</maxWeakCount>
  <stageThreshold>-1.2753108739852905e+00</stageThreshold>
  <weakClassifiers>
    <_>
      <internalNodes>
        0 -1 37931 -5.2759528160095215e-02</internalNodes>
      <leafValues>
        4.5751634985208511e-02 -7.2789114713668823e-01</leafValues></_>
    <_>
      <internalNodes>
        0 -1 13333 -1.4811379369348288e-03</internalNodes>
      <leafValues>
        -9.2755204439163208e-01 8.8061839342117310e-02</leafValues></_>
    <_>
      <internalNodes>
        0 -1 162313 -1.3700755080208182e-03</internalNodes>
      <leafValues>
        -9.4493114948272705e-01 1.2525893747806549e-01</leafValues></_>
    <_>
      <internalNodes>
        0 -1 151749 7.0889189373701811e-04</internalNodes>
      <leafValues>
        -5.3370851278305054e-01 2.4009948968887329e-01</leafValues></_>
    <_>
      <internalNodes>
        0 -1 161587 4.8837030772119761e-04</internalNodes>
      <leafValues>
        1.4239138364791870e-01 -9.2785745859146118e-01</leafValues></_>
    <_>
      <internalNodes>
        0 -1 80320 4.9487207434140146e-05</internalNodes>
      <leafValues>
        -5.2490812540054321e-01 2.3344415426254272e-01</leafValues></_>
    <_>
      <internalNodes>
        0 -1 22666 8.3741247653961182e-02</internalNodes>
      <leafValues>
        -4.7348421812057495e-01 3.1707638502120972e-01</leafValues></_>
    <_>
      <internalNodes>
        0 -1 26484 3.3050835132598877e-02</internalNodes>
      <leafValues>
        -2.8110033273696899e-01 5.7381212711334229e-01</leafValues></_>
    <_>
      <internalNodes>
        0 -1 13315 1.6746209003031254e-03</internalNodes>
      <leafValues>
        1.6945689916610718e-01 -8.2804667949676514e-01</leafValues></_>
    <_>
      <internalNodes>
        0 -1 11933 -3.4810934448614717e-04</internalNodes>
      <leafValues>
        -7.9042261838912964e-01 1.4296153187751770e-01</leafValues></_></weakClassifiers></stage9>
</opencv_storage>
