<?xml version="1.0"?>
<opencv_storage>
<stage7>
  <maxWeakCount>11</maxWeakCount>
  <stageThreshold>-9.3816769123077393e-01</stageThreshold>
  <weakClassifiers>
    <_>
      <internalNodes>
        0 -1 96135 4.6904888004064560e-03</internalNodes>
      <leafValues>
        -6.2406015396118164e-01 2.4378108978271484e-01</leafValues></_>
    <_>
      <internalNodes>
        0 -1 159398 3.0556456185877323e-03</internalNodes>
      <leafValues>
        -4.6378988027572632e-01 4.5330810546875000e-01</leafValues></_>
    <_>
      <internalNodes>
        0 -1 67230 -1.4570022467523813e-03</internalNodes>
      <leafValues>
        6.0816514492034912e-01 -2.8492468595504761e-01</leafValues></_>
    <_>
      <internalNodes>
        0 -1 87169 1.3845516368746758e-03</internalNodes>
      <leafValues>
        -2.3741325736045837e-01 6.4348036050796509e-01</leafValues></_>
    <_>
      <internalNodes>
        0 -1 66197 -2.0346511155366898e-03</internalNodes>
      <leafValues>
        3.7717041373252869e-01 -5.0023311376571655e-01</leafValues></_>
    <_>
      <internalNodes>
        0 -1 25461 3.6531873047351837e-03</internalNodes>
      <leafValues>
        2.1105238795280457e-01 -7.5679957866668701e-01</leafValues></_>
    <_>
      <internalNodes>
        0 -1 77226 4.6347184106707573e-03</internalNodes>
      <leafValues>
        -1.9783143699169159e-01 7.5822317600250244e-01</leafValues></_>
    <_>
      <internalNodes>
        0 -1 142154 -5.6907709222286940e-04</internalNodes>
      <leafValues>
        5.8732527494430542e-01 -2.2140739858150482e-01</leafValues></_>
    <_>
      <internalNodes>
        0 -1 10 -4.9757625674828887e-04</internalNodes>
      <leafValues>
        4.9704378843307495e-01 -2.9198449850082397e-01</leafValues></_>
    <_>
      <internalNodes>
        0 -1 103660 -2.5923892855644226e-02</internalNodes>
      <leafValues>
        -5.4157614707946777e-01 2.8939986228942871e-01</leafValues></_>
    <_>
      <internalNodes>
        0 -1 150547 -7.8899255022406578e-03</internalNodes>
      <leafValues>
        6.2541419267654419e-01 -2.5235772132873535e-01</leafValues></_></weakClassifiers></stage7>
</opencv_storage>
