<?xml version="1.0"?>
<opencv_storage>
<stage3>
  <maxWeakCount>8</maxWeakCount>
  <stageThreshold>-1.2155622243881226e+00</stageThreshold>
  <weakClassifiers>
    <_>
      <internalNodes>
        0 -1 118270 -2.2320248186588287e-02</internalNodes>
      <leafValues>
        -7.0833331346511841e-01 3.3333334326744080e-01</leafValues></_>
    <_>
      <internalNodes>
        0 -1 125650 1.9733766093850136e-02</internalNodes>
      <leafValues>
        -5.6381154060363770e-01 4.5394465327262878e-01</leafValues></_>
    <_>
      <internalNodes>
        0 -1 77887 -8.0066500231623650e-03</internalNodes>
      <leafValues>
        6.2649369239807129e-01 -3.4106984734535217e-01</leafValues></_>
    <_>
      <internalNodes>
        0 -1 8920 -1.1916036717593670e-02</internalNodes>
      <leafValues>
        6.1710119247436523e-01 -3.9032736420631409e-01</leafValues></_>
    <_>
      <internalNodes>
        0 -1 80843 -2.1864928305149078e-02</internalNodes>
      <leafValues>
        -8.8162559270858765e-01 2.3092761635780334e-01</leafValues></_>
    <_>
      <internalNodes>
        0 -1 157598 -5.7234535925090313e-03</internalNodes>
      <leafValues>
        2.2903260588645935e-01 -9.2764079570770264e-01</leafValues></_>
    <_>
      <internalNodes>
        0 -1 142190 3.9041489362716675e-03</internalNodes>
      <leafValues>
        -3.1075009703636169e-01 7.2074019908905029e-01</leafValues></_>
    <_>
      <internalNodes>
        0 -1 125306 1.8449656665325165e-02</internalNodes>
      <leafValues>
        -2.7386176586151123e-01 7.5524705648422241e-01</leafValues></_></weakClassifiers></stage3>
</opencv_storage>
