<?xml version="1.0"?>
<opencv_storage>
<stage6>
  <maxWeakCount>8</maxWeakCount>
  <stageThreshold>-9.9943411350250244e-01</stageThreshold>
  <weakClassifiers>
    <_>
      <internalNodes>
        0 -1 22160 -1.2239163042977452e-03</internalNodes>
      <leafValues>
        1.8691588938236237e-01 -6.2176167964935303e-01</leafValues></_>
    <_>
      <internalNodes>
        0 -1 141842 -6.1004180461168289e-03</internalNodes>
      <leafValues>
        4.1264533996582031e-01 -4.7897887229919434e-01</leafValues></_>
    <_>
      <internalNodes>
        0 -1 25604 4.3852701783180237e-03</internalNodes>
      <leafValues>
        -6.5166485309600830e-01 2.5307700037956238e-01</leafValues></_>
    <_>
      <internalNodes>
        0 -1 117571 6.2968609854578972e-03</internalNodes>
      <leafValues>
        -3.1624373793601990e-01 5.5458533763885498e-01</leafValues></_>
    <_>
      <internalNodes>
        0 -1 119876 4.2937584221363068e-02</internalNodes>
      <leafValues>
        -5.7914078235626221e-01 2.6613178849220276e-01</leafValues></_>
    <_>
      <internalNodes>
        0 -1 11514 -6.4047845080494881e-04</internalNodes>
      <leafValues>
        -9.7257411479949951e-01 1.7724610865116119e-01</leafValues></_>
    <_>
      <internalNodes>
        0 -1 28050 -1.6232529655098915e-02</internalNodes>
      <leafValues>
        3.5988178849220276e-01 -4.4203737378120422e-01</leafValues></_>
    <_>
      <internalNodes>
        0 -1 24935 3.6179539747536182e-03</internalNodes>
      <leafValues>
        -5.4272222518920898e-01 3.2167077064514160e-01</leafValues></_></weakClassifiers></stage6>
</opencv_storage>
