<?xml version="1.0"?>
<opencv_storage>
<cascade>
  <stageType>BOOST</stageType>
  <featureType>HAAR</featureType>
  <height>24</height>
  <width>24</width>
  <stageParams>
    <boostType>GAB</boostType>
    <minHitRate>9.9500000476837158e-01</minHitRate>
    <maxFalseAlarm>5.0000000000000000e-01</maxFalseAlarm>
    <weightTrimRate>9.4999999999999996e-01</weightTrimRate>
    <maxDepth>1</maxDepth>
    <maxWeakCount>100</maxWeakCount></stageParams>
  <featureParams>
    <maxCatCount>0</maxCatCount>
    <featSize>1</featSize>
    <mode>BASIC</mode></featureParams>
  <stageNum>9</stageNum>
  <stages>
    <!-- stage 0 -->
    <_>
      <maxWeakCount>4</maxWeakCount>
      <stageThreshold>-1.1136654615402222e+00</stageThreshold>
      <weakClassifiers>
        <_>
          <internalNodes>
            0 -1 27 -2.7889967896044254e-03</internalNodes>
          <leafValues>
            8.0198019742965698e-01 -6.3265305757522583e-01</leafValues></_>
        <_>
          <internalNodes>
            0 -1 10 3.4590731374919415e-03</internalNodes>
          <leafValues>
            -7.3972570896148682e-01 7.0065116882324219e-01</leafValues></_>
        <_>
          <internalNodes>
            0 -1 20 1.1884360574185848e-02</internalNodes>
          <leafValues>
            -6.2719154357910156e-01 7.3218989372253418e-01</leafValues></_>
        <_>
          <internalNodes>
            0 -1 4 -2.3932587355375290e-02</internalNodes>
          <leafValues>
            -5.5447202920913696e-01 7.1920526027679443e-01</leafValues></_></weakClassifiers></_>
    <!-- stage 1 -->
    <_>
      <maxWeakCount>5</maxWeakCount>
      <stageThreshold>-2.9978495836257935e-01</stageThreshold>
      <weakClassifiers>
        <_>
          <internalNodes>
            0 -1 33 -1.3795454287901521e-03</internalNodes>
          <leafValues>
            8.3613443374633789e-01 -5.4014599323272705e-01</leafValues></_>
        <_>
          <internalNodes>
            0 -1 1 3.2711014151573181e-02</internalNodes>
          <leafValues>
            -4.5599627494812012e-01 9.3366056680679321e-01</leafValues></_>
        <_>
          <internalNodes>
            0 -1 38 1.7472818493843079e-02</internalNodes>
          <leafValues>
            -3.5450699925422668e-01 8.3432722091674805e-01</leafValues></_>
        <_>
          <internalNodes>
            0 -1 32 -1.3293133676052094e-01</internalNodes>
          <leafValues>
            -8.6445629596710205e-01 4.2423927783966064e-01</leafValues></_>
        <_>
          <internalNodes>
            0 -1 30 1.8530923407524824e-03</internalNodes>
          <leafValues>
            -5.5874818563461304e-01 6.2662506103515625e-01</leafValues></_></weakClassifiers></_>
    <!-- stage 2 -->
    <_>
      <maxWeakCount>6</maxWeakCount>
      <stageThreshold>-1.0279622077941895e+00</stageThreshold>
      <weakClassifiers>
        <_>
          <internalNodes>
            0 -1 39 1.6289720311760902e-02</internalNodes>
          <leafValues>
            -5.2671754360198975e-01 7.9508197307586670e-01</leafValues></_>
        <_>
          <internalNodes>
            0 -1 21 3.0096892267465591e-02</internalNodes>
          <leafValues>
            -4.9272286891937256e-01 8.3953607082366943e-01</leafValues></_>
        <_>
          <internalNodes>
            0 -1 15 -4.4078797101974487e-02</internalNodes>
          <leafValues>
            -6.8505346775054932e-01 5.8143889904022217e-01</leafValues></_>
        <_>
          <internalNodes>
            0 -1 40 -5.2836444228887558e-02</internalNodes>
          <leafValues>
            8.4930229187011719e-01 -4.2327216267585754e-01</leafValues></_>
        <_>
          <internalNodes>
            0 -1 28 -3.1962431967258453e-03</internalNodes>
          <leafValues>
            5.6339627504348755e-01 -6.6918867826461792e-01</leafValues></_>
        <_>
          <internalNodes>
            0 -1 34 -4.5277914032340050e-03</internalNodes>
          <leafValues>
            5.0250017642974854e-01 -6.6764497756958008e-01</leafValues></_></weakClassifiers></_>
    <!-- stage 3 -->
    <_>
      <maxWeakCount>6</maxWeakCount>
      <stageThreshold>-7.6732516288757324e-01</stageThreshold>
      <weakClassifiers>
        <_>
          <internalNodes>
            0 -1 3 1.3488793745636940e-02</internalNodes>
          <leafValues>
            -4.2465752363204956e-01 8.1659388542175293e-01</leafValues></_>
        <_>
          <internalNodes>
            0 -1 47 -1.8445206806063652e-02</internalNodes>
          <leafValues>
            8.2950747013092041e-01 -4.2588922381401062e-01</leafValues></_>
        <_>
          <internalNodes>
            0 -1 43 -5.0900533795356750e-02</internalNodes>
          <leafValues>
            -7.8782939910888672e-01 5.1945745944976807e-01</leafValues></_>
        <_>
          <internalNodes>
            0 -1 16 -6.0274209827184677e-03</internalNodes>
          <leafValues>
            7.2076362371444702e-01 -5.0470685958862305e-01</leafValues></_>
        <_>
          <internalNodes>
            0 -1 18 -2.4333588778972626e-02</internalNodes>
          <leafValues>
            5.2713978290557861e-01 -4.9309644103050232e-01</leafValues></_>
        <_>
          <internalNodes>
            0 -1 2 1.6732726246118546e-02</internalNodes>
          <leafValues>
            -3.7685239315032959e-01 6.5825647115707397e-01</leafValues></_></weakClassifiers></_>
    <!-- stage 4 -->
    <_>
      <maxWeakCount>3</maxWeakCount>
      <stageThreshold>-5.5174452066421509e-01</stageThreshold>
      <weakClassifiers>
        <_>
          <internalNodes>
            0 -1 6 -1.8498849868774414e-01</internalNodes>
          <leafValues>
            -9.6052628755569458e-01 6.6220736503601074e-01</leafValues></_>
        <_>
          <internalNodes>
            0 -1 46 -1.6920348629355431e-02</internalNodes>
          <leafValues>
            6.5404242277145386e-01 -5.8796751499176025e-01</leafValues></_>
        <_>
          <internalNodes>
            0 -1 25 -5.2821286953985691e-03</internalNodes>
          <leafValues>
            6.1096721887588501e-01 -6.2598437070846558e-01</leafValues></_></weakClassifiers></_>
    <!-- stage 5 -->
    <_>
      <maxWeakCount>5</maxWeakCount>
      <stageThreshold>-4.7003352642059326e-01</stageThreshold>
      <weakClassifiers>
        <_>
          <internalNodes>
            0 -1 29 3.5428162664175034e-03</internalNodes>
          <leafValues>
            -3.5251799225807190e-01 7.3728811740875244e-01</leafValues></_>
        <_>
          <internalNodes>
            0 -1 7 -2.6959385722875595e-02</internalNodes>
          <leafValues>
            -3.9076453447341919e-01 8.5582244396209717e-01</leafValues></_>
        <_>
          <internalNodes>
            0 -1 5 5.1573604345321655e-02</internalNodes>
          <leafValues>
            -6.3351666927337646e-01 4.9641716480255127e-01</leafValues></_>
        <_>
          <internalNodes>
            0 -1 45 -1.4732833951711655e-03</internalNodes>
          <leafValues>
            6.6422992944717407e-01 -4.3808990716934204e-01</leafValues></_>
        <_>
          <internalNodes>
            0 -1 19 -6.9472000002861023e-02</internalNodes>
          <leafValues>
            -9.8007988929748535e-01 2.5504943728446960e-01</leafValues></_></weakClassifiers></_>
    <!-- stage 6 -->
    <_>
      <maxWeakCount>7</maxWeakCount>
      <stageThreshold>-1.1310621500015259e+00</stageThreshold>
      <weakClassifiers>
        <_>
          <internalNodes>
            0 -1 35 -4.1055895388126373e-02</internalNodes>
          <leafValues>
            7.9039299488067627e-01 -3.8356164097785950e-01</leafValues></_>
        <_>
          <internalNodes>
            0 -1 22 1.1640954762697220e-03</internalNodes>
          <leafValues>
            -5.1671481132507324e-01 6.7191505432128906e-01</leafValues></_>
        <_>
          <internalNodes>
            0 -1 49 -3.5531735047698021e-03</internalNodes>
          <leafValues>
            7.5203680992126465e-01 -4.1485318541526794e-01</leafValues></_>
        <_>
          <internalNodes>
            0 -1 37 -1.6585120465606451e-03</internalNodes>
          <leafValues>
            4.7177600860595703e-01 -5.1514083147048950e-01</leafValues></_>
        <_>
          <internalNodes>
            0 -1 8 -1.2107741087675095e-02</internalNodes>
          <leafValues>
            4.8078933358192444e-01 -4.6752279996871948e-01</leafValues></_>
        <_>
          <internalNodes>
            0 -1 11 -6.8453657440841198e-03</internalNodes>
          <leafValues>
            8.3073639869689941e-01 -2.3071055114269257e-01</leafValues></_>
        <_>
          <internalNodes>
            0 -1 42 1.0016034357249737e-03</internalNodes>
          <leafValues>
            -5.4517602920532227e-01 4.1052478551864624e-01</leafValues></_></weakClassifiers></_>
    <!-- stage 7 -->
    <_>
      <maxWeakCount>7</maxWeakCount>
      <stageThreshold>-1.1853457689285278e+00</stageThreshold>
      <weakClassifiers>
        <_>
          <internalNodes>
            0 -1 12 2.5699606165289879e-02</internalNodes>
          <leafValues>
            -3.6231884360313416e-01 7.3839664459228516e-01</leafValues></_>
        <_>
          <internalNodes>
            0 -1 24 -4.8373211175203323e-03</internalNodes>
          <leafValues>
            4.7187685966491699e-01 -6.7512470483779907e-01</leafValues></_>
        <_>
          <internalNodes>
            0 -1 9 2.9303086921572685e-04</internalNodes>
          <leafValues>
            -5.1894748210906982e-01 5.3226441144943237e-01</leafValues></_>
        <_>
          <internalNodes>
            0 -1 44 -2.3165156017057598e-04</internalNodes>
          <leafValues>
            6.0777807235717773e-01 -4.2388984560966492e-01</leafValues></_>
        <_>
          <internalNodes>
            0 -1 41 7.0379441604018211e-03</internalNodes>
          <leafValues>
            -3.7134343385696411e-01 6.5038132667541504e-01</leafValues></_>
        <_>
          <internalNodes>
            0 -1 50 -5.4540317505598068e-03</internalNodes>
          <leafValues>
            -3.5089313983917236e-01 7.4925166368484497e-01</leafValues></_>
        <_>
          <internalNodes>
            0 -1 23 5.4935114458203316e-03</internalNodes>
          <leafValues>
            3.7017005681991577e-01 -8.0815804004669189e-01</leafValues></_></weakClassifiers></_>
    <!-- stage 8 -->
    <_>
      <maxWeakCount>8</maxWeakCount>
      <stageThreshold>-6.0477203130722046e-01</stageThreshold>
      <weakClassifiers>
        <_>
          <internalNodes>
            0 -1 31 -8.7309191003441811e-03</internalNodes>
          <leafValues>
            7.7880185842514038e-01 -2.7848100662231445e-01</leafValues></_>
        <_>
          <internalNodes>
            0 -1 0 1.5625055879354477e-02</internalNodes>
          <leafValues>
            -4.5648130774497986e-01 6.1963397264480591e-01</leafValues></_>
        <_>
          <internalNodes>
            0 -1 26 3.4824062604457140e-03</internalNodes>
          <leafValues>
            -5.4062622785568237e-01 4.7337096929550171e-01</leafValues></_>
        <_>
          <internalNodes>
            0 -1 48 -2.6395097374916077e-03</internalNodes>
          <leafValues>
            6.6848838329315186e-01 -3.3148336410522461e-01</leafValues></_>
        <_>
          <internalNodes>
            0 -1 36 1.8363813869655132e-03</internalNodes>
          <leafValues>
            -4.5234686136245728e-01 5.0677293539047241e-01</leafValues></_>
        <_>
          <internalNodes>
            0 -1 13 -3.6884322762489319e-02</internalNodes>
          <leafValues>
            -4.5651909708976746e-01 5.3566741943359375e-01</leafValues></_>
        <_>
          <internalNodes>
            0 -1 14 4.7450959682464600e-03</internalNodes>
          <leafValues>
            -4.7337597608566284e-01 4.3007165193557739e-01</leafValues></_>
        <_>
          <internalNodes>
            0 -1 17 6.1750074382871389e-04</internalNodes>
          <leafValues>
            -3.8887408375740051e-01 4.8890763521194458e-01</leafValues></_></weakClassifiers></_></stages>
  <features>
    <_>
      <rects>
        <_>
          0 1 4 15 -1.</_>
        <_>
          2 1 2 15 2.</_></rects>
      <tilted>0</tilted></_>
    <_>
      <rects>
        <_>
          0 1 6 17 -1.</_>
        <_>
          3 1 3 17 2.</_></rects>
      <tilted>0</tilted></_>
    <_>
      <rects>
        <_>
          0 3 4 17 -1.</_>
        <_>
          2 3 2 17 2.</_></rects>
      <tilted>0</tilted></_>
    <_>
      <rects>
        <_>
          0 4 10 3 -1.</_>
        <_>
          5 4 5 3 2.</_></rects>
      <tilted>0</tilted></_>
    <_>
      <rects>
        <_>
          0 5 1 12 -1.</_>
        <_>
          0 9 1 4 2.</_></rects>
      <tilted>0</tilted></_>
    <_>
      <rects>
        <_>
          0 7 22 8 -1.</_>
        <_>
          0 11 22 4 2.</_></rects>
      <tilted>0</tilted></_>
    <_>
      <rects>
        <_>
          0 8 24 2 -1.</_>
        <_>
          8 8 8 2 2.</_></rects>
      <tilted>0</tilted></_>
    <_>
      <rects>
        <_>
          1 0 21 1 -1.</_>
        <_>
          8 0 7 1 2.</_></rects>
      <tilted>0</tilted></_>
    <_>
      <rects>
        <_>
          1 3 8 8 -1.</_>
        <_>
          1 3 4 4 2.</_>
        <_>
          5 7 4 4 2.</_></rects>
      <tilted>0</tilted></_>
    <_>
      <rects>
        <_>
          1 12 2 1 -1.</_>
        <_>
          2 12 1 1 2.</_></rects>
      <tilted>0</tilted></_>
    <_>
      <rects>
        <_>
          2 9 8 4 -1.</_>
        <_>
          2 11 8 2 2.</_></rects>
      <tilted>0</tilted></_>
    <_>
      <rects>
        <_>
          2 20 6 4 -1.</_>
        <_>
          2 20 3 2 2.</_>
        <_>
          5 22 3 2 2.</_></rects>
      <tilted>0</tilted></_>
    <_>
      <rects>
        <_>
          3 0 18 4 -1.</_>
        <_>
          3 2 18 2 2.</_></rects>
      <tilted>0</tilted></_>
    <_>
      <rects>
        <_>
          3 9 21 1 -1.</_>
        <_>
          10 9 7 1 2.</_></rects>
      <tilted>0</tilted></_>
    <_>
      <rects>
        <_>
          3 9 10 2 -1.</_>
        <_>
          3 10 10 1 2.</_></rects>
      <tilted>0</tilted></_>
    <_>
      <rects>
        <_>
          3 21 18 1 -1.</_>
        <_>
          9 21 6 1 2.</_></rects>
      <tilted>0</tilted></_>
    <_>
      <rects>
        <_>
          3 22 12 2 -1.</_>
        <_>
          3 22 6 1 2.</_>
        <_>
          9 23 6 1 2.</_></rects>
      <tilted>0</tilted></_>
    <_>
      <rects>
        <_>
          4 3 4 1 -1.</_>
        <_>
          6 3 2 1 2.</_></rects>
      <tilted>0</tilted></_>
    <_>
      <rects>
        <_>
          4 4 17 6 -1.</_>
        <_>
          4 7 17 3 2.</_></rects>
      <tilted>0</tilted></_>
    <_>
      <rects>
        <_>
          4 8 2 9 -1.</_>
        <_>
          4 11 2 3 2.</_></rects>
      <tilted>0</tilted></_>
    <_>
      <rects>
        <_>
          5 0 11 4 -1.</_>
        <_>
          5 2 11 2 2.</_></rects>
      <tilted>0</tilted></_>
    <_>
      <rects>
        <_>
          5 0 16 4 -1.</_>
        <_>
          5 2 16 2 2.</_></rects>
      <tilted>0</tilted></_>
    <_>
      <rects>
        <_>
          5 21 6 1 -1.</_>
        <_>
          8 21 3 1 2.</_></rects>
      <tilted>0</tilted></_>
    <_>
      <rects>
        <_>
          6 12 16 8 -1.</_>
        <_>
          6 16 16 4 2.</_></rects>
      <tilted>0</tilted></_>
    <_>
      <rects>
        <_>
          6 20 8 4 -1.</_>
        <_>
          6 22 8 2 2.</_></rects>
      <tilted>0</tilted></_>
    <_>
      <rects>
        <_>
          6 21 12 2 -1.</_>
        <_>
          6 22 12 1 2.</_></rects>
      <tilted>0</tilted></_>
    <_>
      <rects>
        <_>
          7 0 11 2 -1.</_>
        <_>
          7 1 11 1 2.</_></rects>
      <tilted>0</tilted></_>
    <_>
      <rects>
        <_>
          7 21 11 2 -1.</_>
        <_>
          7 22 11 1 2.</_></rects>
      <tilted>0</tilted></_>
    <_>
      <rects>
        <_>
          7 21 12 2 -1.</_>
        <_>
          7 22 12 1 2.</_></rects>
      <tilted>0</tilted></_>
    <_>
      <rects>
        <_>
          8 22 14 2 -1.</_>
        <_>
          8 22 7 1 2.</_>
        <_>
          15 23 7 1 2.</_></rects>
      <tilted>0</tilted></_>
    <_>
      <rects>
        <_>
          9 0 7 2 -1.</_>
        <_>
          9 1 7 1 2.</_></rects>
      <tilted>0</tilted></_>
    <_>
      <rects>
        <_>
          10 17 10 6 -1.</_>
        <_>
          10 17 5 3 2.</_>
        <_>
          15 20 5 3 2.</_></rects>
      <tilted>0</tilted></_>
    <_>
      <rects>
        <_>
          10 18 7 6 -1.</_>
        <_>
          10 20 7 2 2.</_></rects>
      <tilted>0</tilted></_>
    <_>
      <rects>
        <_>
          10 22 3 2 -1.</_>
        <_>
          10 23 3 1 2.</_></rects>
      <tilted>0</tilted></_>
    <_>
      <rects>
        <_>
          11 12 9 6 -1.</_>
        <_>
          11 15 9 3 2.</_></rects>
      <tilted>0</tilted></_>
    <_>
      <rects>
        <_>
          12 2 12 7 -1.</_>
        <_>
          18 2 6 7 2.</_></rects>
      <tilted>0</tilted></_>
    <_>
      <rects>
        <_>
          12 22 6 2 -1.</_>
        <_>
          12 22 3 1 2.</_>
        <_>
          15 23 3 1 2.</_></rects>
      <tilted>0</tilted></_>
    <_>
      <rects>
        <_>
          13 19 6 3 -1.</_>
        <_>
          16 19 3 3 2.</_></rects>
      <tilted>0</tilted></_>
    <_>
      <rects>
        <_>
          14 3 10 8 -1.</_>
        <_>
          14 3 5 4 2.</_>
        <_>
          19 7 5 4 2.</_></rects>
      <tilted>0</tilted></_>
    <_>
      <rects>
        <_>
          14 8 8 6 -1.</_>
        <_>
          14 11 8 3 2.</_></rects>
      <tilted>0</tilted></_>
    <_>
      <rects>
        <_>
          16 2 8 19 -1.</_>
        <_>
          20 2 4 19 2.</_></rects>
      <tilted>0</tilted></_>
    <_>
      <rects>
        <_>
          16 6 8 4 -1.</_>
        <_>
          16 6 4 2 2.</_>
        <_>
          20 8 4 2 2.</_></rects>
      <tilted>0</tilted></_>
    <_>
      <rects>
        <_>
          16 10 3 2 -1.</_>
        <_>
          16 11 3 1 2.</_></rects>
      <tilted>0</tilted></_>
    <_>
      <rects>
        <_>
          17 8 2 9 -1.</_>
        <_>
          17 11 2 3 2.</_></rects>
      <tilted>0</tilted></_>
    <_>
      <rects>
        <_>
          18 20 2 1 -1.</_>
        <_>
          19 20 1 1 2.</_></rects>
      <tilted>0</tilted></_>
    <_>
      <rects>
        <_>
          19 18 4 1 -1.</_>
        <_>
          21 18 2 1 2.</_></rects>
      <tilted>0</tilted></_>
    <_>
      <rects>
        <_>
          20 3 4 16 -1.</_>
        <_>
          22 3 2 16 2.</_></rects>
      <tilted>0</tilted></_>
    <_>
      <rects>
        <_>
          20 4 4 15 -1.</_>
        <_>
          22 4 2 15 2.</_></rects>
      <tilted>0</tilted></_>
    <_>
      <rects>
        <_>
          22 0 2 12 -1.</_>
        <_>
          22 0 1 6 2.</_>
        <_>
          23 6 1 6 2.</_></rects>
      <tilted>0</tilted></_>
    <_>
      <rects>
        <_>
          22 4 2 9 -1.</_>
        <_>
          23 4 1 9 2.</_></rects>
      <tilted>0</tilted></_>
    <_>
      <rects>
        <_>
          23 0 1 6 -1.</_>
        <_>
          23 2 1 2 2.</_></rects>
      <tilted>0</tilted></_></features></cascade>
</opencv_storage>
