<?xml version="1.0"?>
<opencv_storage>
<cascade>
  <stageType>BOOST</stageType>
  <featureType>HAAR</featureType>
  <height>24</height>
  <width>24</width>
  <stageParams>
    <boostType>GAB</boostType>
    <minHitRate>9.9500000476837158e-01</minHitRate>
    <maxFalseAlarm>5.0000000000000000e-01</maxFalseAlarm>
    <weightTrimRate>9.4999999999999996e-01</weightTrimRate>
    <maxDepth>1</maxDepth>
    <maxWeakCount>100</maxWeakCount></stageParams>
  <featureParams>
    <maxCatCount>0</maxCatCount>
    <featSize>1</featSize>
    <mode>BASIC</mode></featureParams>
  <stageNum>11</stageNum>
  <stages>
    <!-- stage 0 -->
    <_>
      <maxWeakCount>2</maxWeakCount>
      <stageThreshold>-7.2579994797706604e-02</stageThreshold>
      <weakClassifiers>
        <_>
          <internalNodes>
            0 -1 22 -2.3068122565746307e-02</internalNodes>
          <leafValues>
            8.6666667461395264e-01 -8.4761905670166016e-01</leafValues></_>
        <_>
          <internalNodes>
            0 -1 21 -1.5769798774272203e-03</internalNodes>
          <leafValues>
            7.7503907680511475e-01 -8.9252269268035889e-01</leafValues></_></weakClassifiers></_>
    <!-- stage 1 -->
    <_>
      <maxWeakCount>2</maxWeakCount>
      <stageThreshold>-1.5528917312622070e-01</stageThreshold>
      <weakClassifiers>
        <_>
          <internalNodes>
            0 -1 3 8.5076913237571716e-03</internalNodes>
          <leafValues>
            -9.7872340679168701e-01 7.5000000000000000e-01</leafValues></_>
        <_>
          <internalNodes>
            0 -1 6 1.3934342190623283e-02</internalNodes>
          <leafValues>
            -9.0528917312622070e-01 8.2453310489654541e-01</leafValues></_></weakClassifiers></_>
    <!-- stage 2 -->
    <_>
      <maxWeakCount>2</maxWeakCount>
      <stageThreshold>-3.6339621990919113e-02</stageThreshold>
      <weakClassifiers>
        <_>
          <internalNodes>
            0 -1 4 -4.5806586742401123e-02</internalNodes>
          <leafValues>
            -9.0196079015731812e-01 8.7500000000000000e-01</leafValues></_>
        <_>
          <internalNodes>
            0 -1 17 1.5686832368373871e-02</internalNodes>
          <leafValues>
            -9.1133964061737061e-01 8.9398384094238281e-01</leafValues></_></weakClassifiers></_>
    <!-- stage 3 -->
    <_>
      <maxWeakCount>2</maxWeakCount>
      <stageThreshold>-1.7084170877933502e-01</stageThreshold>
      <weakClassifiers>
        <_>
          <internalNodes>
            0 -1 5 6.2772542238235474e-02</internalNodes>
          <leafValues>
            -8.0769228935241699e-01 7.3913043737411499e-01</leafValues></_>
        <_>
          <internalNodes>
            0 -1 8 5.2676141262054443e-02</internalNodes>
          <leafValues>
            -8.6452758312225342e-01 6.3685059547424316e-01</leafValues></_></weakClassifiers></_>
    <!-- stage 4 -->
    <_>
      <maxWeakCount>2</maxWeakCount>
      <stageThreshold>-2.3213228583335876e-01</stageThreshold>
      <weakClassifiers>
        <_>
          <internalNodes>
            0 -1 23 -2.4497630074620247e-02</internalNodes>
          <leafValues>
            -9.3406593799591064e-01 5.9322035312652588e-01</leafValues></_>
        <_>
          <internalNodes>
            0 -1 2 9.0500973165035248e-03</internalNodes>
          <leafValues>
            -8.2535260915756226e-01 7.3766344785690308e-01</leafValues></_></weakClassifiers></_>
    <!-- stage 5 -->
    <_>
      <maxWeakCount>2</maxWeakCount>
      <stageThreshold>-9.4584882259368896e-02</stageThreshold>
      <weakClassifiers>
        <_>
          <internalNodes>
            0 -1 10 -1.4087835326790810e-02</internalNodes>
          <leafValues>
            -7.3451328277587891e-01 8.9189189672470093e-01</leafValues></_>
        <_>
          <internalNodes>
            0 -1 13 -2.0609108731150627e-02</internalNodes>
          <leafValues>
            6.3992840051651001e-01 -8.2512795925140381e-01</leafValues></_></weakClassifiers></_>
    <!-- stage 6 -->
    <_>
      <maxWeakCount>3</maxWeakCount>
      <stageThreshold>-9.2601478099822998e-01</stageThreshold>
      <weakClassifiers>
        <_>
          <internalNodes>
            0 -1 20 -7.1579858660697937e-02</internalNodes>
          <leafValues>
            7.3913043737411499e-01 -8.0769228935241699e-01</leafValues></_>
        <_>
          <internalNodes>
            0 -1 1 1.4351657032966614e-01</internalNodes>
          <leafValues>
            -7.6311987638473511e-01 7.1574872732162476e-01</leafValues></_>
        <_>
          <internalNodes>
            0 -1 25 -2.0020464435219765e-03</internalNodes>
          <leafValues>
            6.4479738473892212e-01 -8.0635023117065430e-01</leafValues></_></weakClassifiers></_>
    <!-- stage 7 -->
    <_>
      <maxWeakCount>2</maxWeakCount>
      <stageThreshold>-3.7810933589935303e-01</stageThreshold>
      <weakClassifiers>
        <_>
          <internalNodes>
            0 -1 18 3.9390228688716888e-02</internalNodes>
          <leafValues>
            -8.4269660711288452e-01 4.0983605384826660e-01</leafValues></_>
        <_>
          <internalNodes>
            0 -1 12 -3.3093217643909156e-04</internalNodes>
          <leafValues>
            5.2616131305694580e-01 -7.8794538974761963e-01</leafValues></_></weakClassifiers></_>
    <!-- stage 8 -->
    <_>
      <maxWeakCount>2</maxWeakCount>
      <stageThreshold>-3.4224840998649597e-01</stageThreshold>
      <weakClassifiers>
        <_>
          <internalNodes>
            0 -1 11 6.1898357234895229e-03</internalNodes>
          <leafValues>
            -7.9591834545135498e-01 5.3846156597137451e-01</leafValues></_>
        <_>
          <internalNodes>
            0 -1 9 -5.9016592800617218e-02</internalNodes>
          <leafValues>
            4.9848833680152893e-01 -8.8070994615554810e-01</leafValues></_></weakClassifiers></_>
    <!-- stage 9 -->
    <_>
      <maxWeakCount>4</maxWeakCount>
      <stageThreshold>-4.6331003308296204e-01</stageThreshold>
      <weakClassifiers>
        <_>
          <internalNodes>
            0 -1 15 -1.3775376137346029e-03</internalNodes>
          <leafValues>
            6.0784316062927246e-01 -8.1818181276321411e-01</leafValues></_>
        <_>
          <internalNodes>
            0 -1 16 -2.6810662820935249e-03</internalNodes>
          <leafValues>
            5.5872827768325806e-01 -7.5687325000762939e-01</leafValues></_>
        <_>
          <internalNodes>
            0 -1 0 5.2731741219758987e-02</internalNodes>
          <leafValues>
            -7.6450157165527344e-01 5.8746361732482910e-01</leafValues></_>
        <_>
          <internalNodes>
            0 -1 7 4.0917787700891495e-03</internalNodes>
          <leafValues>
            -7.5946950912475586e-01 5.6064504384994507e-01</leafValues></_></weakClassifiers></_>
    <!-- stage 10 -->
    <_>
      <maxWeakCount>3</maxWeakCount>
      <stageThreshold>-7.9861313104629517e-01</stageThreshold>
      <weakClassifiers>
        <_>
          <internalNodes>
            0 -1 19 -7.9235814511775970e-02</internalNodes>
          <leafValues>
            5.7446807622909546e-01 -7.4757283926010132e-01</leafValues></_>
        <_>
          <internalNodes>
            0 -1 14 1.6977362334728241e-02</internalNodes>
          <leafValues>
            -5.7618397474288940e-01 8.1715756654739380e-01</leafValues></_>
        <_>
          <internalNodes>
            0 -1 24 -3.4385465085506439e-02</internalNodes>
          <leafValues>
            5.2514368295669556e-01 -6.4621794223785400e-01</leafValues></_></weakClassifiers></_></stages>
  <features>
    <_>
      <rects>
        <_>
          0 0 19 4 -1.</_>
        <_>
          0 2 19 2 2.</_></rects>
      <tilted>0</tilted></_>
    <_>
      <rects>
        <_>
          0 3 12 19 -1.</_>
        <_>
          6 3 6 19 2.</_></rects>
      <tilted>0</tilted></_>
    <_>
      <rects>
        <_>
          0 7 4 5 -1.</_>
        <_>
          2 7 2 5 2.</_></rects>
      <tilted>0</tilted></_>
    <_>
      <rects>
        <_>
          0 9 12 4 -1.</_>
        <_>
          0 11 12 2 2.</_></rects>
      <tilted>0</tilted></_>
    <_>
      <rects>
        <_>
          0 21 21 1 -1.</_>
        <_>
          7 21 7 1 2.</_></rects>
      <tilted>0</tilted></_>
    <_>
      <rects>
        <_>
          1 0 10 9 -1.</_>
        <_>
          6 0 5 9 2.</_></rects>
      <tilted>0</tilted></_>
    <_>
      <rects>
        <_>
          1 6 4 13 -1.</_>
        <_>
          3 6 2 13 2.</_></rects>
      <tilted>0</tilted></_>
    <_>
      <rects>
        <_>
          1 7 2 7 -1.</_>
        <_>
          2 7 1 7 2.</_></rects>
      <tilted>0</tilted></_>
    <_>
      <rects>
        <_>
          1 8 19 6 -1.</_>
        <_>
          1 11 19 3 2.</_></rects>
      <tilted>0</tilted></_>
    <_>
      <rects>
        <_>
          2 9 20 14 -1.</_>
        <_>
          2 16 20 7 2.</_></rects>
      <tilted>0</tilted></_>
    <_>
      <rects>
        <_>
          3 0 18 1 -1.</_>
        <_>
          9 0 6 1 2.</_></rects>
      <tilted>0</tilted></_>
    <_>
      <rects>
        <_>
          6 0 7 2 -1.</_>
        <_>
          6 1 7 1 2.</_></rects>
      <tilted>0</tilted></_>
    <_>
      <rects>
        <_>
          7 22 4 2 -1.</_>
        <_>
          7 22 2 1 2.</_>
        <_>
          9 23 2 1 2.</_></rects>
      <tilted>0</tilted></_>
    <_>
      <rects>
        <_>
          8 5 7 6 -1.</_>
        <_>
          8 8 7 3 2.</_></rects>
      <tilted>0</tilted></_>
    <_>
      <rects>
        <_>
          8 9 12 6 -1.</_>
        <_>
          8 9 6 3 2.</_>
        <_>
          14 12 6 3 2.</_></rects>
      <tilted>0</tilted></_>
    <_>
      <rects>
        <_>
          8 21 2 2 -1.</_>
        <_>
          8 22 2 1 2.</_></rects>
      <tilted>0</tilted></_>
    <_>
      <rects>
        <_>
          10 22 4 2 -1.</_>
        <_>
          10 23 4 1 2.</_></rects>
      <tilted>0</tilted></_>
    <_>
      <rects>
        <_>
          11 0 6 4 -1.</_>
        <_>
          11 2 6 2 2.</_></rects>
      <tilted>0</tilted></_>
    <_>
      <rects>
        <_>
          12 0 10 6 -1.</_>
        <_>
          12 3 10 3 2.</_></rects>
      <tilted>0</tilted></_>
    <_>
      <rects>
        <_>
          12 3 12 5 -1.</_>
        <_>
          18 3 6 5 2.</_></rects>
      <tilted>0</tilted></_>
    <_>
      <rects>
        <_>
          14 2 10 7 -1.</_>
        <_>
          19 2 5 7 2.</_></rects>
      <tilted>0</tilted></_>
    <_>
      <rects>
        <_>
          14 20 1 4 -1.</_>
        <_>
          14 22 1 2 2.</_></rects>
      <tilted>0</tilted></_>
    <_>
      <rects>
        <_>
          16 5 8 3 -1.</_>
        <_>
          20 5 4 3 2.</_></rects>
      <tilted>0</tilted></_>
    <_>
      <rects>
        <_>
          17 0 1 12 -1.</_>
        <_>
          17 4 1 4 2.</_></rects>
      <tilted>0</tilted></_>
    <_>
      <rects>
        <_>
          17 11 6 12 -1.</_>
        <_>
          17 17 6 6 2.</_></rects>
      <tilted>0</tilted></_>
    <_>
      <rects>
        <_>
          20 11 4 2 -1.</_>
        <_>
          22 11 2 2 2.</_></rects>
      <tilted>0</tilted></_></features></cascade>
</opencv_storage>
