<?xml version="1.0"?>
<opencv_storage>
<stage2>
  <maxWeakCount>6</maxWeakCount>
  <stageThreshold>-1.0279622077941895e+00</stageThreshold>
  <weakClassifiers>
    <_>
      <internalNodes>
        0 -1 137051 1.6289720311760902e-02</internalNodes>
      <leafValues>
        -5.2671754360198975e-01 7.9508197307586670e-01</leafValues></_>
    <_>
      <internalNodes>
        0 -1 61206 3.0096892267465591e-02</internalNodes>
      <leafValues>
        -4.9272286891937256e-01 8.3953607082366943e-01</leafValues></_>
    <_>
      <internalNodes>
        0 -1 49338 -4.4078797101974487e-02</internalNodes>
      <leafValues>
        -6.8505346775054932e-01 5.8143889904022217e-01</leafValues></_>
    <_>
      <internalNodes>
        0 -1 144958 -5.2836444228887558e-02</internalNodes>
      <leafValues>
        8.4930229187011719e-01 -4.2327216267585754e-01</leafValues></_>
    <_>
      <internalNodes>
        0 -1 89748 -3.1962431967258453e-03</internalNodes>
      <leafValues>
        5.6339627504348755e-01 -6.6918867826461792e-01</leafValues></_>
    <_>
      <internalNodes>
        0 -1 119834 -4.5277914032340050e-03</internalNodes>
      <leafValues>
        5.0250017642974854e-01 -6.6764497756958008e-01</leafValues></_></weakClassifiers></stage2>
</opencv_storage>
