<?xml version="1.0"?>
<opencv_storage>
<stage6>
  <maxWeakCount>7</maxWeakCount>
  <stageThreshold>-1.1310621500015259e+00</stageThreshold>
  <weakClassifiers>
    <_>
      <internalNodes>
        0 -1 122775 -4.1055895388126373e-02</internalNodes>
      <leafValues>
        7.9039299488067627e-01 -3.8356164097785950e-01</leafValues></_>
    <_>
      <internalNodes>
        0 -1 70569 1.1640954762697220e-03</internalNodes>
      <leafValues>
        -5.1671481132507324e-01 6.7191505432128906e-01</leafValues></_>
    <_>
      <internalNodes>
        0 -1 161494 -3.5531735047698021e-03</internalNodes>
      <leafValues>
        7.5203680992126465e-01 -4.1485318541526794e-01</leafValues></_>
    <_>
      <internalNodes>
        0 -1 133546 -1.6585120465606451e-03</internalNodes>
      <leafValues>
        4.7177600860595703e-01 -5.1514083147048950e-01</leafValues></_>
    <_>
      <internalNodes>
        0 -1 16522 -1.2107741087675095e-02</internalNodes>
      <leafValues>
        4.8078933358192444e-01 -4.6752279996871948e-01</leafValues></_>
    <_>
      <internalNodes>
        0 -1 37658 -6.8453657440841198e-03</internalNodes>
      <leafValues>
        8.3073639869689941e-01 -2.3071055114269257e-01</leafValues></_>
    <_>
      <internalNodes>
        0 -1 146935 1.0016034357249737e-03</internalNodes>
      <leafValues>
        -5.4517602920532227e-01 4.1052478551864624e-01</leafValues></_></weakClassifiers></stage6>
</opencv_storage>
