<?xml version="1.0"?>
<opencv_storage>
<stage5>
  <maxWeakCount>5</maxWeakCount>
  <stageThreshold>-4.7003352642059326e-01</stageThreshold>
  <weakClassifiers>
    <_>
      <internalNodes>
        0 -1 98625 3.5428162664175034e-03</internalNodes>
      <leafValues>
        -3.5251799225807190e-01 7.3728811740875244e-01</leafValues></_>
    <_>
      <internalNodes>
        0 -1 13874 -2.6959385722875595e-02</internalNodes>
      <leafValues>
        -3.9076453447341919e-01 8.5582244396209717e-01</leafValues></_>
    <_>
      <internalNodes>
        0 -1 7375 5.1573604345321655e-02</internalNodes>
      <leafValues>
        -6.3351666927337646e-01 4.9641716480255127e-01</leafValues></_>
    <_>
      <internalNodes>
        0 -1 157469 -1.4732833951711655e-03</internalNodes>
      <leafValues>
        6.6422992944717407e-01 -4.3808990716934204e-01</leafValues></_>
    <_>
      <internalNodes>
        0 -1 55606 -6.9472000002861023e-02</internalNodes>
      <leafValues>
        -9.8007988929748535e-01 2.5504943728446960e-01</leafValues></_></weakClassifiers></stage5>
</opencv_storage>
