<?xml version="1.0"?>
<opencv_storage>
<stage7>
  <maxWeakCount>7</maxWeakCount>
  <stageThreshold>-1.1853457689285278e+00</stageThreshold>
  <weakClassifiers>
    <_>
      <internalNodes>
        0 -1 38850 2.5699606165289879e-02</internalNodes>
      <leafValues>
        -3.6231884360313416e-01 7.3839664459228516e-01</leafValues></_>
    <_>
      <internalNodes>
        0 -1 80558 -4.8373211175203323e-03</internalNodes>
      <leafValues>
        4.7187685966491699e-01 -6.7512470483779907e-01</leafValues></_>
    <_>
      <internalNodes>
        0 -1 22670 2.9303086921572685e-04</internalNodes>
      <leafValues>
        -5.1894748210906982e-01 5.3226441144943237e-01</leafValues></_>
    <_>
      <internalNodes>
        0 -1 155134 -2.3165156017057598e-04</internalNodes>
      <leafValues>
        6.0777807235717773e-01 -4.2388984560966492e-01</leafValues></_>
    <_>
      <internalNodes>
        0 -1 146063 7.0379441604018211e-03</internalNodes>
      <leafValues>
        -3.7134343385696411e-01 6.5038132667541504e-01</leafValues></_>
    <_>
      <internalNodes>
        0 -1 162103 -5.4540317505598068e-03</internalNodes>
      <leafValues>
        -3.5089313983917236e-01 7.4925166368484497e-01</leafValues></_>
    <_>
      <internalNodes>
        0 -1 78612 5.4935114458203316e-03</internalNodes>
      <leafValues>
        3.7017005681991577e-01 -8.0815804004669189e-01</leafValues></_></weakClassifiers></stage7>
</opencv_storage>
