<?xml version="1.0"?>
<opencv_storage>
<stage13>
  <maxWeakCount>44</maxWeakCount>
  <stageThreshold>-1.3089196681976318e+00</stageThreshold>
  <weakClassifiers>
    <_>
      <internalNodes>
        0 -1 18104 -6.2367785722017288e-03</internalNodes>
      <leafValues>
        2.7027027681469917e-02 -4.2300194501876831e-01</leafValues></_>
    <_>
      <internalNodes>
        0 -1 13073 3.5188053734600544e-03</internalNodes>
      <leafValues>
        -2.0067180693149567e-01 2.5138041377067566e-01</leafValues></_>
    <_>
      <internalNodes>
        0 -1 8186 1.3499236665666103e-03</internalNodes>
      <leafValues>
        7.2532445192337036e-02 -6.6196227073669434e-01</leafValues></_>
    <_>
      <internalNodes>
        0 -1 121334 6.9212418748065829e-04</internalNodes>
      <leafValues>
        7.1558497846126556e-02 -8.6159896850585938e-01</leafValues></_>
    <_>
      <internalNodes>
        0 -1 96096 -2.9614558443427086e-03</internalNodes>
      <leafValues>
        4.0703094005584717e-01 -1.0831373929977417e-01</leafValues></_>
    <_>
      <internalNodes>
        0 -1 118331 5.4266676306724548e-02</internalNodes>
      <leafValues>
        -1.1464039236307144e-01 4.2550513148307800e-01</leafValues></_>
    <_>
      <internalNodes>
        0 -1 142675 3.3223414793610573e-03</internalNodes>
      <leafValues>
        -1.3803236186504364e-01 3.5254085063934326e-01</leafValues></_>
    <_>
      <internalNodes>
        0 -1 162322 -1.9315024837851524e-04</internalNodes>
      <leafValues>
        -5.1184380054473877e-01 9.4635501503944397e-02</leafValues></_>
    <_>
      <internalNodes>
        0 -1 20426 -8.1090152263641357e-02</internalNodes>
      <leafValues>
        -6.7664390802383423e-01 7.8407891094684601e-02</leafValues></_>
    <_>
      <internalNodes>
        0 -1 77803 1.5807336894795299e-03</internalNodes>
      <leafValues>
        -1.1062203347682953e-01 4.0140855312347412e-01</leafValues></_>
    <_>
      <internalNodes>
        0 -1 57708 -1.6607642173767090e-03</internalNodes>
      <leafValues>
        3.2920712232589722e-01 -1.7836800217628479e-01</leafValues></_>
    <_>
      <internalNodes>
        0 -1 137000 1.2169301509857178e-02</internalNodes>
      <leafValues>
        -2.5837561488151550e-01 1.7350001633167267e-01</leafValues></_>
    <_>
      <internalNodes>
        0 -1 160974 2.0049444865435362e-03</internalNodes>
      <leafValues>
        -3.2300147414207458e-01 1.3468231260776520e-01</leafValues></_>
    <_>
      <internalNodes>
        0 -1 76157 1.6135368496179581e-02</internalNodes>
      <leafValues>
        -1.0106096416711807e-01 5.4584932327270508e-01</leafValues></_>
    <_>
      <internalNodes>
        0 -1 4960 -4.8269517719745636e-02</internalNodes>
      <leafValues>
        2.1272405982017517e-01 -2.7924367785453796e-01</leafValues></_>
    <_>
      <internalNodes>
        0 -1 80760 -1.3658800162374973e-03</internalNodes>
      <leafValues>
        -9.5636492967605591e-01 2.9099604114890099e-02</leafValues></_>
    <_>
      <internalNodes>
        0 -1 50174 3.1873217225074768e-01</internalNodes>
      <leafValues>
        -1.0112938284873962e-01 4.2644250392913818e-01</leafValues></_>
    <_>
      <internalNodes>
        0 -1 146435 -1.0421057231724262e-03</internalNodes>
      <leafValues>
        2.8746563196182251e-01 -1.5563824772834778e-01</leafValues></_>
    <_>
      <internalNodes>
        0 -1 155544 4.1318923234939575e-02</internalNodes>
      <leafValues>
        6.4291223883628845e-02 -7.7259087562561035e-01</leafValues></_>
    <_>
      <internalNodes>
        0 -1 161963 2.6453235186636448e-03</internalNodes>
      <leafValues>
        3.8030918687582016e-02 -7.6658070087432861e-01</leafValues></_>
    <_>
      <internalNodes>
        0 -1 86774 -5.7556724641472101e-04</internalNodes>
      <leafValues>
        2.5524148344993591e-01 -1.5621018409729004e-01</leafValues></_>
    <_>
      <internalNodes>
        0 -1 87486 3.7805978208780289e-03</internalNodes>
      <leafValues>
        -1.8813455104827881e-01 2.1311604976654053e-01</leafValues></_>
    <_>
      <internalNodes>
        0 -1 141753 2.3358765989542007e-02</internalNodes>
      <leafValues>
        -6.6727787256240845e-02 6.2937563657760620e-01</leafValues></_>
    <_>
      <internalNodes>
        0 -1 154636 -8.6814779788255692e-03</internalNodes>
      <leafValues>
        -8.4365302324295044e-01 5.7950213551521301e-02</leafValues></_>
    <_>
      <internalNodes>
        0 -1 81080 -6.3583068549633026e-03</internalNodes>
      <leafValues>
        4.5934695005416870e-01 -9.2799298465251923e-02</leafValues></_>
    <_>
      <internalNodes>
        0 -1 81276 7.6464787125587463e-03</internalNodes>
      <leafValues>
        -1.9176179170608521e-01 2.1655832231044769e-01</leafValues></_>
    <_>
      <internalNodes>
        0 -1 134303 1.4787235297262669e-02</internalNodes>
      <leafValues>
        4.9446247518062592e-02 -9.5906513929367065e-01</leafValues></_>
    <_>
      <internalNodes>
        0 -1 45602 -4.0957261808216572e-03</internalNodes>
      <leafValues>
        3.8179424405097961e-01 -1.1868318915367126e-01</leafValues></_>
    <_>
      <internalNodes>
        0 -1 126069 -6.1527211219072342e-03</internalNodes>
      <leafValues>
        -1.7389133572578430e-01 2.4128158390522003e-01</leafValues></_>
    <_>
      <internalNodes>
        0 -1 141212 1.0375591227784753e-03</internalNodes>
      <leafValues>
        -1.5652805566787720e-01 2.5209823250770569e-01</leafValues></_>
    <_>
      <internalNodes>
        0 -1 161180 -5.7784293312579393e-04</internalNodes>
      <leafValues>
        -6.9837802648544312e-01 5.8008890599012375e-02</leafValues></_>
    <_>
      <internalNodes>
        0 -1 86748 2.1314979530870914e-03</internalNodes>
      <leafValues>
        -1.1583501845598221e-01 3.6139193177223206e-01</leafValues></_>
    <_>
      <internalNodes>
        0 -1 89428 8.1652321387082338e-04</internalNodes>
      <leafValues>
        5.3303375840187073e-02 -7.3971569538116455e-01</leafValues></_>
    <_>
      <internalNodes>
        0 -1 111051 4.7361915931105614e-03</internalNodes>
      <leafValues>
        -7.3561295866966248e-02 6.6798973083496094e-01</leafValues></_>
    <_>
      <internalNodes>
        0 -1 148296 6.3002138631418347e-04</internalNodes>
      <leafValues>
        -1.0792685300111771e-01 3.1329941749572754e-01</leafValues></_>
    <_>
      <internalNodes>
        0 -1 127712 -6.0566142201423645e-03</internalNodes>
      <leafValues>
        2.2866415977478027e-01 -1.7159853875637054e-01</leafValues></_>
    <_>
      <internalNodes>
        0 -1 138961 -3.2655203249305487e-03</internalNodes>
      <leafValues>
        3.2486033439636230e-01 -1.4907906949520111e-01</leafValues></_>
    <_>
      <internalNodes>
        0 -1 160897 1.9906624220311642e-03</internalNodes>
      <leafValues>
        -1.7043259739875793e-01 2.6398491859436035e-01</leafValues></_>
    <_>
      <internalNodes>
        0 -1 138916 -5.7228785008192062e-03</internalNodes>
      <leafValues>
        -7.8379350900650024e-01 5.4540533572435379e-02</leafValues></_>
    <_>
      <internalNodes>
        0 -1 89686 -1.8045551842078567e-03</internalNodes>
      <leafValues>
        -7.6263391971588135e-01 3.4333221614360809e-02</leafValues></_>
    <_>
      <internalNodes>
        0 -1 6910 1.1443253606557846e-01</internalNodes>
      <leafValues>
        3.6809902638196945e-02 -7.9635477066040039e-01</leafValues></_>
    <_>
      <internalNodes>
        0 -1 37896 -2.0261522149667144e-04</internalNodes>
      <leafValues>
        -4.5980107784271240e-01 7.1037329733371735e-02</leafValues></_>
    <_>
      <internalNodes>
        0 -1 137149 4.9050548113882542e-03</internalNodes>
      <leafValues>
        -1.1499505490064621e-01 3.8190358877182007e-01</leafValues></_>
    <_>
      <internalNodes>
        0 -1 76867 -5.3036946337670088e-04</internalNodes>
      <leafValues>
        1.7620818316936493e-01 -2.1174581348896027e-01</leafValues></_></weakClassifiers></stage13>
</opencv_storage>
