<?xml version="1.0"?>
<opencv_storage>
<stage4>
  <maxWeakCount>23</maxWeakCount>
  <stageThreshold>-1.6562303304672241e+00</stageThreshold>
  <weakClassifiers>
    <_>
      <internalNodes>
        0 -1 7751 -5.0952136516571045e-02</internalNodes>
      <leafValues>
        1.8719999492168427e-01 -5.6066948175430298e-01</leafValues></_>
    <_>
      <internalNodes>
        0 -1 25785 -1.4471311587840319e-03</internalNodes>
      <leafValues>
        -7.5584471225738525e-01 1.5467740595340729e-01</leafValues></_>
    <_>
      <internalNodes>
        0 -1 104396 -2.7915821410715580e-03</internalNodes>
      <leafValues>
        -2.3435822129249573e-01 6.0421121120452881e-01</leafValues></_>
    <_>
      <internalNodes>
        0 -1 160838 1.2137509183958173e-03</internalNodes>
      <leafValues>
        -2.1961277723312378e-01 4.1332870721817017e-01</leafValues></_>
    <_>
      <internalNodes>
        0 -1 121346 -1.5188038349151611e-02</internalNodes>
      <leafValues>
        -9.8943299055099487e-01 6.7574627697467804e-02</leafValues></_>
    <_>
      <internalNodes>
        0 -1 87840 2.8874548152089119e-03</internalNodes>
      <leafValues>
        -3.2704389095306396e-01 3.4722259640693665e-01</leafValues></_>
    <_>
      <internalNodes>
        0 -1 162091 -4.4229300692677498e-04</internalNodes>
      <leafValues>
        4.3951261043548584e-01 -2.4128578603267670e-01</leafValues></_>
    <_>
      <internalNodes>
        0 -1 23546 4.4709600508213043e-02</internalNodes>
      <leafValues>
        -5.0418621301651001e-01 2.1860474348068237e-01</leafValues></_>
    <_>
      <internalNodes>
        0 -1 85941 9.2938896268606186e-03</internalNodes>
      <leafValues>
        -1.8092343211174011e-01 6.8745297193527222e-01</leafValues></_>
    <_>
      <internalNodes>
        0 -1 123857 -8.7242443114519119e-03</internalNodes>
      <leafValues>
        5.4021823406219482e-01 -1.9914986193180084e-01</leafValues></_>
    <_>
      <internalNodes>
        0 -1 137665 -2.0696604624390602e-03</internalNodes>
      <leafValues>
        5.4925507307052612e-01 -1.6661721467971802e-01</leafValues></_>
    <_>
      <internalNodes>
        0 -1 47158 -2.4504326283931732e-02</internalNodes>
      <leafValues>
        -1.4889682829380035e-01 5.8061373233795166e-01</leafValues></_>
    <_>
      <internalNodes>
        0 -1 11514 -7.0405693259090185e-04</internalNodes>
      <leafValues>
        -7.5377106666564941e-01 1.4189726114273071e-01</leafValues></_>
    <_>
      <internalNodes>
        0 -1 125413 2.2962296498008072e-04</internalNodes>
      <leafValues>
        -2.2144721448421478e-01 4.4357511401176453e-01</leafValues></_>
    <_>
      <internalNodes>
        0 -1 46572 -3.4327455796301365e-04</internalNodes>
      <leafValues>
        4.2748373746871948e-01 -2.0334772765636444e-01</leafValues></_>
    <_>
      <internalNodes>
        0 -1 12910 -2.0035344641655684e-03</internalNodes>
      <leafValues>
        -7.9838418960571289e-01 1.1193609982728958e-01</leafValues></_>
    <_>
      <internalNodes>
        0 -1 125514 8.2630105316638947e-04</internalNodes>
      <leafValues>
        -2.6221051812171936e-01 3.9356333017349243e-01</leafValues></_>
    <_>
      <internalNodes>
        0 -1 157704 2.8488975949585438e-03</internalNodes>
      <leafValues>
        -2.3940220475196838e-01 3.7111300230026245e-01</leafValues></_>
    <_>
      <internalNodes>
        0 -1 101334 -1.8527214415371418e-03</internalNodes>
      <leafValues>
        4.4575023651123047e-01 -2.2845496237277985e-01</leafValues></_>
    <_>
      <internalNodes>
        0 -1 147584 5.1881192484870553e-04</internalNodes>
      <leafValues>
        -2.6128256320953369e-01 3.4404918551445007e-01</leafValues></_>
    <_>
      <internalNodes>
        0 -1 148090 -2.4448162876069546e-03</internalNodes>
      <leafValues>
        3.0577364563941956e-01 -3.3246052265167236e-01</leafValues></_>
    <_>
      <internalNodes>
        0 -1 162321 -1.5420524869114161e-03</internalNodes>
      <leafValues>
        -7.2024059295654297e-01 1.5558424592018127e-01</leafValues></_>
    <_>
      <internalNodes>
        0 -1 124134 7.4473591521382332e-03</internalNodes>
      <leafValues>
        -2.5847280025482178e-01 3.9637762308120728e-01</leafValues></_></weakClassifiers></stage4>
</opencv_storage>
