<?xml version="1.0"?>
<opencv_storage>
<stage7>
  <maxWeakCount>28</maxWeakCount>
  <stageThreshold>-1.5106337070465088e+00</stageThreshold>
  <weakClassifiers>
    <_>
      <internalNodes>
        0 -1 9424 2.6142823696136475e-01</internalNodes>
      <leafValues>
        -7.1586209535598755e-01 1.1682242900133133e-01</leafValues></_>
    <_>
      <internalNodes>
        0 -1 24756 -1.3189615681767464e-02</internalNodes>
      <leafValues>
        2.0280998945236206e-01 -4.0230250358581543e-01</leafValues></_>
    <_>
      <internalNodes>
        0 -1 13309 -7.4612617027014494e-04</internalNodes>
      <leafValues>
        -7.1693938970565796e-01 1.1993245780467987e-01</leafValues></_>
    <_>
      <internalNodes>
        0 -1 13323 -1.6828852239996195e-03</internalNodes>
      <leafValues>
        -6.5712630748748779e-01 1.6411656141281128e-01</leafValues></_>
    <_>
      <internalNodes>
        0 -1 144627 2.2037573158740997e-02</internalNodes>
      <leafValues>
        -2.6349455118179321e-01 2.7718114852905273e-01</leafValues></_>
    <_>
      <internalNodes>
        0 -1 1105 2.0866200793534517e-04</internalNodes>
      <leafValues>
        1.4470113813877106e-01 -4.7416096925735474e-01</leafValues></_>
    <_>
      <internalNodes>
        0 -1 162095 3.8353318814188242e-04</internalNodes>
      <leafValues>
        1.3408952951431274e-01 -5.2675080299377441e-01</leafValues></_>
    <_>
      <internalNodes>
        0 -1 139152 3.6166782956570387e-04</internalNodes>
      <leafValues>
        8.6854062974452972e-02 -6.7572075128555298e-01</leafValues></_>
    <_>
      <internalNodes>
        0 -1 15632 1.2966722249984741e-01</internalNodes>
      <leafValues>
        9.0329065918922424e-02 -6.8977391719818115e-01</leafValues></_>
    <_>
      <internalNodes>
        0 -1 151826 1.0501237120479345e-03</internalNodes>
      <leafValues>
        -3.5732090473175049e-01 1.5586349368095398e-01</leafValues></_>
    <_>
      <internalNodes>
        0 -1 8142 -1.9291229546070099e-03</internalNodes>
      <leafValues>
        -6.4436888694763184e-01 8.5969343781471252e-02</leafValues></_>
    <_>
      <internalNodes>
        0 -1 48736 4.5953900553286076e-05</internalNodes>
      <leafValues>
        -3.0308106541633606e-01 1.9961562752723694e-01</leafValues></_>
    <_>
      <internalNodes>
        0 -1 162219 7.7210983727127314e-04</internalNodes>
      <leafValues>
        5.6383639574050903e-02 -7.3905330896377563e-01</leafValues></_>
    <_>
      <internalNodes>
        0 -1 12277 2.4929631035774946e-03</internalNodes>
      <leafValues>
        8.1907100975513458e-02 -6.6039770841598511e-01</leafValues></_>
    <_>
      <internalNodes>
        0 -1 133626 -3.8275592029094696e-02</internalNodes>
      <leafValues>
        7.2570130228996277e-02 -7.4187260866165161e-01</leafValues></_>
    <_>
      <internalNodes>
        0 -1 130657 -2.8607118874788284e-03</internalNodes>
      <leafValues>
        2.4516814947128296e-01 -2.4821187555789948e-01</leafValues></_>
    <_>
      <internalNodes>
        0 -1 155236 6.5224722493439913e-04</internalNodes>
      <leafValues>
        8.0550640821456909e-02 -7.8102254867553711e-01</leafValues></_>
    <_>
      <internalNodes>
        0 -1 130996 1.3113316381350160e-03</internalNodes>
      <leafValues>
        -1.3952377438545227e-01 4.8212748765945435e-01</leafValues></_>
    <_>
      <internalNodes>
        0 -1 7423 -2.6702741160988808e-04</internalNodes>
      <leafValues>
        2.4571900069713593e-01 -2.4738310277462006e-01</leafValues></_>
    <_>
      <internalNodes>
        0 -1 40511 5.8111153542995453e-02</internalNodes>
      <leafValues>
        -6.8124949932098389e-02 8.7392759323120117e-01</leafValues></_>
    <_>
      <internalNodes>
        0 -1 162173 6.0586439212784171e-04</internalNodes>
      <leafValues>
        9.6846088767051697e-02 -7.1734178066253662e-01</leafValues></_>
    <_>
      <internalNodes>
        0 -1 127911 -3.4974007867276669e-03</internalNodes>
      <leafValues>
        2.9329410195350647e-01 -2.0693413913249969e-01</leafValues></_>
    <_>
      <internalNodes>
        0 -1 148270 -6.8436097353696823e-04</internalNodes>
      <leafValues>
        -7.5998491048812866e-01 7.2025634348392487e-02</leafValues></_>
    <_>
      <internalNodes>
        0 -1 91513 6.5676152706146240e-02</internalNodes>
      <leafValues>
        -1.1717196553945541e-01 5.4474276304244995e-01</leafValues></_>
    <_>
      <internalNodes>
        0 -1 95194 2.9976514633744955e-03</internalNodes>
      <leafValues>
        -1.2001997232437134e-01 5.0863218307495117e-01</leafValues></_>
    <_>
      <internalNodes>
        0 -1 160747 6.7929746583104134e-03</internalNodes>
      <leafValues>
        1.0283398628234863e-01 -6.4344340562820435e-01</leafValues></_>
    <_>
      <internalNodes>
        0 -1 106745 -5.1280669867992401e-04</internalNodes>
      <leafValues>
        -7.7981793880462646e-01 6.2846325337886810e-02</leafValues></_>
    <_>
      <internalNodes>
        0 -1 161139 3.4150891005992889e-03</internalNodes>
      <leafValues>
        4.1797854006290436e-02 -9.5568364858627319e-01</leafValues></_></weakClassifiers></stage7>
</opencv_storage>
