<?xml version="1.0"?>
<opencv_storage>
<cascade>
  <stageType>BOOST</stageType>
  <featureType>HAAR</featureType>
  <height>15</height>
  <width>15</width>
  <stageParams>
    <boostType>GAB</boostType>
    <minHitRate>9.9500000476837158e-01</minHitRate>
    <maxFalseAlarm>3.0000001192092896e-01</maxFalseAlarm>
    <weightTrimRate>9.4999999999999996e-01</weightTrimRate>
    <maxDepth>1</maxDepth>
    <maxWeakCount>100</maxWeakCount></stageParams>
  <featureParams>
    <maxCatCount>0</maxCatCount>
    <featSize>1</featSize>
    <mode>BASIC</mode></featureParams>
  <stageNum>10</stageNum>
  <stages>
    <!-- stage 0 -->
    <_>
      <maxWeakCount>7</maxWeakCount>
      <stageThreshold>-1.4022296667098999e+00</stageThreshold>
      <weakClassifiers>
        <_>
          <internalNodes>
            0 -1 160 1.0242955759167671e-02</internalNodes>
          <leafValues>
            -7.8385251760482788e-01 5.4566746950149536e-01</leafValues></_>
        <_>
          <internalNodes>
            0 -1 16 2.4927809834480286e-02</internalNodes>
          <leafValues>
            -6.5029948949813843e-01 5.8674997091293335e-01</leafValues></_>
        <_>
          <internalNodes>
            0 -1 137 3.1587660778313875e-03</internalNodes>
          <leafValues>
            -7.3138582706451416e-01 3.7760591506958008e-01</leafValues></_>
        <_>
          <internalNodes>
            0 -1 69 -2.6853308081626892e-02</internalNodes>
          <leafValues>
            6.0624521970748901e-01 -4.5132380723953247e-01</leafValues></_>
        <_>
          <internalNodes>
            0 -1 62 -3.6681219935417175e-02</internalNodes>
          <leafValues>
            -8.1456917524337769e-01 2.7874922752380371e-01</leafValues></_>
        <_>
          <internalNodes>
            0 -1 142 9.4832275062799454e-03</internalNodes>
          <leafValues>
            -3.6999592185020447e-01 6.1562377214431763e-01</leafValues></_>
        <_>
          <internalNodes>
            0 -1 10 -6.5766915678977966e-02</internalNodes>
          <leafValues>
            -9.1046750545501709e-01 2.4830964207649231e-01</leafValues></_></weakClassifiers></_>
    <!-- stage 1 -->
    <_>
      <maxWeakCount>10</maxWeakCount>
      <stageThreshold>-1.5344717502593994e+00</stageThreshold>
      <weakClassifiers>
        <_>
          <internalNodes>
            0 -1 1 -3.6018334329128265e-02</internalNodes>
          <leafValues>
            3.8189846277236938e-01 -7.5824177265167236e-01</leafValues></_>
        <_>
          <internalNodes>
            0 -1 116 3.6208424717187881e-02</internalNodes>
          <leafValues>
            -5.6050693988800049e-01 4.5371633768081665e-01</leafValues></_>
        <_>
          <internalNodes>
            0 -1 67 -3.9201065897941589e-01</internalNodes>
          <leafValues>
            -9.9327683448791504e-01 2.2470074892044067e-01</leafValues></_>
        <_>
          <internalNodes>
            0 -1 156 9.4095505774021149e-03</internalNodes>
          <leafValues>
            -4.4904196262359619e-01 5.3920465707778931e-01</leafValues></_>
        <_>
          <internalNodes>
            0 -1 48 -6.2609456479549408e-02</internalNodes>
          <leafValues>
            6.3072955608367920e-01 -3.3997473120689392e-01</leafValues></_>
        <_>
          <internalNodes>
            0 -1 73 6.2364839017391205e-02</internalNodes>
          <leafValues>
            -3.5741221904754639e-01 6.8075376749038696e-01</leafValues></_>
        <_>
          <internalNodes>
            0 -1 19 1.3879446312785149e-02</internalNodes>
          <leafValues>
            -4.1910171508789063e-01 3.7549474835395813e-01</leafValues></_>
        <_>
          <internalNodes>
            0 -1 113 -6.0877278447151184e-02</internalNodes>
          <leafValues>
            5.7104903459548950e-01 -3.0747935175895691e-01</leafValues></_>
        <_>
          <internalNodes>
            0 -1 157 -8.3210289478302002e-02</internalNodes>
          <leafValues>
            -8.5278147459030151e-01 2.2048524022102356e-01</leafValues></_>
        <_>
          <internalNodes>
            0 -1 105 -1.2425664812326431e-02</internalNodes>
          <leafValues>
            5.1007759571075439e-01 -3.5846149921417236e-01</leafValues></_></weakClassifiers></_>
    <!-- stage 2 -->
    <_>
      <maxWeakCount>11</maxWeakCount>
      <stageThreshold>-1.3597981929779053e+00</stageThreshold>
      <weakClassifiers>
        <_>
          <internalNodes>
            0 -1 44 -1.0750293731689453e-01</internalNodes>
          <leafValues>
            3.5877862572669983e-01 -7.1001869440078735e-01</leafValues></_>
        <_>
          <internalNodes>
            0 -1 9 1.6175113618373871e-02</internalNodes>
          <leafValues>
            -4.6027466654777527e-01 5.2234113216400146e-01</leafValues></_>
        <_>
          <internalNodes>
            0 -1 17 -5.6374527513980865e-02</internalNodes>
          <leafValues>
            -1. 1.8866744637489319e-01</leafValues></_>
        <_>
          <internalNodes>
            0 -1 146 6.5393932163715363e-03</internalNodes>
          <leafValues>
            -3.9604330062866211e-01 5.2393567562103271e-01</leafValues></_>
        <_>
          <internalNodes>
            0 -1 77 1.8347233533859253e-02</internalNodes>
          <leafValues>
            -3.7691375613212585e-01 4.8486173152923584e-01</leafValues></_>
        <_>
          <internalNodes>
            0 -1 60 3.6735911853611469e-03</internalNodes>
          <leafValues>
            -5.9550201892852783e-01 2.3755685985088348e-01</leafValues></_>
        <_>
          <internalNodes>
            0 -1 141 5.2412962540984154e-03</internalNodes>
          <leafValues>
            1.5171077847480774e-01 -8.7410557270050049e-01</leafValues></_>
        <_>
          <internalNodes>
            0 -1 11 -3.5450819414108992e-03</internalNodes>
          <leafValues>
            2.4790078401565552e-01 -4.8262095451354980e-01</leafValues></_>
        <_>
          <internalNodes>
            0 -1 93 5.3062565624713898e-02</internalNodes>
          <leafValues>
            -1.8509379029273987e-01 7.9654103517532349e-01</leafValues></_>
        <_>
          <internalNodes>
            0 -1 88 7.8878343105316162e-02</internalNodes>
          <leafValues>
            -2.3131603002548218e-01 6.3284254074096680e-01</leafValues></_>
        <_>
          <internalNodes>
            0 -1 31 6.5914662554860115e-03</internalNodes>
          <leafValues>
            1.7402617633342743e-01 -9.1056579351425171e-01</leafValues></_></weakClassifiers></_>
    <!-- stage 3 -->
    <_>
      <maxWeakCount>12</maxWeakCount>
      <stageThreshold>-1.2673091888427734e+00</stageThreshold>
      <weakClassifiers>
        <_>
          <internalNodes>
            0 -1 159 -1.5734035521745682e-02</internalNodes>
          <leafValues>
            -2.3121386766433716e-02 -7.5229358673095703e-01</leafValues></_>
        <_>
          <internalNodes>
            0 -1 49 -5.3464472293853760e-03</internalNodes>
          <leafValues>
            3.2692584395408630e-01 -5.0242519378662109e-01</leafValues></_>
        <_>
          <internalNodes>
            0 -1 140 -2.8180438093841076e-03</internalNodes>
          <leafValues>
            -7.9036325216293335e-01 2.2013384103775024e-01</leafValues></_>
        <_>
          <internalNodes>
            0 -1 136 -1.0392449796199799e-01</internalNodes>
          <leafValues>
            -9.8664271831512451e-01 1.5615609288215637e-01</leafValues></_>
        <_>
          <internalNodes>
            0 -1 125 -2.1625380963087082e-02</internalNodes>
          <leafValues>
            2.7439555525779724e-01 -5.0533992052078247e-01</leafValues></_>
        <_>
          <internalNodes>
            0 -1 121 4.6912878751754761e-03</internalNodes>
          <leafValues>
            -3.4224826097488403e-01 3.7789607048034668e-01</leafValues></_>
        <_>
          <internalNodes>
            0 -1 29 -6.5645761787891388e-03</internalNodes>
          <leafValues>
            -8.8868010044097900e-01 1.3004697859287262e-01</leafValues></_>
        <_>
          <internalNodes>
            0 -1 28 4.1512977331876755e-03</internalNodes>
          <leafValues>
            1.3838846981525421e-01 -9.0852725505828857e-01</leafValues></_>
        <_>
          <internalNodes>
            0 -1 59 -5.8654071763157845e-03</internalNodes>
          <leafValues>
            4.0165320038795471e-01 -3.2292789220809937e-01</leafValues></_>
        <_>
          <internalNodes>
            0 -1 152 3.1848256476223469e-03</internalNodes>
          <leafValues>
            1.4409331977367401e-01 -8.0242544412612915e-01</leafValues></_>
        <_>
          <internalNodes>
            0 -1 86 -4.8466220498085022e-02</internalNodes>
          <leafValues>
            7.4736958742141724e-01 -1.6972629725933075e-01</leafValues></_>
        <_>
          <internalNodes>
            0 -1 84 -2.0018932223320007e-01</internalNodes>
          <leafValues>
            -9.6708220243453979e-01 1.3213667273521423e-01</leafValues></_></weakClassifiers></_>
    <!-- stage 4 -->
    <_>
      <maxWeakCount>14</maxWeakCount>
      <stageThreshold>-1.3402844667434692e+00</stageThreshold>
      <weakClassifiers>
        <_>
          <internalNodes>
            0 -1 143 8.2247396931052208e-03</internalNodes>
          <leafValues>
            -7.0659106969833374e-01 -5.0933784805238247e-03</leafValues></_>
        <_>
          <internalNodes>
            0 -1 162 -5.3395861759781837e-03</internalNodes>
          <leafValues>
            1.8164743483066559e-01 -5.7350796461105347e-01</leafValues></_>
        <_>
          <internalNodes>
            0 -1 115 6.7931474186480045e-03</internalNodes>
          <leafValues>
            -2.8391149640083313e-01 4.8084789514541626e-01</leafValues></_>
        <_>
          <internalNodes>
            0 -1 76 -1.9096583127975464e-02</internalNodes>
          <leafValues>
            4.6290108561515808e-01 -2.7998986840248108e-01</leafValues></_>
        <_>
          <internalNodes>
            0 -1 8 -4.1716331616044044e-03</internalNodes>
          <leafValues>
            3.3022823929786682e-01 -3.6702838540077209e-01</leafValues></_>
        <_>
          <internalNodes>
            0 -1 169 -1.2193207442760468e-01</internalNodes>
          <leafValues>
            -1. 1.4180141687393188e-01</leafValues></_>
        <_>
          <internalNodes>
            0 -1 118 2.9163325671106577e-03</internalNodes>
          <leafValues>
            -3.6552450060844421e-01 3.4976702928543091e-01</leafValues></_>
        <_>
          <internalNodes>
            0 -1 55 -4.8530804924666882e-03</internalNodes>
          <leafValues>
            -8.4927397966384888e-01 1.2652526795864105e-01</leafValues></_>
        <_>
          <internalNodes>
            0 -1 65 -5.9631252661347389e-03</internalNodes>
          <leafValues>
            3.6831581592559814e-01 -2.8071230649948120e-01</leafValues></_>
        <_>
          <internalNodes>
            0 -1 2 8.3036627620458603e-03</internalNodes>
          <leafValues>
            1.7091737687587738e-01 -6.6833436489105225e-01</leafValues></_>
        <_>
          <internalNodes>
            0 -1 130 -2.0796619355678558e-03</internalNodes>
          <leafValues>
            3.6904248595237732e-01 -2.9195949435234070e-01</leafValues></_>
        <_>
          <internalNodes>
            0 -1 3 -1.8383283168077469e-02</internalNodes>
          <leafValues>
            -7.7270704507827759e-01 1.1996743083000183e-01</leafValues></_>
        <_>
          <internalNodes>
            0 -1 40 1.5941238403320313e-01</internalNodes>
          <leafValues>
            9.9120199680328369e-02 -7.8876197338104248e-01</leafValues></_>
        <_>
          <internalNodes>
            0 -1 52 4.3155825138092041e-01</internalNodes>
          <leafValues>
            -1.7504955828189850e-01 6.6822570562362671e-01</leafValues></_></weakClassifiers></_>
    <!-- stage 5 -->
    <_>
      <maxWeakCount>20</maxWeakCount>
      <stageThreshold>-1.5847047567367554e+00</stageThreshold>
      <weakClassifiers>
        <_>
          <internalNodes>
            0 -1 61 -1.9921250641345978e-02</internalNodes>
          <leafValues>
            -7.5418993830680847e-02 -7.3676013946533203e-01</leafValues></_>
        <_>
          <internalNodes>
            0 -1 87 -7.9399555921554565e-02</internalNodes>
          <leafValues>
            8.7405335903167725e-01 -2.5651675462722778e-01</leafValues></_>
        <_>
          <internalNodes>
            0 -1 45 3.6980349104851484e-03</internalNodes>
          <leafValues>
            -4.8721513152122498e-01 2.2594493627548218e-01</leafValues></_>
        <_>
          <internalNodes>
            0 -1 154 -1.3529014540836215e-04</internalNodes>
          <leafValues>
            2.2590878605842590e-01 -4.1893720626831055e-01</leafValues></_>
        <_>
          <internalNodes>
            0 -1 165 3.3068757038563490e-03</internalNodes>
          <leafValues>
            1.6254778206348419e-01 -7.1779114007949829e-01</leafValues></_>
        <_>
          <internalNodes>
            0 -1 145 9.3846283853054047e-03</internalNodes>
          <leafValues>
            -5.9012019634246826e-01 2.0228168368339539e-01</leafValues></_>
        <_>
          <internalNodes>
            0 -1 106 -2.2091097198426723e-03</internalNodes>
          <leafValues>
            3.3492195606231689e-01 -2.8009438514709473e-01</leafValues></_>
        <_>
          <internalNodes>
            0 -1 13 6.2234778888523579e-03</internalNodes>
          <leafValues>
            1.5160746872425079e-01 -6.3428848981857300e-01</leafValues></_>
        <_>
          <internalNodes>
            0 -1 91 -8.1336140632629395e-02</internalNodes>
          <leafValues>
            -8.5179555416107178e-01 9.8342292010784149e-02</leafValues></_>
        <_>
          <internalNodes>
            0 -1 126 4.6981781721115112e-02</internalNodes>
          <leafValues>
            1.0040473937988281e-01 -7.6828682422637939e-01</leafValues></_>
        <_>
          <internalNodes>
            0 -1 22 -2.5566127151250839e-03</internalNodes>
          <leafValues>
            -9.0068727731704712e-01 6.2094490975141525e-02</leafValues></_>
        <_>
          <internalNodes>
            0 -1 6 -6.7064994946122169e-03</internalNodes>
          <leafValues>
            -6.9167894124984741e-01 9.7255721688270569e-02</leafValues></_>
        <_>
          <internalNodes>
            0 -1 103 -1.1039024218916893e-02</internalNodes>
          <leafValues>
            3.7961933016777039e-01 -2.2450941801071167e-01</leafValues></_>
        <_>
          <internalNodes>
            0 -1 94 1.9524494186043739e-02</internalNodes>
          <leafValues>
            -1.4987076818943024e-01 6.6483992338180542e-01</leafValues></_>
        <_>
          <internalNodes>
            0 -1 102 1.9023645669221878e-02</internalNodes>
          <leafValues>
            9.7302809357643127e-02 -9.2369025945663452e-01</leafValues></_>
        <_>
          <internalNodes>
            0 -1 63 -4.8874635249376297e-03</internalNodes>
          <leafValues>
            4.8207756876945496e-01 -1.8305200338363647e-01</leafValues></_>
        <_>
          <internalNodes>
            0 -1 149 -4.1287671774625778e-03</internalNodes>
          <leafValues>
            -7.8313815593719482e-01 1.1788019537925720e-01</leafValues></_>
        <_>
          <internalNodes>
            0 -1 80 1.7171531915664673e-02</internalNodes>
          <leafValues>
            -2.5860902667045593e-01 3.4193718433380127e-01</leafValues></_>
        <_>
          <internalNodes>
            0 -1 173 1.9180475501343608e-03</internalNodes>
          <leafValues>
            1.6916276514530182e-01 -5.9968227148056030e-01</leafValues></_>
        <_>
          <internalNodes>
            0 -1 110 -1.4854967594146729e-03</internalNodes>
          <leafValues>
            2.4716441333293915e-01 -3.1030508875846863e-01</leafValues></_></weakClassifiers></_>
    <!-- stage 6 -->
    <_>
      <maxWeakCount>20</maxWeakCount>
      <stageThreshold>-1.3639173507690430e+00</stageThreshold>
      <weakClassifiers>
        <_>
          <internalNodes>
            0 -1 148 4.7811223194003105e-03</internalNodes>
          <leafValues>
            -7.7801048755645752e-01 -2.4593301117420197e-01</leafValues></_>
        <_>
          <internalNodes>
            0 -1 34 -1.0098040103912354e-02</internalNodes>
          <leafValues>
            2.3298123478889465e-01 -4.3386641144752502e-01</leafValues></_>
        <_>
          <internalNodes>
            0 -1 21 -1.4752233400940895e-03</internalNodes>
          <leafValues>
            -6.8102139234542847e-01 1.6452401876449585e-01</leafValues></_>
        <_>
          <internalNodes>
            0 -1 139 -6.9849798455834389e-03</internalNodes>
          <leafValues>
            -8.4207391738891602e-01 1.2323620170354843e-01</leafValues></_>
        <_>
          <internalNodes>
            0 -1 37 -1.7374150920659304e-03</internalNodes>
          <leafValues>
            2.0166583359241486e-01 -4.6690720319747925e-01</leafValues></_>
        <_>
          <internalNodes>
            0 -1 4 -2.9739546589553356e-03</internalNodes>
          <leafValues>
            -8.6400514841079712e-01 8.7559789419174194e-02</leafValues></_>
        <_>
          <internalNodes>
            0 -1 89 -2.0304438471794128e-01</internalNodes>
          <leafValues>
            9.7017392516136169e-02 -8.4700012207031250e-01</leafValues></_>
        <_>
          <internalNodes>
            0 -1 123 -5.0345221534371376e-03</internalNodes>
          <leafValues>
            2.8556907176971436e-01 -3.2269874215126038e-01</leafValues></_>
        <_>
          <internalNodes>
            0 -1 21 2.0957523956894875e-03</internalNodes>
          <leafValues>
            1.4004464447498322e-01 -7.1730184555053711e-01</leafValues></_>
        <_>
          <internalNodes>
            0 -1 33 2.5576185435056686e-03</internalNodes>
          <leafValues>
            9.2155359685420990e-02 -6.5353804826736450e-01</leafValues></_>
        <_>
          <internalNodes>
            0 -1 71 -3.7152264267206192e-03</internalNodes>
          <leafValues>
            -7.7492177486419678e-01 8.8517889380455017e-02</leafValues></_>
        <_>
          <internalNodes>
            0 -1 99 7.2920457459986210e-03</internalNodes>
          <leafValues>
            -2.8256210684776306e-01 2.8270465135574341e-01</leafValues></_>
        <_>
          <internalNodes>
            0 -1 79 1.3830148614943027e-02</internalNodes>
          <leafValues>
            -2.7405330538749695e-01 2.8592786192893982e-01</leafValues></_>
        <_>
          <internalNodes>
            0 -1 174 9.8530133254826069e-04</internalNodes>
          <leafValues>
            1.2272867560386658e-01 -6.6324007511138916e-01</leafValues></_>
        <_>
          <internalNodes>
            0 -1 74 5.7903140783309937e-02</internalNodes>
          <leafValues>
            -1.1844441294670105e-01 8.1167232990264893e-01</leafValues></_>
        <_>
          <internalNodes>
            0 -1 92 -3.2045016996562481e-03</internalNodes>
          <leafValues>
            2.5620642304420471e-01 -3.6215573549270630e-01</leafValues></_>
        <_>
          <internalNodes>
            0 -1 0 1.3678746763616800e-03</internalNodes>
          <leafValues>
            1.1603604257106781e-01 -6.5261948108673096e-01</leafValues></_>
        <_>
          <internalNodes>
            0 -1 0 -3.4222491085529327e-03</internalNodes>
          <leafValues>
            -8.7958532571792603e-01 7.2869926691055298e-02</leafValues></_>
        <_>
          <internalNodes>
            0 -1 114 -2.0866148173809052e-02</internalNodes>
          <leafValues>
            2.7978149056434631e-01 -2.5823238492012024e-01</leafValues></_>
        <_>
          <internalNodes>
            0 -1 131 4.5446092262864113e-03</internalNodes>
          <leafValues>
            -2.5006636977195740e-01 3.3524793386459351e-01</leafValues></_></weakClassifiers></_>
    <!-- stage 7 -->
    <_>
      <maxWeakCount>27</maxWeakCount>
      <stageThreshold>-1.2954490184783936e+00</stageThreshold>
      <weakClassifiers>
        <_>
          <internalNodes>
            0 -1 58 -9.4792880117893219e-02</internalNodes>
          <leafValues>
            5.9101656079292297e-02 -6.4996826648712158e-01</leafValues></_>
        <_>
          <internalNodes>
            0 -1 68 -4.5561939477920532e-03</internalNodes>
          <leafValues>
            1.9274505972862244e-01 -3.8845109939575195e-01</leafValues></_>
        <_>
          <internalNodes>
            0 -1 117 -1.6679290682077408e-02</internalNodes>
          <leafValues>
            1.1615564674139023e-01 -5.9429460763931274e-01</leafValues></_>
        <_>
          <internalNodes>
            0 -1 109 5.0036497414112091e-02</internalNodes>
          <leafValues>
            1.1505628377199173e-01 -7.5413042306900024e-01</leafValues></_>
        <_>
          <internalNodes>
            0 -1 43 -1.1336888372898102e-01</internalNodes>
          <leafValues>
            -6.7562699317932129e-01 9.5083817839622498e-02</leafValues></_>
        <_>
          <internalNodes>
            0 -1 167 1.2557276058942080e-03</internalNodes>
          <leafValues>
            8.7647847831249237e-02 -6.9835996627807617e-01</leafValues></_>
        <_>
          <internalNodes>
            0 -1 100 7.1700708940625191e-03</internalNodes>
          <leafValues>
            -1.9934968650341034e-01 3.7496057152748108e-01</leafValues></_>
        <_>
          <internalNodes>
            0 -1 75 -6.8256338126957417e-03</internalNodes>
          <leafValues>
            3.2651060819625854e-01 -2.2131060063838959e-01</leafValues></_>
        <_>
          <internalNodes>
            0 -1 47 1.0515943169593811e-01</internalNodes>
          <leafValues>
            -1.0649436712265015e-01 7.9266965389251709e-01</leafValues></_>
        <_>
          <internalNodes>
            0 -1 36 3.7870276719331741e-03</internalNodes>
          <leafValues>
            1.2138873338699341e-01 -6.9543552398681641e-01</leafValues></_>
        <_>
          <internalNodes>
            0 -1 18 1.5023935586214066e-02</internalNodes>
          <leafValues>
            -3.1110247969627380e-01 2.1722561120986938e-01</leafValues></_>
        <_>
          <internalNodes>
            0 -1 39 7.9832404851913452e-02</internalNodes>
          <leafValues>
            1.4805227518081665e-01 -4.6479967236518860e-01</leafValues></_>
        <_>
          <internalNodes>
            0 -1 53 -3.2495297491550446e-03</internalNodes>
          <leafValues>
            -9.1586607694625854e-01 5.9348091483116150e-02</leafValues></_>
        <_>
          <internalNodes>
            0 -1 57 8.7081119418144226e-03</internalNodes>
          <leafValues>
            8.1792332231998444e-02 -6.3565576076507568e-01</leafValues></_>
        <_>
          <internalNodes>
            0 -1 122 -1.0292405495420098e-03</internalNodes>
          <leafValues>
            2.1424731612205505e-01 -3.3062484860420227e-01</leafValues></_>
        <_>
          <internalNodes>
            0 -1 127 -7.0408545434474945e-03</internalNodes>
          <leafValues>
            4.4529440999031067e-01 -1.5916839241981506e-01</leafValues></_>
        <_>
          <internalNodes>
            0 -1 78 -2.0543519407510757e-02</internalNodes>
          <leafValues>
            4.9240043759346008e-01 -1.5642599761486053e-01</leafValues></_>
        <_>
          <internalNodes>
            0 -1 170 -1.5569457784295082e-02</internalNodes>
          <leafValues>
            -5.8298885822296143e-01 1.2655238807201385e-01</leafValues></_>
        <_>
          <internalNodes>
            0 -1 20 3.0744850635528564e-02</internalNodes>
          <leafValues>
            -1.5859398245811462e-01 4.4273889064788818e-01</leafValues></_>
        <_>
          <internalNodes>
            0 -1 66 1.4713301323354244e-02</internalNodes>
          <leafValues>
            -1.5967646241188049e-01 4.5373627543449402e-01</leafValues></_>
        <_>
          <internalNodes>
            0 -1 56 -2.9485031962394714e-01</internalNodes>
          <leafValues>
            6.3949507474899292e-01 -1.1007963120937347e-01</leafValues></_>
        <_>
          <internalNodes>
            0 -1 168 -2.4786517024040222e-03</internalNodes>
          <leafValues>
            -5.9086567163467407e-01 1.3039407134056091e-01</leafValues></_>
        <_>
          <internalNodes>
            0 -1 144 -3.8424786180257797e-04</internalNodes>
          <leafValues>
            1.6343189775943756e-01 -3.5483187437057495e-01</leafValues></_>
        <_>
          <internalNodes>
            0 -1 41 5.2259993553161621e-01</internalNodes>
          <leafValues>
            -1.3385337591171265e-01 4.7038945555686951e-01</leafValues></_>
        <_>
          <internalNodes>
            0 -1 147 6.7091910168528557e-03</internalNodes>
          <leafValues>
            -1.8597115576267242e-01 3.2244357466697693e-01</leafValues></_>
        <_>
          <internalNodes>
            0 -1 172 9.1791162267327309e-03</internalNodes>
          <leafValues>
            9.4839535653591156e-02 -6.6686362028121948e-01</leafValues></_>
        <_>
          <internalNodes>
            0 -1 96 -5.9693191200494766e-02</internalNodes>
          <leafValues>
            4.5606103539466858e-01 -1.4702509343624115e-01</leafValues></_></weakClassifiers></_>
    <!-- stage 8 -->
    <_>
      <maxWeakCount>25</maxWeakCount>
      <stageThreshold>-1.1990346908569336e+00</stageThreshold>
      <weakClassifiers>
        <_>
          <internalNodes>
            0 -1 104 -5.9799704700708389e-02</internalNodes>
          <leafValues>
            6.4705884456634521e-01 -5.7256776094436646e-01</leafValues></_>
        <_>
          <internalNodes>
            0 -1 135 2.6034783571958542e-02</internalNodes>
          <leafValues>
            -4.1384112834930420e-01 2.3900276422500610e-01</leafValues></_>
        <_>
          <internalNodes>
            0 -1 14 3.8641083519905806e-03</internalNodes>
          <leafValues>
            -4.0113991498947144e-01 2.4309808015823364e-01</leafValues></_>
        <_>
          <internalNodes>
            0 -1 15 -1.7941396683454514e-02</internalNodes>
          <leafValues>
            -9.2186892032623291e-01 6.9068297743797302e-02</leafValues></_>
        <_>
          <internalNodes>
            0 -1 5 -3.5591251216828823e-03</internalNodes>
          <leafValues>
            -8.6492300033569336e-01 6.8519212305545807e-02</leafValues></_>
        <_>
          <internalNodes>
            0 -1 7 -2.6114477077499032e-04</internalNodes>
          <leafValues>
            1.8849335610866547e-01 -4.0882185101509094e-01</leafValues></_>
        <_>
          <internalNodes>
            0 -1 83 -5.7356283068656921e-02</internalNodes>
          <leafValues>
            -5.8108901977539063e-01 1.0741472244262695e-01</leafValues></_>
        <_>
          <internalNodes>
            0 -1 85 -9.9876178428530693e-03</internalNodes>
          <leafValues>
            2.1210074424743652e-01 -3.5161766409873962e-01</leafValues></_>
        <_>
          <internalNodes>
            0 -1 166 1.4887301949784160e-03</internalNodes>
          <leafValues>
            1.0602069646120071e-01 -6.9822824001312256e-01</leafValues></_>
        <_>
          <internalNodes>
            0 -1 82 1.9697256386280060e-02</internalNodes>
          <leafValues>
            -1.6851259768009186e-01 4.1295653581619263e-01</leafValues></_>
        <_>
          <internalNodes>
            0 -1 46 3.5432904958724976e-01</internalNodes>
          <leafValues>
            7.3843054473400116e-02 -9.4133037328720093e-01</leafValues></_>
        <_>
          <internalNodes>
            0 -1 24 -1.2938811443746090e-02</internalNodes>
          <leafValues>
            3.9613825082778931e-01 -1.6845059394836426e-01</leafValues></_>
        <_>
          <internalNodes>
            0 -1 30 1.6045331722125411e-03</internalNodes>
          <leafValues>
            9.0407997369766235e-02 -7.8936135768890381e-01</leafValues></_>
        <_>
          <internalNodes>
            0 -1 153 -2.5053930003196001e-03</internalNodes>
          <leafValues>
            -6.6807848215103149e-01 7.2014398872852325e-02</leafValues></_>
        <_>
          <internalNodes>
            0 -1 155 -1.2934188358485699e-02</internalNodes>
          <leafValues>
            2.5863823294639587e-01 -2.5672551989555359e-01</leafValues></_>
        <_>
          <internalNodes>
            0 -1 54 -4.9875448457896709e-03</internalNodes>
          <leafValues>
            -8.7454986572265625e-01 6.6949926316738129e-02</leafValues></_>
        <_>
          <internalNodes>
            0 -1 97 2.7392434421926737e-03</internalNodes>
          <leafValues>
            -2.0726254582405090e-01 3.1465414166450500e-01</leafValues></_>
        <_>
          <internalNodes>
            0 -1 164 7.2929188609123230e-03</internalNodes>
          <leafValues>
            6.7530214786529541e-02 -8.9566957950592041e-01</leafValues></_>
        <_>
          <internalNodes>
            0 -1 138 -2.9086475260555744e-03</internalNodes>
          <leafValues>
            3.8922873139381409e-01 -1.7867814004421234e-01</leafValues></_>
        <_>
          <internalNodes>
            0 -1 90 8.3100646734237671e-03</internalNodes>
          <leafValues>
            -1.6733188927173615e-01 3.7325343489646912e-01</leafValues></_>
        <_>
          <internalNodes>
            0 -1 111 3.0060927383601665e-04</internalNodes>
          <leafValues>
            -2.5438067317008972e-01 2.7469536662101746e-01</leafValues></_>
        <_>
          <internalNodes>
            0 -1 108 1.8793127965182066e-03</internalNodes>
          <leafValues>
            9.4441212713718414e-02 -7.1673285961151123e-01</leafValues></_>
        <_>
          <internalNodes>
            0 -1 112 2.2617803886532784e-02</internalNodes>
          <leafValues>
            4.7717358916997910e-02 -8.9519745111465454e-01</leafValues></_>
        <_>
          <internalNodes>
            0 -1 64 -2.3412470519542694e-01</internalNodes>
          <leafValues>
            -7.1338701248168945e-01 6.1362564563751221e-02</leafValues></_>
        <_>
          <internalNodes>
            0 -1 81 -2.1551799029111862e-02</internalNodes>
          <leafValues>
            5.7559692859649658e-01 -1.0509282350540161e-01</leafValues></_></weakClassifiers></_>
    <!-- stage 9 -->
    <_>
      <maxWeakCount>34</maxWeakCount>
      <stageThreshold>-1.4393501281738281e+00</stageThreshold>
      <weakClassifiers>
        <_>
          <internalNodes>
            0 -1 129 -1.4265259727835655e-02</internalNodes>
          <leafValues>
            3.6619716882705688e-01 -5.6620019674301147e-01</leafValues></_>
        <_>
          <internalNodes>
            0 -1 133 4.9024736508727074e-03</internalNodes>
          <leafValues>
            -3.9190211892127991e-01 1.7704014480113983e-01</leafValues></_>
        <_>
          <internalNodes>
            0 -1 51 7.6899188570678234e-03</internalNodes>
          <leafValues>
            -3.4736818075180054e-01 2.0656077563762665e-01</leafValues></_>
        <_>
          <internalNodes>
            0 -1 124 1.1758559942245483e-01</internalNodes>
          <leafValues>
            7.9108476638793945e-02 -8.5381728410720825e-01</leafValues></_>
        <_>
          <internalNodes>
            0 -1 23 -2.5898804888129234e-03</internalNodes>
          <leafValues>
            -6.3041096925735474e-01 8.9384965598583221e-02</leafValues></_>
        <_>
          <internalNodes>
            0 -1 161 2.4144044145941734e-03</internalNodes>
          <leafValues>
            -3.2046684622764587e-01 2.1472382545471191e-01</leafValues></_>
        <_>
          <internalNodes>
            0 -1 95 -5.1427904516458511e-02</internalNodes>
          <leafValues>
            -6.8135935068130493e-01 7.7887833118438721e-02</leafValues></_>
        <_>
          <internalNodes>
            0 -1 163 6.7977486178278923e-03</internalNodes>
          <leafValues>
            6.0042124241590500e-02 -6.8514829874038696e-01</leafValues></_>
        <_>
          <internalNodes>
            0 -1 132 4.0824753232300282e-03</internalNodes>
          <leafValues>
            -2.1164861321449280e-01 2.6561519503593445e-01</leafValues></_>
        <_>
          <internalNodes>
            0 -1 11 -4.6395207755267620e-03</internalNodes>
          <leafValues>
            1.4172130823135376e-01 -4.1700440645217896e-01</leafValues></_>
        <_>
          <internalNodes>
            0 -1 119 -4.0183454751968384e-02</internalNodes>
          <leafValues>
            -8.2326215505599976e-01 8.4998019039630890e-02</leafValues></_>
        <_>
          <internalNodes>
            0 -1 27 7.3091022204607725e-04</internalNodes>
          <leafValues>
            9.4154305756092072e-02 -5.3511190414428711e-01</leafValues></_>
        <_>
          <internalNodes>
            0 -1 120 -1.5105766942724586e-03</internalNodes>
          <leafValues>
            3.7153467535972595e-01 -1.4649473130702972e-01</leafValues></_>
        <_>
          <internalNodes>
            0 -1 128 -6.4863311126828194e-03</internalNodes>
          <leafValues>
            3.3537957072257996e-01 -1.5501782298088074e-01</leafValues></_>
        <_>
          <internalNodes>
            0 -1 158 -8.5107088088989258e-03</internalNodes>
          <leafValues>
            4.4434484839439392e-01 -1.4323446154594421e-01</leafValues></_>
        <_>
          <internalNodes>
            0 -1 42 -1.6384389891754836e-04</internalNodes>
          <leafValues>
            1.8503165245056152e-01 -3.0372139811515808e-01</leafValues></_>
        <_>
          <internalNodes>
            0 -1 151 -2.3783443029969931e-03</internalNodes>
          <leafValues>
            -6.1231690645217896e-01 9.6408322453498840e-02</leafValues></_>
        <_>
          <internalNodes>
            0 -1 134 2.1493793465197086e-03</internalNodes>
          <leafValues>
            1.0739949345588684e-01 -4.8997232317924500e-01</leafValues></_>
        <_>
          <internalNodes>
            0 -1 98 -1.8753074109554291e-02</internalNodes>
          <leafValues>
            2.7462956309318542e-01 -1.7646630108356476e-01</leafValues></_>
        <_>
          <internalNodes>
            0 -1 32 8.5909140761941671e-04</internalNodes>
          <leafValues>
            9.7850076854228973e-02 -5.6893563270568848e-01</leafValues></_>
        <_>
          <internalNodes>
            0 -1 70 6.5055927261710167e-03</internalNodes>
          <leafValues>
            -1.5983134508132935e-01 3.3920899033546448e-01</leafValues></_>
        <_>
          <internalNodes>
            0 -1 175 2.3712776601314545e-03</internalNodes>
          <leafValues>
            4.8610009253025055e-02 -9.4666123390197754e-01</leafValues></_>
        <_>
          <internalNodes>
            0 -1 72 1.8268990097567439e-03</internalNodes>
          <leafValues>
            -2.2877489030361176e-01 2.0775486528873444e-01</leafValues></_>
        <_>
          <internalNodes>
            0 -1 50 8.0480370670557022e-03</internalNodes>
          <leafValues>
            -1.1614068597555161e-01 4.3214783072471619e-01</leafValues></_>
        <_>
          <internalNodes>
            0 -1 12 2.7796973008662462e-03</internalNodes>
          <leafValues>
            8.1012941896915436e-02 -6.4408701658248901e-01</leafValues></_>
        <_>
          <internalNodes>
            0 -1 101 -3.9375506341457367e-02</internalNodes>
          <leafValues>
            -8.5686475038528442e-01 4.4855117797851563e-02</leafValues></_>
        <_>
          <internalNodes>
            0 -1 171 -5.4632476530969143e-03</internalNodes>
          <leafValues>
            -9.7706264257431030e-01 3.5869881510734558e-02</leafValues></_>
        <_>
          <internalNodes>
            0 -1 107 -7.1808667853474617e-03</internalNodes>
          <leafValues>
            3.4652385115623474e-01 -1.4235113561153412e-01</leafValues></_>
        <_>
          <internalNodes>
            0 -1 108 -2.6089427992701530e-03</internalNodes>
          <leafValues>
            -8.1023353338241577e-01 5.9605110436677933e-02</leafValues></_>
        <_>
          <internalNodes>
            0 -1 38 1.5414267778396606e-01</internalNodes>
          <leafValues>
            5.2750207483768463e-02 -7.1391135454177856e-01</leafValues></_>
        <_>
          <internalNodes>
            0 -1 25 1.5974398702383041e-02</internalNodes>
          <leafValues>
            -1.6047601401805878e-01 3.0581626296043396e-01</leafValues></_>
        <_>
          <internalNodes>
            0 -1 26 1.2200639583170414e-02</internalNodes>
          <leafValues>
            6.2076568603515625e-02 -8.5374021530151367e-01</leafValues></_>
        <_>
          <internalNodes>
            0 -1 35 -1.3542754948139191e-01</internalNodes>
          <leafValues>
            -8.1812256574630737e-01 4.4382605701684952e-02</leafValues></_>
        <_>
          <internalNodes>
            0 -1 150 1.5368243679404259e-02</internalNodes>
          <leafValues>
            3.6841366440057755e-02 -8.8275504112243652e-01</leafValues></_></weakClassifiers></_></stages>
  <features>
    <_>
      <rects>
        <_>
          0 0 1 2 -1.</_>
        <_>
          0 1 1 1 2.</_></rects>
      <tilted>0</tilted></_>
    <_>
      <rects>
        <_>
          0 0 4 8 -1.</_>
        <_>
          0 0 2 4 2.</_>
        <_>
          2 4 2 4 2.</_></rects>
      <tilted>0</tilted></_>
    <_>
      <rects>
        <_>
          0 0 3 6 -1.</_>
        <_>
          0 3 3 3 2.</_></rects>
      <tilted>0</tilted></_>
    <_>
      <rects>
        <_>
          0 0 12 2 -1.</_>
        <_>
          0 1 12 1 2.</_></rects>
      <tilted>0</tilted></_>
    <_>
      <rects>
        <_>
          0 1 1 2 -1.</_>
        <_>
          0 2 1 1 2.</_></rects>
      <tilted>0</tilted></_>
    <_>
      <rects>
        <_>
          0 2 1 2 -1.</_>
        <_>
          0 3 1 1 2.</_></rects>
      <tilted>0</tilted></_>
    <_>
      <rects>
        <_>
          0 2 1 4 -1.</_>
        <_>
          0 4 1 2 2.</_></rects>
      <tilted>0</tilted></_>
    <_>
      <rects>
        <_>
          0 2 3 2 -1.</_>
        <_>
          0 3 3 1 2.</_></rects>
      <tilted>0</tilted></_>
    <_>
      <rects>
        <_>
          0 3 2 4 -1.</_>
        <_>
          1 3 1 4 2.</_></rects>
      <tilted>0</tilted></_>
    <_>
      <rects>
        <_>
          0 3 2 12 -1.</_>
        <_>
          0 3 1 6 2.</_>
        <_>
          1 9 1 6 2.</_></rects>
      <tilted>0</tilted></_>
    <_>
      <rects>
        <_>
          0 3 6 10 -1.</_>
        <_>
          0 8 6 5 2.</_></rects>
      <tilted>0</tilted></_>
    <_>
      <rects>
        <_>
          0 3 8 2 -1.</_>
        <_>
          0 4 8 1 2.</_></rects>
      <tilted>0</tilted></_>
    <_>
      <rects>
        <_>
          0 4 1 2 -1.</_>
        <_>
          0 5 1 1 2.</_></rects>
      <tilted>0</tilted></_>
    <_>
      <rects>
        <_>
          0 4 1 4 -1.</_>
        <_>
          0 6 1 2 2.</_></rects>
      <tilted>0</tilted></_>
    <_>
      <rects>
        <_>
          0 4 2 10 -1.</_>
        <_>
          0 4 1 5 2.</_>
        <_>
          1 9 1 5 2.</_></rects>
      <tilted>0</tilted></_>
    <_>
      <rects>
        <_>
          0 4 2 4 -1.</_>
        <_>
          0 6 2 2 2.</_></rects>
      <tilted>0</tilted></_>
    <_>
      <rects>
        <_>
          0 4 4 10 -1.</_>
        <_>
          0 4 2 5 2.</_>
        <_>
          2 9 2 5 2.</_></rects>
      <tilted>0</tilted></_>
    <_>
      <rects>
        <_>
          0 5 3 1 -1.</_>
        <_>
          1 5 1 1 2.</_></rects>
      <tilted>0</tilted></_>
    <_>
      <rects>
        <_>
          0 5 4 6 -1.</_>
        <_>
          0 5 2 3 2.</_>
        <_>
          2 8 2 3 2.</_></rects>
      <tilted>0</tilted></_>
    <_>
      <rects>
        <_>
          0 5 4 10 -1.</_>
        <_>
          0 5 2 5 2.</_>
        <_>
          2 10 2 5 2.</_></rects>
      <tilted>0</tilted></_>
    <_>
      <rects>
        <_>
          0 5 14 2 -1.</_>
        <_>
          0 6 14 1 2.</_></rects>
      <tilted>0</tilted></_>
    <_>
      <rects>
        <_>
          0 6 1 2 -1.</_>
        <_>
          0 7 1 1 2.</_></rects>
      <tilted>0</tilted></_>
    <_>
      <rects>
        <_>
          0 7 1 2 -1.</_>
        <_>
          0 8 1 1 2.</_></rects>
      <tilted>0</tilted></_>
    <_>
      <rects>
        <_>
          0 7 2 2 -1.</_>
        <_>
          0 8 2 1 2.</_></rects>
      <tilted>0</tilted></_>
    <_>
      <rects>
        <_>
          0 7 10 2 -1.</_>
        <_>
          0 7 5 1 2.</_>
        <_>
          5 8 5 1 2.</_></rects>
      <tilted>0</tilted></_>
    <_>
      <rects>
        <_>
          0 9 4 6 -1.</_>
        <_>
          0 9 2 3 2.</_>
        <_>
          2 12 2 3 2.</_></rects>
      <tilted>0</tilted></_>
    <_>
      <rects>
        <_>
          0 10 5 2 -1.</_>
        <_>
          0 11 5 1 2.</_></rects>
      <tilted>0</tilted></_>
    <_>
      <rects>
        <_>
          0 11 1 2 -1.</_>
        <_>
          0 12 1 1 2.</_></rects>
      <tilted>0</tilted></_>
    <_>
      <rects>
        <_>
          0 11 3 2 -1.</_>
        <_>
          0 12 3 1 2.</_></rects>
      <tilted>0</tilted></_>
    <_>
      <rects>
        <_>
          0 11 4 2 -1.</_>
        <_>
          0 12 4 1 2.</_></rects>
      <tilted>0</tilted></_>
    <_>
      <rects>
        <_>
          0 12 1 2 -1.</_>
        <_>
          0 13 1 1 2.</_></rects>
      <tilted>0</tilted></_>
    <_>
      <rects>
        <_>
          0 12 4 2 -1.</_>
        <_>
          0 13 4 1 2.</_></rects>
      <tilted>0</tilted></_>
    <_>
      <rects>
        <_>
          0 13 1 2 -1.</_>
        <_>
          0 14 1 1 2.</_></rects>
      <tilted>0</tilted></_>
    <_>
      <rects>
        <_>
          0 13 3 2 -1.</_>
        <_>
          0 14 3 1 2.</_></rects>
      <tilted>0</tilted></_>
    <_>
      <rects>
        <_>
          1 0 2 8 -1.</_>
        <_>
          1 0 1 4 2.</_>
        <_>
          2 4 1 4 2.</_></rects>
      <tilted>0</tilted></_>
    <_>
      <rects>
        <_>
          1 0 4 15 -1.</_>
        <_>
          3 0 2 15 2.</_></rects>
      <tilted>0</tilted></_>
    <_>
      <rects>
        <_>
          1 0 3 2 -1.</_>
        <_>
          1 1 3 1 2.</_></rects>
      <tilted>0</tilted></_>
    <_>
      <rects>
        <_>
          1 0 3 4 -1.</_>
        <_>
          1 2 3 2 2.</_></rects>
      <tilted>0</tilted></_>
    <_>
      <rects>
        <_>
          1 0 10 14 -1.</_>
        <_>
          1 0 5 7 2.</_>
        <_>
          6 7 5 7 2.</_></rects>
      <tilted>0</tilted></_>
    <_>
      <rects>
        <_>
          1 0 14 10 -1.</_>
        <_>
          1 0 7 5 2.</_>
        <_>
          8 5 7 5 2.</_></rects>
      <tilted>0</tilted></_>
    <_>
      <rects>
        <_>
          1 0 14 12 -1.</_>
        <_>
          1 0 7 6 2.</_>
        <_>
          8 6 7 6 2.</_></rects>
      <tilted>0</tilted></_>
    <_>
      <rects>
        <_>
          1 0 14 15 -1.</_>
        <_>
          8 0 7 15 2.</_></rects>
      <tilted>0</tilted></_>
    <_>
      <rects>
        <_>
          1 1 1 2 -1.</_>
        <_>
          1 2 1 1 2.</_></rects>
      <tilted>0</tilted></_>
    <_>
      <rects>
        <_>
          1 1 14 12 -1.</_>
        <_>
          1 1 7 6 2.</_>
        <_>
          8 7 7 6 2.</_></rects>
      <tilted>0</tilted></_>
    <_>
      <rects>
        <_>
          1 2 12 4 -1.</_>
        <_>
          1 4 12 2 2.</_></rects>
      <tilted>0</tilted></_>
    <_>
      <rects>
        <_>
          1 3 2 12 -1.</_>
        <_>
          1 3 1 6 2.</_>
        <_>
          2 9 1 6 2.</_></rects>
      <tilted>0</tilted></_>
    <_>
      <rects>
        <_>
          1 3 8 12 -1.</_>
        <_>
          1 9 8 6 2.</_></rects>
      <tilted>0</tilted></_>
    <_>
      <rects>
        <_>
          1 3 10 4 -1.</_>
        <_>
          1 5 10 2 2.</_></rects>
      <tilted>0</tilted></_>
    <_>
      <rects>
        <_>
          1 3 11 4 -1.</_>
        <_>
          1 5 11 2 2.</_></rects>
      <tilted>0</tilted></_>
    <_>
      <rects>
        <_>
          1 5 2 2 -1.</_>
        <_>
          2 5 1 2 2.</_></rects>
      <tilted>0</tilted></_>
    <_>
      <rects>
        <_>
          1 5 2 4 -1.</_>
        <_>
          1 5 1 2 2.</_>
        <_>
          2 7 1 2 2.</_></rects>
      <tilted>0</tilted></_>
    <_>
      <rects>
        <_>
          1 5 2 8 -1.</_>
        <_>
          1 5 1 4 2.</_>
        <_>
          2 9 1 4 2.</_></rects>
      <tilted>0</tilted></_>
    <_>
      <rects>
        <_>
          1 5 14 10 -1.</_>
        <_>
          8 5 7 10 2.</_></rects>
      <tilted>0</tilted></_>
    <_>
      <rects>
        <_>
          1 9 2 2 -1.</_>
        <_>
          1 10 2 1 2.</_></rects>
      <tilted>0</tilted></_>
    <_>
      <rects>
        <_>
          1 11 3 2 -1.</_>
        <_>
          1 12 3 1 2.</_></rects>
      <tilted>0</tilted></_>
    <_>
      <rects>
        <_>
          1 12 3 2 -1.</_>
        <_>
          1 13 3 1 2.</_></rects>
      <tilted>0</tilted></_>
    <_>
      <rects>
        <_>
          2 0 10 15 -1.</_>
        <_>
          7 0 5 15 2.</_></rects>
      <tilted>0</tilted></_>
    <_>
      <rects>
        <_>
          2 0 12 2 -1.</_>
        <_>
          2 0 6 1 2.</_>
        <_>
          8 1 6 1 2.</_></rects>
      <tilted>0</tilted></_>
    <_>
      <rects>
        <_>
          2 1 9 4 -1.</_>
        <_>
          2 3 9 2 2.</_></rects>
      <tilted>0</tilted></_>
    <_>
      <rects>
        <_>
          2 2 2 6 -1.</_>
        <_>
          2 2 1 3 2.</_>
        <_>
          3 5 1 3 2.</_></rects>
      <tilted>0</tilted></_>
    <_>
      <rects>
        <_>
          2 3 1 12 -1.</_>
        <_>
          2 9 1 6 2.</_></rects>
      <tilted>0</tilted></_>
    <_>
      <rects>
        <_>
          2 3 10 2 -1.</_>
        <_>
          2 4 10 1 2.</_></rects>
      <tilted>0</tilted></_>
    <_>
      <rects>
        <_>
          2 4 3 1 -1.</_>
        <_>
          3 4 1 1 2.</_></rects>
      <tilted>0</tilted></_>
    <_>
      <rects>
        <_>
          2 5 2 2 -1.</_>
        <_>
          2 6 2 1 2.</_></rects>
      <tilted>0</tilted></_>
    <_>
      <rects>
        <_>
          2 5 9 2 -1.</_>
        <_>
          5 5 3 2 2.</_></rects>
      <tilted>0</tilted></_>
    <_>
      <rects>
        <_>
          2 6 2 4 -1.</_>
        <_>
          3 6 1 4 2.</_></rects>
      <tilted>0</tilted></_>
    <_>
      <rects>
        <_>
          2 6 6 4 -1.</_>
        <_>
          2 6 3 2 2.</_>
        <_>
          5 8 3 2 2.</_></rects>
      <tilted>0</tilted></_>
    <_>
      <rects>
        <_>
          2 6 12 2 -1.</_>
        <_>
          6 6 4 2 2.</_></rects>
      <tilted>0</tilted></_>
    <_>
      <rects>
        <_>
          2 7 2 6 -1.</_>
        <_>
          3 7 1 6 2.</_></rects>
      <tilted>0</tilted></_>
    <_>
      <rects>
        <_>
          2 7 6 8 -1.</_>
        <_>
          2 7 3 4 2.</_>
        <_>
          5 11 3 4 2.</_></rects>
      <tilted>0</tilted></_>
    <_>
      <rects>
        <_>
          2 12 10 2 -1.</_>
        <_>
          2 13 10 1 2.</_></rects>
      <tilted>0</tilted></_>
    <_>
      <rects>
        <_>
          2 13 2 2 -1.</_>
        <_>
          2 14 2 1 2.</_></rects>
      <tilted>0</tilted></_>
    <_>
      <rects>
        <_>
          3 0 9 2 -1.</_>
        <_>
          3 1 9 1 2.</_></rects>
      <tilted>0</tilted></_>
    <_>
      <rects>
        <_>
          3 2 6 9 -1.</_>
        <_>
          6 2 3 9 2.</_></rects>
      <tilted>0</tilted></_>
    <_>
      <rects>
        <_>
          3 3 4 4 -1.</_>
        <_>
          3 5 4 2 2.</_></rects>
      <tilted>0</tilted></_>
    <_>
      <rects>
        <_>
          3 4 3 2 -1.</_>
        <_>
          3 5 3 1 2.</_></rects>
      <tilted>0</tilted></_>
    <_>
      <rects>
        <_>
          3 4 9 2 -1.</_>
        <_>
          3 5 9 1 2.</_></rects>
      <tilted>0</tilted></_>
    <_>
      <rects>
        <_>
          3 5 4 4 -1.</_>
        <_>
          5 5 2 4 2.</_></rects>
      <tilted>0</tilted></_>
    <_>
      <rects>
        <_>
          3 5 12 2 -1.</_>
        <_>
          3 6 12 1 2.</_></rects>
      <tilted>0</tilted></_>
    <_>
      <rects>
        <_>
          3 6 1 8 -1.</_>
        <_>
          3 10 1 4 2.</_></rects>
      <tilted>0</tilted></_>
    <_>
      <rects>
        <_>
          3 6 10 2 -1.</_>
        <_>
          3 7 10 1 2.</_></rects>
      <tilted>0</tilted></_>
    <_>
      <rects>
        <_>
          3 6 12 2 -1.</_>
        <_>
          3 7 12 1 2.</_></rects>
      <tilted>0</tilted></_>
    <_>
      <rects>
        <_>
          3 7 6 2 -1.</_>
        <_>
          3 8 6 1 2.</_></rects>
      <tilted>0</tilted></_>
    <_>
      <rects>
        <_>
          4 1 8 12 -1.</_>
        <_>
          4 1 4 6 2.</_>
        <_>
          8 7 4 6 2.</_></rects>
      <tilted>0</tilted></_>
    <_>
      <rects>
        <_>
          4 1 10 14 -1.</_>
        <_>
          4 8 10 7 2.</_></rects>
      <tilted>0</tilted></_>
    <_>
      <rects>
        <_>
          4 5 4 10 -1.</_>
        <_>
          4 5 2 5 2.</_>
        <_>
          6 10 2 5 2.</_></rects>
      <tilted>0</tilted></_>
    <_>
      <rects>
        <_>
          4 6 6 4 -1.</_>
        <_>
          4 8 6 2 2.</_></rects>
      <tilted>0</tilted></_>
    <_>
      <rects>
        <_>
          4 6 7 4 -1.</_>
        <_>
          4 8 7 2 2.</_></rects>
      <tilted>0</tilted></_>
    <_>
      <rects>
        <_>
          4 6 10 4 -1.</_>
        <_>
          4 8 10 2 2.</_></rects>
      <tilted>0</tilted></_>
    <_>
      <rects>
        <_>
          4 10 9 5 -1.</_>
        <_>
          7 10 3 5 2.</_></rects>
      <tilted>0</tilted></_>
    <_>
      <rects>
        <_>
          4 13 8 2 -1.</_>
        <_>
          4 14 8 1 2.</_></rects>
      <tilted>0</tilted></_>
    <_>
      <rects>
        <_>
          5 0 6 14 -1.</_>
        <_>
          5 0 3 7 2.</_>
        <_>
          8 7 3 7 2.</_></rects>
      <tilted>0</tilted></_>
    <_>
      <rects>
        <_>
          5 3 3 2 -1.</_>
        <_>
          5 4 3 1 2.</_></rects>
      <tilted>0</tilted></_>
    <_>
      <rects>
        <_>
          5 3 5 4 -1.</_>
        <_>
          5 5 5 2 2.</_></rects>
      <tilted>0</tilted></_>
    <_>
      <rects>
        <_>
          5 4 9 2 -1.</_>
        <_>
          5 5 9 1 2.</_></rects>
      <tilted>0</tilted></_>
    <_>
      <rects>
        <_>
          5 5 6 10 -1.</_>
        <_>
          5 5 3 5 2.</_>
        <_>
          8 10 3 5 2.</_></rects>
      <tilted>0</tilted></_>
    <_>
      <rects>
        <_>
          5 8 6 6 -1.</_>
        <_>
          5 11 6 3 2.</_></rects>
      <tilted>0</tilted></_>
    <_>
      <rects>
        <_>
          5 9 3 2 -1.</_>
        <_>
          5 10 3 1 2.</_></rects>
      <tilted>0</tilted></_>
    <_>
      <rects>
        <_>
          5 10 8 4 -1.</_>
        <_>
          5 12 8 2 2.</_></rects>
      <tilted>0</tilted></_>
    <_>
      <rects>
        <_>
          5 13 8 1 -1.</_>
        <_>
          9 13 4 1 2.</_></rects>
      <tilted>0</tilted></_>
    <_>
      <rects>
        <_>
          5 13 9 2 -1.</_>
        <_>
          5 14 9 1 2.</_></rects>
      <tilted>0</tilted></_>
    <_>
      <rects>
        <_>
          6 1 1 14 -1.</_>
        <_>
          6 8 1 7 2.</_></rects>
      <tilted>0</tilted></_>
    <_>
      <rects>
        <_>
          6 3 2 12 -1.</_>
        <_>
          6 3 1 6 2.</_>
        <_>
          7 9 1 6 2.</_></rects>
      <tilted>0</tilted></_>
    <_>
      <rects>
        <_>
          6 4 4 2 -1.</_>
        <_>
          6 5 4 1 2.</_></rects>
      <tilted>0</tilted></_>
    <_>
      <rects>
        <_>
          6 7 4 4 -1.</_>
        <_>
          6 9 4 2 2.</_></rects>
      <tilted>0</tilted></_>
    <_>
      <rects>
        <_>
          6 10 4 4 -1.</_>
        <_>
          6 12 4 2 2.</_></rects>
      <tilted>0</tilted></_>
    <_>
      <rects>
        <_>
          6 11 2 2 -1.</_>
        <_>
          6 12 2 1 2.</_></rects>
      <tilted>0</tilted></_>
    <_>
      <rects>
        <_>
          6 12 5 2 -1.</_>
        <_>
          6 13 5 1 2.</_></rects>
      <tilted>0</tilted></_>
    <_>
      <rects>
        <_>
          6 13 2 2 -1.</_>
        <_>
          6 13 1 1 2.</_>
        <_>
          7 14 1 1 2.</_></rects>
      <tilted>0</tilted></_>
    <_>
      <rects>
        <_>
          7 0 4 14 -1.</_>
        <_>
          7 0 2 7 2.</_>
        <_>
          9 7 2 7 2.</_></rects>
      <tilted>0</tilted></_>
    <_>
      <rects>
        <_>
          7 0 8 2 -1.</_>
        <_>
          7 0 4 1 2.</_>
        <_>
          11 1 4 1 2.</_></rects>
      <tilted>0</tilted></_>
    <_>
      <rects>
        <_>
          7 1 1 2 -1.</_>
        <_>
          7 2 1 1 2.</_></rects>
      <tilted>0</tilted></_>
    <_>
      <rects>
        <_>
          7 1 2 14 -1.</_>
        <_>
          7 1 1 7 2.</_>
        <_>
          8 8 1 7 2.</_></rects>
      <tilted>0</tilted></_>
    <_>
      <rects>
        <_>
          7 2 6 7 -1.</_>
        <_>
          10 2 3 7 2.</_></rects>
      <tilted>0</tilted></_>
    <_>
      <rects>
        <_>
          7 3 6 3 -1.</_>
        <_>
          10 3 3 3 2.</_></rects>
      <tilted>0</tilted></_>
    <_>
      <rects>
        <_>
          7 5 3 2 -1.</_>
        <_>
          7 6 3 1 2.</_></rects>
      <tilted>0</tilted></_>
    <_>
      <rects>
        <_>
          7 5 6 10 -1.</_>
        <_>
          7 5 3 5 2.</_>
        <_>
          10 10 3 5 2.</_></rects>
      <tilted>0</tilted></_>
    <_>
      <rects>
        <_>
          7 10 3 1 -1.</_>
        <_>
          8 10 1 1 2.</_></rects>
      <tilted>0</tilted></_>
    <_>
      <rects>
        <_>
          7 11 4 4 -1.</_>
        <_>
          7 11 2 2 2.</_>
        <_>
          9 13 2 2 2.</_></rects>
      <tilted>0</tilted></_>
    <_>
      <rects>
        <_>
          8 0 1 14 -1.</_>
        <_>
          8 7 1 7 2.</_></rects>
      <tilted>0</tilted></_>
    <_>
      <rects>
        <_>
          8 7 1 2 -1.</_>
        <_>
          8 8 1 1 2.</_></rects>
      <tilted>0</tilted></_>
    <_>
      <rects>
        <_>
          8 10 4 4 -1.</_>
        <_>
          8 10 2 2 2.</_>
        <_>
          10 12 2 2 2.</_></rects>
      <tilted>0</tilted></_>
    <_>
      <rects>
        <_>
          9 3 1 2 -1.</_>
        <_>
          9 4 1 1 2.</_></rects>
      <tilted>0</tilted></_>
    <_>
      <rects>
        <_>
          9 6 2 5 -1.</_>
        <_>
          10 6 1 5 2.</_></rects>
      <tilted>0</tilted></_>
    <_>
      <rects>
        <_>
          9 9 6 6 -1.</_>
        <_>
          12 9 3 6 2.</_></rects>
      <tilted>0</tilted></_>
    <_>
      <rects>
        <_>
          10 0 5 6 -1.</_>
        <_>
          10 3 5 3 2.</_></rects>
      <tilted>0</tilted></_>
    <_>
      <rects>
        <_>
          10 1 1 14 -1.</_>
        <_>
          10 8 1 7 2.</_></rects>
      <tilted>0</tilted></_>
    <_>
      <rects>
        <_>
          10 5 4 1 -1.</_>
        <_>
          12 5 2 1 2.</_></rects>
      <tilted>0</tilted></_>
    <_>
      <rects>
        <_>
          10 5 3 2 -1.</_>
        <_>
          10 6 3 1 2.</_></rects>
      <tilted>0</tilted></_>
    <_>
      <rects>
        <_>
          10 6 1 4 -1.</_>
        <_>
          10 8 1 2 2.</_></rects>
      <tilted>0</tilted></_>
    <_>
      <rects>
        <_>
          10 7 2 2 -1.</_>
        <_>
          11 7 1 2 2.</_></rects>
      <tilted>0</tilted></_>
    <_>
      <rects>
        <_>
          10 7 1 4 -1.</_>
        <_>
          10 9 1 2 2.</_></rects>
      <tilted>0</tilted></_>
    <_>
      <rects>
        <_>
          10 8 2 6 -1.</_>
        <_>
          10 8 1 3 2.</_>
        <_>
          11 11 1 3 2.</_></rects>
      <tilted>0</tilted></_>
    <_>
      <rects>
        <_>
          10 10 4 4 -1.</_>
        <_>
          12 10 2 4 2.</_></rects>
      <tilted>0</tilted></_>
    <_>
      <rects>
        <_>
          11 0 4 2 -1.</_>
        <_>
          11 0 2 1 2.</_>
        <_>
          13 1 2 1 2.</_></rects>
      <tilted>0</tilted></_>
    <_>
      <rects>
        <_>
          11 1 4 8 -1.</_>
        <_>
          11 1 2 4 2.</_>
        <_>
          13 5 2 4 2.</_></rects>
      <tilted>0</tilted></_>
    <_>
      <rects>
        <_>
          11 3 2 3 -1.</_>
        <_>
          11 4 2 1 2.</_></rects>
      <tilted>0</tilted></_>
    <_>
      <rects>
        <_>
          11 4 3 10 -1.</_>
        <_>
          11 9 3 5 2.</_></rects>
      <tilted>0</tilted></_>
    <_>
      <rects>
        <_>
          11 5 2 4 -1.</_>
        <_>
          11 5 1 2 2.</_>
        <_>
          12 7 1 2 2.</_></rects>
      <tilted>0</tilted></_>
    <_>
      <rects>
        <_>
          11 12 4 2 -1.</_>
        <_>
          11 13 4 1 2.</_></rects>
      <tilted>0</tilted></_>
    <_>
      <rects>
        <_>
          11 13 3 2 -1.</_>
        <_>
          11 14 3 1 2.</_></rects>
      <tilted>0</tilted></_>
    <_>
      <rects>
        <_>
          11 13 4 2 -1.</_>
        <_>
          11 14 4 1 2.</_></rects>
      <tilted>0</tilted></_>
    <_>
      <rects>
        <_>
          12 1 2 8 -1.</_>
        <_>
          12 1 1 4 2.</_>
        <_>
          13 5 1 4 2.</_></rects>
      <tilted>0</tilted></_>
    <_>
      <rects>
        <_>
          12 2 2 6 -1.</_>
        <_>
          12 2 1 3 2.</_>
        <_>
          13 5 1 3 2.</_></rects>
      <tilted>0</tilted></_>
    <_>
      <rects>
        <_>
          12 2 3 2 -1.</_>
        <_>
          12 3 3 1 2.</_></rects>
      <tilted>0</tilted></_>
    <_>
      <rects>
        <_>
          12 3 1 12 -1.</_>
        <_>
          12 9 1 6 2.</_></rects>
      <tilted>0</tilted></_>
    <_>
      <rects>
        <_>
          12 5 2 4 -1.</_>
        <_>
          13 5 1 4 2.</_></rects>
      <tilted>0</tilted></_>
    <_>
      <rects>
        <_>
          12 6 2 2 -1.</_>
        <_>
          13 6 1 2 2.</_></rects>
      <tilted>0</tilted></_>
    <_>
      <rects>
        <_>
          12 6 3 4 -1.</_>
        <_>
          12 8 3 2 2.</_></rects>
      <tilted>0</tilted></_>
    <_>
      <rects>
        <_>
          12 10 3 2 -1.</_>
        <_>
          12 11 3 1 2.</_></rects>
      <tilted>0</tilted></_>
    <_>
      <rects>
        <_>
          12 11 2 4 -1.</_>
        <_>
          13 11 1 4 2.</_></rects>
      <tilted>0</tilted></_>
    <_>
      <rects>
        <_>
          12 11 2 2 -1.</_>
        <_>
          12 12 2 1 2.</_></rects>
      <tilted>0</tilted></_>
    <_>
      <rects>
        <_>
          12 12 3 2 -1.</_>
        <_>
          12 13 3 1 2.</_></rects>
      <tilted>0</tilted></_>
    <_>
      <rects>
        <_>
          12 13 2 2 -1.</_>
        <_>
          12 14 2 1 2.</_></rects>
      <tilted>0</tilted></_>
    <_>
      <rects>
        <_>
          13 1 1 2 -1.</_>
        <_>
          13 2 1 1 2.</_></rects>
      <tilted>0</tilted></_>
    <_>
      <rects>
        <_>
          13 2 2 12 -1.</_>
        <_>
          13 2 1 6 2.</_>
        <_>
          14 8 1 6 2.</_></rects>
      <tilted>0</tilted></_>
    <_>
      <rects>
        <_>
          13 2 2 7 -1.</_>
        <_>
          14 2 1 7 2.</_></rects>
      <tilted>0</tilted></_>
    <_>
      <rects>
        <_>
          13 2 2 3 -1.</_>
        <_>
          13 3 2 1 2.</_></rects>
      <tilted>0</tilted></_>
    <_>
      <rects>
        <_>
          13 3 2 6 -1.</_>
        <_>
          13 3 1 3 2.</_>
        <_>
          14 6 1 3 2.</_></rects>
      <tilted>0</tilted></_>
    <_>
      <rects>
        <_>
          13 3 2 12 -1.</_>
        <_>
          13 3 1 6 2.</_>
        <_>
          14 9 1 6 2.</_></rects>
      <tilted>0</tilted></_>
    <_>
      <rects>
        <_>
          13 4 2 4 -1.</_>
        <_>
          14 4 1 4 2.</_></rects>
      <tilted>0</tilted></_>
    <_>
      <rects>
        <_>
          13 5 2 2 -1.</_>
        <_>
          14 5 1 2 2.</_></rects>
      <tilted>0</tilted></_>
    <_>
      <rects>
        <_>
          13 5 2 10 -1.</_>
        <_>
          13 5 1 5 2.</_>
        <_>
          14 10 1 5 2.</_></rects>
      <tilted>0</tilted></_>
    <_>
      <rects>
        <_>
          13 8 2 2 -1.</_>
        <_>
          13 9 2 1 2.</_></rects>
      <tilted>0</tilted></_>
    <_>
      <rects>
        <_>
          13 9 2 2 -1.</_>
        <_>
          13 10 2 1 2.</_></rects>
      <tilted>0</tilted></_>
    <_>
      <rects>
        <_>
          13 10 2 2 -1.</_>
        <_>
          13 11 2 1 2.</_></rects>
      <tilted>0</tilted></_>
    <_>
      <rects>
        <_>
          13 11 1 2 -1.</_>
        <_>
          13 12 1 1 2.</_></rects>
      <tilted>0</tilted></_>
    <_>
      <rects>
        <_>
          13 13 1 2 -1.</_>
        <_>
          13 14 1 1 2.</_></rects>
      <tilted>0</tilted></_>
    <_>
      <rects>
        <_>
          14 0 1 2 -1.</_>
        <_>
          14 1 1 1 2.</_></rects>
      <tilted>0</tilted></_>
    <_>
      <rects>
        <_>
          14 0 1 6 -1.</_>
        <_>
          14 2 1 2 2.</_></rects>
      <tilted>0</tilted></_>
    <_>
      <rects>
        <_>
          14 1 1 6 -1.</_>
        <_>
          14 4 1 3 2.</_></rects>
      <tilted>0</tilted></_>
    <_>
      <rects>
        <_>
          14 3 1 2 -1.</_>
        <_>
          14 4 1 1 2.</_></rects>
      <tilted>0</tilted></_>
    <_>
      <rects>
        <_>
          14 3 1 4 -1.</_>
        <_>
          14 5 1 2 2.</_></rects>
      <tilted>0</tilted></_>
    <_>
      <rects>
        <_>
          14 7 1 2 -1.</_>
        <_>
          14 8 1 1 2.</_></rects>
      <tilted>0</tilted></_>
    <_>
      <rects>
        <_>
          14 12 1 2 -1.</_>
        <_>
          14 13 1 1 2.</_></rects>
      <tilted>0</tilted></_>
    <_>
      <rects>
        <_>
          14 13 1 2 -1.</_>
        <_>
          14 14 1 1 2.</_></rects>
      <tilted>0</tilted></_></features></cascade>
</opencv_storage>
