<?xml version="1.0"?>
<opencv_storage>
<stage7>
  <maxWeakCount>18</maxWeakCount>
  <stageThreshold>-1.4385797977447510e+00</stageThreshold>
  <weakClassifiers>
    <_>
      <internalNodes>
        0 -1 41438 -7.8164339065551758e-02</internalNodes>
      <leafValues>
        1.4285714924335480e-01 -6.0770577192306519e-01</leafValues></_>
    <_>
      <internalNodes>
        0 -1 147931 9.8509630188345909e-03</internalNodes>
      <leafValues>
        -5.8586645126342773e-01 1.7009995877742767e-01</leafValues></_>
    <_>
      <internalNodes>
        0 -1 13321 2.9850020073354244e-03</internalNodes>
      <leafValues>
        1.0191173851490021e-01 -8.8368934392929077e-01</leafValues></_>
    <_>
      <internalNodes>
        0 -1 37321 2.7415114454925060e-03</internalNodes>
      <leafValues>
        -4.3717244267463684e-01 2.5916048884391785e-01</leafValues></_>
    <_>
      <internalNodes>
        0 -1 22366 1.0002313181757927e-02</internalNodes>
      <leafValues>
        -4.3460619449615479e-01 2.5211226940155029e-01</leafValues></_>
    <_>
      <internalNodes>
        0 -1 9130 -1.1649657040834427e-02</internalNodes>
      <leafValues>
        2.8630810976028442e-01 -3.3825054764747620e-01</leafValues></_>
    <_>
      <internalNodes>
        0 -1 26480 1.8953870981931686e-02</internalNodes>
      <leafValues>
        -2.3153421282768250e-01 4.6488881111145020e-01</leafValues></_>
    <_>
      <internalNodes>
        0 -1 161181 -7.6319434447214007e-04</internalNodes>
      <leafValues>
        -7.5645232200622559e-01 1.2088736146688461e-01</leafValues></_>
    <_>
      <internalNodes>
        0 -1 76130 -7.4364751577377319e-02</internalNodes>
      <leafValues>
        7.8420424461364746e-01 -1.5376271307468414e-01</leafValues></_>
    <_>
      <internalNodes>
        0 -1 147440 -1.7631547525525093e-03</internalNodes>
      <leafValues>
        4.8097503185272217e-01 -1.8889296054840088e-01</leafValues></_>
    <_>
      <internalNodes>
        0 -1 4084 -3.7274468922987580e-04</internalNodes>
      <leafValues>
        -7.7786564826965332e-01 1.2960286438465118e-01</leafValues></_>
    <_>
      <internalNodes>
        0 -1 148288 -4.6792882494628429e-04</internalNodes>
      <leafValues>
        3.1986355781555176e-01 -2.9154533147811890e-01</leafValues></_>
    <_>
      <internalNodes>
        0 -1 161194 -3.8929622620344162e-02</internalNodes>
      <leafValues>
        -9.2804127931594849e-01 9.1035127639770508e-02</leafValues></_>
    <_>
      <internalNodes>
        0 -1 49027 -7.0133648812770844e-02</internalNodes>
      <leafValues>
        1.6195589303970337e-01 -5.1252543926239014e-01</leafValues></_>
    <_>
      <internalNodes>
        0 -1 161674 2.1539656445384026e-03</internalNodes>
      <leafValues>
        -2.7982011437416077e-01 3.2353681325912476e-01</leafValues></_>
    <_>
      <internalNodes>
        0 -1 118465 7.2731943801045418e-03</internalNodes>
      <leafValues>
        -1.5200829505920410e-01 6.4832913875579834e-01</leafValues></_>
    <_>
      <internalNodes>
        0 -1 63589 -3.6708279512822628e-03</internalNodes>
      <leafValues>
        -8.7468153238296509e-01 1.2422020733356476e-01</leafValues></_>
    <_>
      <internalNodes>
        0 -1 162219 9.4101228751242161e-04</internalNodes>
      <leafValues>
        6.4134471118450165e-02 -9.2953801155090332e-01</leafValues></_></weakClassifiers></stage7>
</opencv_storage>
