<?xml version="1.0"?>
<opencv_storage>
<stage12>
  <maxWeakCount>20</maxWeakCount>
  <stageThreshold>-1.0955538749694824e+00</stageThreshold>
  <weakClassifiers>
    <_>
      <internalNodes>
        0 -1 146468 -1.0538855567574501e-02</internalNodes>
      <leafValues>
        1.8181818723678589e-01 -4.5856353640556335e-01</leafValues></_>
    <_>
      <internalNodes>
        0 -1 19991 -1.3283467851579189e-03</internalNodes>
      <leafValues>
        2.1637527644634247e-01 -3.1006762385368347e-01</leafValues></_>
    <_>
      <internalNodes>
        0 -1 9442 -1.3601793907582760e-03</internalNodes>
      <leafValues>
        -7.2927284240722656e-01 1.0531122237443924e-01</leafValues></_>
    <_>
      <internalNodes>
        0 -1 6661 -6.1780097894370556e-04</internalNodes>
      <leafValues>
        -7.3971569538116455e-01 1.1665683239698410e-01</leafValues></_>
    <_>
      <internalNodes>
        0 -1 158492 1.5266717411577702e-02</internalNodes>
      <leafValues>
        -2.7632924914360046e-01 2.3537163436412811e-01</leafValues></_>
    <_>
      <internalNodes>
        0 -1 29976 3.1976478639990091e-03</internalNodes>
      <leafValues>
        -1.9683641195297241e-01 3.3520469069480896e-01</leafValues></_>
    <_>
      <internalNodes>
        0 -1 162087 -8.4008148405700922e-05</internalNodes>
      <leafValues>
        -5.2546906471252441e-01 1.4061070978641510e-01</leafValues></_>
    <_>
      <internalNodes>
        0 -1 139121 -1.5802863053977489e-03</internalNodes>
      <leafValues>
        3.3093312382698059e-01 -2.5119194388389587e-01</leafValues></_>
    <_>
      <internalNodes>
        0 -1 106757 1.2072095414623618e-03</internalNodes>
      <leafValues>
        1.0808074474334717e-01 -7.2269690036773682e-01</leafValues></_>
    <_>
      <internalNodes>
        0 -1 77382 3.0673653818666935e-03</internalNodes>
      <leafValues>
        -2.5077685713768005e-01 2.7677774429321289e-01</leafValues></_>
    <_>
      <internalNodes>
        0 -1 158395 -1.0861221235245466e-03</internalNodes>
      <leafValues>
        -8.1597858667373657e-01 7.9567044973373413e-02</leafValues></_>
    <_>
      <internalNodes>
        0 -1 141800 1.3423955067992210e-02</internalNodes>
      <leafValues>
        -1.6401606798171997e-01 4.8084679245948792e-01</leafValues></_>
    <_>
      <internalNodes>
        0 -1 6697 -1.9347339402884245e-03</internalNodes>
      <leafValues>
        3.3131244778633118e-01 -2.3519739508628845e-01</leafValues></_>
    <_>
      <internalNodes>
        0 -1 130188 1.0004797950387001e-03</internalNodes>
      <leafValues>
        -2.4119405448436737e-01 2.8580865263938904e-01</leafValues></_>
    <_>
      <internalNodes>
        0 -1 9372 1.4772060327231884e-02</internalNodes>
      <leafValues>
        -2.5537446141242981e-01 2.9165387153625488e-01</leafValues></_>
    <_>
      <internalNodes>
        0 -1 88179 9.7070410847663879e-02</internalNodes>
      <leafValues>
        -1.7068628966808319e-01 4.0566784143447876e-01</leafValues></_>
    <_>
      <internalNodes>
        0 -1 77353 -4.4808704406023026e-03</internalNodes>
      <leafValues>
        5.2516621351242065e-01 -1.3298346102237701e-01</leafValues></_>
    <_>
      <internalNodes>
        0 -1 12552 1.7411825247108936e-03</internalNodes>
      <leafValues>
        8.7561175227165222e-02 -9.3389868736267090e-01</leafValues></_>
    <_>
      <internalNodes>
        0 -1 133754 1.1281492188572884e-03</internalNodes>
      <leafValues>
        -2.3261743783950806e-01 3.1032156944274902e-01</leafValues></_>
    <_>
      <internalNodes>
        0 -1 42030 -1.8112395703792572e-01</internalNodes>
      <leafValues>
        5.7111829519271851e-01 -1.4827708899974823e-01</leafValues></_></weakClassifiers></stage12>
</opencv_storage>
