<?xml version="1.0"?>
<opencv_storage>
<stage1>
  <maxWeakCount>9</maxWeakCount>
  <stageThreshold>-1.7587321996688843e+00</stageThreshold>
  <weakClassifiers>
    <_>
      <internalNodes>
        0 -1 125082 2.2639300674200058e-02</internalNodes>
      <leafValues>
        -6.8959999084472656e-01 4.7636362910270691e-01</leafValues></_>
    <_>
      <internalNodes>
        0 -1 155897 1.0487515479326248e-02</internalNodes>
      <leafValues>
        -5.6204044818878174e-01 5.6953513622283936e-01</leafValues></_>
    <_>
      <internalNodes>
        0 -1 64730 -1.2547265738248825e-02</internalNodes>
      <leafValues>
        5.0173085927963257e-01 -4.9629276990890503e-01</leafValues></_>
    <_>
      <internalNodes>
        0 -1 125411 4.2082771658897400e-02</internalNodes>
      <leafValues>
        -8.7076407670974731e-01 3.1346693634986877e-01</leafValues></_>
    <_>
      <internalNodes>
        0 -1 67293 -3.0328081920742989e-02</internalNodes>
      <leafValues>
        -9.2091518640518188e-01 1.9788540899753571e-01</leafValues></_>
    <_>
      <internalNodes>
        0 -1 139915 -1.2557365931570530e-02</internalNodes>
      <leafValues>
        5.3122591972351074e-01 -4.2553877830505371e-01</leafValues></_>
    <_>
      <internalNodes>
        0 -1 137182 8.9416876435279846e-03</internalNodes>
      <leafValues>
        -2.9880222678184509e-01 6.5442228317260742e-01</leafValues></_>
    <_>
      <internalNodes>
        0 -1 6811 -2.0798657089471817e-02</internalNodes>
      <leafValues>
        6.2651574611663818e-01 -3.1829470396041870e-01</leafValues></_>
    <_>
      <internalNodes>
        0 -1 21711 9.3707051128149033e-03</internalNodes>
      <leafValues>
        -2.3811863362789154e-01 7.2461819648742676e-01</leafValues></_></weakClassifiers></stage1>
</opencv_storage>
