<?xml version="1.0"?>
<opencv_storage>
<stage10>
  <maxWeakCount>21</maxWeakCount>
  <stageThreshold>-1.1028590202331543e+00</stageThreshold>
  <weakClassifiers>
    <_>
      <internalNodes>
        0 -1 111857 -8.7378975003957748e-03</internalNodes>
      <leafValues>
        -5.9026366472244263e-01 -2.2113021463155746e-02</leafValues></_>
    <_>
      <internalNodes>
        0 -1 162245 -7.9477293184027076e-04</internalNodes>
      <leafValues>
        -9.1096138954162598e-01 6.0801807790994644e-02</leafValues></_>
    <_>
      <internalNodes>
        0 -1 54745 -3.1691640615463257e-02</internalNodes>
      <leafValues>
        3.4903043508529663e-01 -2.3241701722145081e-01</leafValues></_>
    <_>
      <internalNodes>
        0 -1 216 -1.6288943588733673e-02</internalNodes>
      <leafValues>
        2.9338881373405457e-01 -2.9413160681724548e-01</leafValues></_>
    <_>
      <internalNodes>
        0 -1 111037 -4.2994571849703789e-03</internalNodes>
      <leafValues>
        5.5930382013320923e-01 -1.5010400116443634e-01</leafValues></_>
    <_>
      <internalNodes>
        0 -1 87210 7.3194261640310287e-03</internalNodes>
      <leafValues>
        -1.8266615271568298e-01 4.1239768266677856e-01</leafValues></_>
    <_>
      <internalNodes>
        0 -1 13360 -1.8441512947902083e-03</internalNodes>
      <leafValues>
        -8.0653679370880127e-01 1.0784208774566650e-01</leafValues></_>
    <_>
      <internalNodes>
        0 -1 160716 2.7646129019558430e-03</internalNodes>
      <leafValues>
        -2.3506815731525421e-01 3.2014143466949463e-01</leafValues></_>
    <_>
      <internalNodes>
        0 -1 120951 9.5282364636659622e-03</internalNodes>
      <leafValues>
        1.0595528036355972e-01 -8.0862677097320557e-01</leafValues></_>
    <_>
      <internalNodes>
        0 -1 19573 -2.3869348224252462e-03</internalNodes>
      <leafValues>
        -7.8838443756103516e-01 5.8153856545686722e-02</leafValues></_>
    <_>
      <internalNodes>
        0 -1 41349 1.7983524128794670e-02</internalNodes>
      <leafValues>
        -1.2226395308971405e-01 6.6825050115585327e-01</leafValues></_>
    <_>
      <internalNodes>
        0 -1 74531 -1.0904793161898851e-03</internalNodes>
      <leafValues>
        2.9251304268836975e-01 -2.9935532808303833e-01</leafValues></_>
    <_>
      <internalNodes>
        0 -1 114926 1.3994624838232994e-02</internalNodes>
      <leafValues>
        -1.4628437161445618e-01 5.7184410095214844e-01</leafValues></_>
    <_>
      <internalNodes>
        0 -1 114988 5.7067826855927706e-04</internalNodes>
      <leafValues>
        1.0976502299308777e-01 -9.0903353691101074e-01</leafValues></_>
    <_>
      <internalNodes>
        0 -1 160917 -2.5837151333689690e-03</internalNodes>
      <leafValues>
        -6.9185006618499756e-01 7.9408764839172363e-02</leafValues></_>
    <_>
      <internalNodes>
        0 -1 151812 -3.5254217800684273e-04</internalNodes>
      <leafValues>
        2.0202738046646118e-01 -3.4263131022453308e-01</leafValues></_>
    <_>
      <internalNodes>
        0 -1 157580 1.3208901509642601e-04</internalNodes>
      <leafValues>
        -3.6572355031967163e-01 2.2646407783031464e-01</leafValues></_>
    <_>
      <internalNodes>
        0 -1 95658 -2.4633407592773438e-03</internalNodes>
      <leafValues>
        4.8760607838630676e-01 -1.6155815124511719e-01</leafValues></_>
    <_>
      <internalNodes>
        0 -1 112914 2.0131658762693405e-02</internalNodes>
      <leafValues>
        -1.1170593649148941e-01 6.9246655702590942e-01</leafValues></_>
    <_>
      <internalNodes>
        0 -1 89434 3.1507207313552499e-04</internalNodes>
      <leafValues>
        -4.1220062971115112e-01 1.9933441281318665e-01</leafValues></_>
    <_>
      <internalNodes>
        0 -1 46138 3.5354732535779476e-03</internalNodes>
      <leafValues>
        -1.5655693411827087e-01 5.1055169105529785e-01</leafValues></_></weakClassifiers></stage10>
</opencv_storage>
