<?xml version="1.0"?>
<opencv_storage>
<stage14>
  <maxWeakCount>26</maxWeakCount>
  <stageThreshold>-1.1959654092788696e+00</stageThreshold>
  <weakClassifiers>
    <_>
      <internalNodes>
        0 -1 22051 2.3832376301288605e-01</internalNodes>
      <leafValues>
        -5.7763975858688354e-01 -5.0359711050987244e-02</leafValues></_>
    <_>
      <internalNodes>
        0 -1 14248 -4.5833118259906769e-02</internalNodes>
      <leafValues>
        1.4603929221630096e-01 -3.9137864112854004e-01</leafValues></_>
    <_>
      <internalNodes>
        0 -1 12529 4.6511512482538819e-04</internalNodes>
      <leafValues>
        1.0855814814567566e-01 -6.1052727699279785e-01</leafValues></_>
    <_>
      <internalNodes>
        0 -1 147065 3.2485877163708210e-03</internalNodes>
      <leafValues>
        -1.1506728082895279e-01 5.1151698827743530e-01</leafValues></_>
    <_>
      <internalNodes>
        0 -1 151888 5.5728887673467398e-04</internalNodes>
      <leafValues>
        7.7637441456317902e-02 -8.2255393266677856e-01</leafValues></_>
    <_>
      <internalNodes>
        0 -1 96072 -2.1097860299050808e-03</internalNodes>
      <leafValues>
        4.6662726998329163e-01 -1.5106347203254700e-01</leafValues></_>
    <_>
      <internalNodes>
        0 -1 100563 2.3956606164574623e-03</internalNodes>
      <leafValues>
        5.5174659937620163e-02 -9.5282864570617676e-01</leafValues></_>
    <_>
      <internalNodes>
        0 -1 138087 6.4694485627114773e-04</internalNodes>
      <leafValues>
        -1.6766126453876495e-01 3.8521510362625122e-01</leafValues></_>
    <_>
      <internalNodes>
        0 -1 80117 -1.9849487580358982e-03</internalNodes>
      <leafValues>
        -8.7029021978378296e-01 6.9084167480468750e-02</leafValues></_>
    <_>
      <internalNodes>
        0 -1 162095 -1.6700341075193137e-04</internalNodes>
      <leafValues>
        -5.7089447975158691e-01 1.0014642030000687e-01</leafValues></_>
    <_>
      <internalNodes>
        0 -1 70746 -1.1020329548045993e-03</internalNodes>
      <leafValues>
        3.1849637627601624e-01 -2.0032092928886414e-01</leafValues></_>
    <_>
      <internalNodes>
        0 -1 81744 6.6414866596460342e-03</internalNodes>
      <leafValues>
        -1.5543189644813538e-01 4.1937091946601868e-01</leafValues></_>
    <_>
      <internalNodes>
        0 -1 155222 -4.0882987377699465e-05</internalNodes>
      <leafValues>
        2.1132889389991760e-01 -2.9494246840476990e-01</leafValues></_>
    <_>
      <internalNodes>
        0 -1 25014 4.1787057853071019e-05</internalNodes>
      <leafValues>
        -2.6997843384742737e-01 2.2012954950332642e-01</leafValues></_>
    <_>
      <internalNodes>
        0 -1 160366 -1.0724856983870268e-03</internalNodes>
      <leafValues>
        -9.3842142820358276e-01 6.4686082303524017e-02</leafValues></_>
    <_>
      <internalNodes>
        0 -1 144071 4.8761712387204170e-03</internalNodes>
      <leafValues>
        4.2888224124908447e-02 -8.9310091733932495e-01</leafValues></_>
    <_>
      <internalNodes>
        0 -1 150337 9.5308013260364532e-04</internalNodes>
      <leafValues>
        -2.6382023096084595e-01 2.3431888222694397e-01</leafValues></_>
    <_>
      <internalNodes>
        0 -1 156085 -1.1944349389523268e-03</internalNodes>
      <leafValues>
        2.4208374321460724e-01 -2.7879291772842407e-01</leafValues></_>
    <_>
      <internalNodes>
        0 -1 14079 2.7909465134143829e-02</internalNodes>
      <leafValues>
        -1.3602417707443237e-01 5.1311779022216797e-01</leafValues></_>
    <_>
      <internalNodes>
        0 -1 155644 6.8977102637290955e-03</internalNodes>
      <leafValues>
        8.5112713277339935e-02 -8.2207524776458740e-01</leafValues></_>
    <_>
      <internalNodes>
        0 -1 145364 -8.9000433683395386e-02</internalNodes>
      <leafValues>
        -9.3952655792236328e-01 5.5869173258543015e-02</leafValues></_>
    <_>
      <internalNodes>
        0 -1 130996 1.7144680023193359e-03</internalNodes>
      <leafValues>
        -1.0345767438411713e-01 7.8149330615997314e-01</leafValues></_>
    <_>
      <internalNodes>
        0 -1 106316 1.4245939673855901e-03</internalNodes>
      <leafValues>
        -1.6719149053096771e-01 3.7003007531166077e-01</leafValues></_>
    <_>
      <internalNodes>
        0 -1 123400 -6.2911636196076870e-03</internalNodes>
      <leafValues>
        2.5087147951126099e-01 -2.6917359232902527e-01</leafValues></_>
    <_>
      <internalNodes>
        0 -1 86154 5.5002826265990734e-03</internalNodes>
      <leafValues>
        -2.0145758986473083e-01 3.7822818756103516e-01</leafValues></_>
    <_>
      <internalNodes>
        0 -1 60292 -1.9024920184165239e-03</internalNodes>
      <leafValues>
        3.0270472168922424e-01 -2.0994353294372559e-01</leafValues></_></weakClassifiers></stage14>
</opencv_storage>
