<?xml version="1.0"?>
<opencv_storage>
<cascade>
  <stageType>BOOST</stageType>
  <featureType>HAAR</featureType>
  <height>15</height>
  <width>15</width>
  <stageParams>
    <boostType>GAB</boostType>
    <minHitRate>9.9500000476837158e-01</minHitRate>
    <maxFalseAlarm>5.0000000000000000e-01</maxFalseAlarm>
    <weightTrimRate>9.4999999999999996e-01</weightTrimRate>
    <maxDepth>1</maxDepth>
    <maxWeakCount>100</maxWeakCount></stageParams>
  <featureParams>
    <maxCatCount>0</maxCatCount>
    <featSize>1</featSize>
    <mode>BASIC</mode></featureParams>
  <stageNum>9</stageNum>
  <stages>
    <!-- stage 0 -->
    <_>
      <maxWeakCount>2</maxWeakCount>
      <stageThreshold>-2.3712491989135742e-01</stageThreshold>
      <weakClassifiers>
        <_>
          <internalNodes>
            0 -1 7 -1.4948192238807678e-01</internalNodes>
          <leafValues>
            8.0000001192092896e-01 -9.3333333730697632e-01</leafValues></_>
        <_>
          <internalNodes>
            0 -1 9 -5.2265938371419907e-02</internalNodes>
          <leafValues>
            6.9620841741561890e-01 -1.</leafValues></_></weakClassifiers></_>
    <!-- stage 1 -->
    <_>
      <maxWeakCount>2</maxWeakCount>
      <stageThreshold>1.5391765534877777e-01</stageThreshold>
      <weakClassifiers>
        <_>
          <internalNodes>
            0 -1 4 -2.2682382166385651e-01</internalNodes>
          <leafValues>
            1. -8.1818181276321411e-01</leafValues></_>
        <_>
          <internalNodes>
            0 -1 10 1.8657412379980087e-02</internalNodes>
          <leafValues>
            -8.4608232975006104e-01 1.</leafValues></_></weakClassifiers></_>
    <!-- stage 2 -->
    <_>
      <maxWeakCount>2</maxWeakCount>
      <stageThreshold>1.2500000000000000e-01</stageThreshold>
      <weakClassifiers>
        <_>
          <internalNodes>
            0 -1 6 3.6324452608823776e-02</internalNodes>
          <leafValues>
            -8.7500000000000000e-01 1.</leafValues></_>
        <_>
          <internalNodes>
            0 -1 16 5.2298880182206631e-03</internalNodes>
          <leafValues>
            -8.3781349658966064e-01 1.</leafValues></_></weakClassifiers></_>
    <!-- stage 3 -->
    <_>
      <maxWeakCount>2</maxWeakCount>
      <stageThreshold>-2.2688481211662292e-01</stageThreshold>
      <weakClassifiers>
        <_>
          <internalNodes>
            0 -1 8 -2.5476869195699692e-02</internalNodes>
          <leafValues>
            6.3636362552642822e-01 -9.3103450536727905e-01</leafValues></_>
        <_>
          <internalNodes>
            0 -1 14 -2.2813137620687485e-02</internalNodes>
          <leafValues>
            8.8120573759078979e-01 -8.6324846744537354e-01</leafValues></_></weakClassifiers></_>
    <!-- stage 4 -->
    <_>
      <maxWeakCount>2</maxWeakCount>
      <stageThreshold>-2.2688481211662292e-01</stageThreshold>
      <weakClassifiers>
        <_>
          <internalNodes>
            0 -1 12 -2.3375181481242180e-03</internalNodes>
          <leafValues>
            6.3636362552642822e-01 -9.3103450536727905e-01</leafValues></_>
        <_>
          <internalNodes>
            0 -1 15 2.0860716700553894e-02</internalNodes>
          <leafValues>
            -8.6324846744537354e-01 8.8120573759078979e-01</leafValues></_></weakClassifiers></_>
    <!-- stage 5 -->
    <_>
      <maxWeakCount>2</maxWeakCount>
      <stageThreshold>-4.1932028532028198e-01</stageThreshold>
      <weakClassifiers>
        <_>
          <internalNodes>
            0 -1 0 -1.2599874734878540e+00</internalNodes>
          <leafValues>
            -9.2857140302658081e-01 5.0000000000000000e-01</leafValues></_>
        <_>
          <internalNodes>
            0 -1 1 -1.8881019204854965e-02</internalNodes>
          <leafValues>
            7.2332268953323364e-01 -9.1932028532028198e-01</leafValues></_></weakClassifiers></_>
    <!-- stage 6 -->
    <_>
      <maxWeakCount>2</maxWeakCount>
      <stageThreshold>-1.5067183971405029e-01</stageThreshold>
      <weakClassifiers>
        <_>
          <internalNodes>
            0 -1 13 -3.1778305768966675e-02</internalNodes>
          <leafValues>
            6.0000002384185791e-01 -8.6666667461395264e-01</leafValues></_>
        <_>
          <internalNodes>
            0 -1 11 -9.4205811619758606e-03</internalNodes>
          <leafValues>
            1. -7.5067186355590820e-01</leafValues></_></weakClassifiers></_>
    <!-- stage 7 -->
    <_>
      <maxWeakCount>1</maxWeakCount>
      <stageThreshold>6.6666668653488159e-01</stageThreshold>
      <weakClassifiers>
        <_>
          <internalNodes>
            0 -1 3 -1.6662602126598358e-01</internalNodes>
          <leafValues>
            -1. 6.6666668653488159e-01</leafValues></_></weakClassifiers></_>
    <!-- stage 8 -->
    <_>
      <maxWeakCount>2</maxWeakCount>
      <stageThreshold>5.3826671093702316e-02</stageThreshold>
      <weakClassifiers>
        <_>
          <internalNodes>
            0 -1 2 -1.9555440172553062e-02</internalNodes>
          <leafValues>
            1. -7.6470589637756348e-01</leafValues></_>
        <_>
          <internalNodes>
            0 -1 5 5.5322952568531036e-02</internalNodes>
          <leafValues>
            -7.9709780216217041e-01 8.1853252649307251e-01</leafValues></_></weakClassifiers></_></stages>
  <features>
    <_>
      <rects>
        <_>
          0 1 9 12 -1.</_>
        <_>
          0 5 9 4 2.</_></rects>
      <tilted>0</tilted></_>
    <_>
      <rects>
        <_>
          0 5 4 3 -1.</_>
        <_>
          2 5 2 3 2.</_></rects>
      <tilted>0</tilted></_>
    <_>
      <rects>
        <_>
          1 0 2 10 -1.</_>
        <_>
          1 0 1 5 2.</_>
        <_>
          2 5 1 5 2.</_></rects>
      <tilted>0</tilted></_>
    <_>
      <rects>
        <_>
          1 0 9 1 -1.</_>
        <_>
          4 0 3 1 2.</_></rects>
      <tilted>0</tilted></_>
    <_>
      <rects>
        <_>
          1 0 14 6 -1.</_>
        <_>
          1 3 14 3 2.</_></rects>
      <tilted>0</tilted></_>
    <_>
      <rects>
        <_>
          1 5 4 8 -1.</_>
        <_>
          1 9 4 4 2.</_></rects>
      <tilted>0</tilted></_>
    <_>
      <rects>
        <_>
          2 0 6 12 -1.</_>
        <_>
          5 0 3 12 2.</_></rects>
      <tilted>0</tilted></_>
    <_>
      <rects>
        <_>
          3 0 6 3 -1.</_>
        <_>
          5 0 2 3 2.</_></rects>
      <tilted>0</tilted></_>
    <_>
      <rects>
        <_>
          3 2 3 4 -1.</_>
        <_>
          3 4 3 2 2.</_></rects>
      <tilted>0</tilted></_>
    <_>
      <rects>
        <_>
          6 1 3 2 -1.</_>
        <_>
          7 1 1 2 2.</_></rects>
      <tilted>0</tilted></_>
    <_>
      <rects>
        <_>
          8 5 2 4 -1.</_>
        <_>
          8 7 2 2 2.</_></rects>
      <tilted>0</tilted></_>
    <_>
      <rects>
        <_>
          8 8 4 1 -1.</_>
        <_>
          10 8 2 1 2.</_></rects>
      <tilted>0</tilted></_>
    <_>
      <rects>
        <_>
          8 10 1 2 -1.</_>
        <_>
          8 11 1 1 2.</_></rects>
      <tilted>0</tilted></_>
    <_>
      <rects>
        <_>
          9 1 4 6 -1.</_>
        <_>
          11 1 2 6 2.</_></rects>
      <tilted>0</tilted></_>
    <_>
      <rects>
        <_>
          9 2 4 5 -1.</_>
        <_>
          11 2 2 5 2.</_></rects>
      <tilted>0</tilted></_>
    <_>
      <rects>
        <_>
          10 5 4 9 -1.</_>
        <_>
          12 5 2 9 2.</_></rects>
      <tilted>0</tilted></_>
    <_>
      <rects>
        <_>
          12 5 3 2 -1.</_>
        <_>
          12 6 3 1 2.</_></rects>
      <tilted>0</tilted></_></features></cascade>
</opencv_storage>
