<?xml version="1.0"?>
<opencv_storage>
<stage3>
  <maxWeakCount>18</maxWeakCount>
  <stageThreshold>-1.4411195516586304e+00</stageThreshold>
  <weakClassifiers>
    <_>
      <internalNodes>
        0 -1 154039 1.7313208431005478e-02</internalNodes>
      <leafValues>
        -5.4921257495880127e-01 2.4601769447326660e-01</leafValues></_>
    <_>
      <internalNodes>
        0 -1 57198 1.2077962607145309e-01</internalNodes>
      <leafValues>
        -6.4940577745437622e-01 1.8269559741020203e-01</leafValues></_>
    <_>
      <internalNodes>
        0 -1 126065 -4.7710384242236614e-03</internalNodes>
      <leafValues>
        -4.1904655098915100e-01 3.3098590373992920e-01</leafValues></_>
    <_>
      <internalNodes>
        0 -1 10605 -5.1844725385308266e-03</internalNodes>
      <leafValues>
        5.4761993885040283e-01 -1.8764956295490265e-01</leafValues></_>
    <_>
      <internalNodes>
        0 -1 95970 1.5191959217190742e-02</internalNodes>
      <leafValues>
        -2.7193731069564819e-01 4.5207443833351135e-01</leafValues></_>
    <_>
      <internalNodes>
        0 -1 103918 -1.3544995337724686e-02</internalNodes>
      <leafValues>
        6.6927617788314819e-01 -1.7180158197879791e-01</leafValues></_>
    <_>
      <internalNodes>
        0 -1 65535 -1.4240283053368330e-03</internalNodes>
      <leafValues>
        2.9235526919364929e-01 -4.0063744783401489e-01</leafValues></_>
    <_>
      <internalNodes>
        0 -1 90232 9.0734986588358879e-03</internalNodes>
      <leafValues>
        -2.3973035812377930e-01 4.4645139575004578e-01</leafValues></_>
    <_>
      <internalNodes>
        0 -1 12255 -6.6631770459935069e-04</internalNodes>
      <leafValues>
        -8.0315631628036499e-01 1.2951871752738953e-01</leafValues></_>
    <_>
      <internalNodes>
        0 -1 68174 -2.7042827568948269e-03</internalNodes>
      <leafValues>
        4.7693145275115967e-01 -2.1644209325313568e-01</leafValues></_>
    <_>
      <internalNodes>
        0 -1 56307 1.6214553266763687e-02</internalNodes>
      <leafValues>
        -2.7488294243812561e-01 4.2582711577415466e-01</leafValues></_>
    <_>
      <internalNodes>
        0 -1 37862 5.8862799778580666e-03</internalNodes>
      <leafValues>
        1.0792247951030731e-01 -9.2185711860656738e-01</leafValues></_>
    <_>
      <internalNodes>
        0 -1 143944 4.9224146641790867e-04</internalNodes>
      <leafValues>
        -3.9192646741867065e-01 2.3743365705013275e-01</leafValues></_>
    <_>
      <internalNodes>
        0 -1 37384 1.9291806966066360e-02</internalNodes>
      <leafValues>
        1.3708247244358063e-01 -6.9541186094284058e-01</leafValues></_>
    <_>
      <internalNodes>
        0 -1 110671 8.1895450130105019e-03</internalNodes>
      <leafValues>
        -1.5812017023563385e-01 5.9042143821716309e-01</leafValues></_>
    <_>
      <internalNodes>
        0 -1 96060 2.0082639530301094e-03</internalNodes>
      <leafValues>
        -1.4317269623279572e-01 6.6556394100189209e-01</leafValues></_>
    <_>
      <internalNodes>
        0 -1 136486 5.3363502956926823e-05</internalNodes>
      <leafValues>
        -2.5295615196228027e-01 3.7020680308341980e-01</leafValues></_>
    <_>
      <internalNodes>
        0 -1 113359 1.2827051104977727e-03</internalNodes>
      <leafValues>
        -2.3108334839344025e-01 3.7508749961853027e-01</leafValues></_></weakClassifiers></stage3>
</opencv_storage>
