<?xml version="1.0"?>
<opencv_storage>
<stage8>
  <maxWeakCount>28</maxWeakCount>
  <stageThreshold>-1.3741240501403809e+00</stageThreshold>
  <weakClassifiers>
    <_>
      <internalNodes>
        0 -1 61279 -1.0491423606872559e+00</internalNodes>
      <leafValues>
        8.9017339050769806e-02 -6.9273740053176880e-01</leafValues></_>
    <_>
      <internalNodes>
        0 -1 9424 2.9627081751823425e-01</internalNodes>
      <leafValues>
        -4.0026137232780457e-01 2.2797493636608124e-01</leafValues></_>
    <_>
      <internalNodes>
        0 -1 104046 -5.5383937433362007e-03</internalNodes>
      <leafValues>
        5.0646179914474487e-01 -1.2188054621219635e-01</leafValues></_>
    <_>
      <internalNodes>
        0 -1 25719 3.0880892882123590e-04</internalNodes>
      <leafValues>
        1.0716848820447922e-01 -5.8757209777832031e-01</leafValues></_>
    <_>
      <internalNodes>
        0 -1 46091 -1.7168695339933038e-03</internalNodes>
      <leafValues>
        3.8648438453674316e-01 -1.4579440653324127e-01</leafValues></_>
    <_>
      <internalNodes>
        0 -1 162242 -6.6858101636171341e-03</internalNodes>
      <leafValues>
        -7.0881301164627075e-01 6.7479729652404785e-02</leafValues></_>
    <_>
      <internalNodes>
        0 -1 154147 6.7571178078651428e-03</internalNodes>
      <leafValues>
        -1.7811857163906097e-01 3.6104592680931091e-01</leafValues></_>
    <_>
      <internalNodes>
        0 -1 50282 -1.5262758359313011e-02</internalNodes>
      <leafValues>
        3.5823506116867065e-01 -1.5279002487659454e-01</leafValues></_>
    <_>
      <internalNodes>
        0 -1 121246 1.0267423931509256e-03</internalNodes>
      <leafValues>
        8.6502894759178162e-02 -8.3556419610977173e-01</leafValues></_>
    <_>
      <internalNodes>
        0 -1 114906 1.4480087906122208e-02</internalNodes>
      <leafValues>
        -1.6210722923278809e-01 4.6787011623382568e-01</leafValues></_>
    <_>
      <internalNodes>
        0 -1 157190 -1.0595282074064016e-03</internalNodes>
      <leafValues>
        5.2520316839218140e-01 -8.5878446698188782e-02</leafValues></_>
    <_>
      <internalNodes>
        0 -1 28730 -5.1850434392690659e-03</internalNodes>
      <leafValues>
        -9.0468180179595947e-01 7.1237444877624512e-02</leafValues></_>
    <_>
      <internalNodes>
        0 -1 81220 5.0095431506633759e-03</internalNodes>
      <leafValues>
        -2.2503784298896790e-01 2.4369601905345917e-01</leafValues></_>
    <_>
      <internalNodes>
        0 -1 162096 2.4264171952381730e-04</internalNodes>
      <leafValues>
        7.4474163353443146e-02 -6.4168912172317505e-01</leafValues></_>
    <_>
      <internalNodes>
        0 -1 13450 -3.3305347897112370e-03</internalNodes>
      <leafValues>
        2.9727786779403687e-01 -1.8818837404251099e-01</leafValues></_>
    <_>
      <internalNodes>
        0 -1 11066 -1.2954055564478040e-03</internalNodes>
      <leafValues>
        -8.0684590339660645e-01 7.6516896486282349e-02</leafValues></_>
    <_>
      <internalNodes>
        0 -1 139121 -1.4228164218366146e-03</internalNodes>
      <leafValues>
        2.4376453459262848e-01 -2.2860357165336609e-01</leafValues></_>
    <_>
      <internalNodes>
        0 -1 85676 -3.8405917584896088e-02</internalNodes>
      <leafValues>
        3.7603947520256042e-01 -1.5819859504699707e-01</leafValues></_>
    <_>
      <internalNodes>
        0 -1 66594 1.4703951776027679e-02</internalNodes>
      <leafValues>
        -1.3665434718132019e-01 4.9610230326652527e-01</leafValues></_>
    <_>
      <internalNodes>
        0 -1 13396 -4.5333185698837042e-04</internalNodes>
      <leafValues>
        -6.9435983896255493e-01 9.2826761305332184e-02</leafValues></_>
    <_>
      <internalNodes>
        0 -1 120125 2.5045691290870309e-04</internalNodes>
      <leafValues>
        -2.7127450704574585e-01 1.8194684386253357e-01</leafValues></_>
    <_>
      <internalNodes>
        0 -1 161952 1.1849103029817343e-03</internalNodes>
      <leafValues>
        -1.8039688467979431e-01 3.1197580695152283e-01</leafValues></_>
    <_>
      <internalNodes>
        0 -1 24756 -1.8684357404708862e-02</internalNodes>
      <leafValues>
        -4.6185272932052612e-01 1.2427670508623123e-01</leafValues></_>
    <_>
      <internalNodes>
        0 -1 113799 1.8043071031570435e-03</internalNodes>
      <leafValues>
        -1.7478907108306885e-01 3.6009195446968079e-01</leafValues></_>
    <_>
      <internalNodes>
        0 -1 130299 -6.6532604396343231e-03</internalNodes>
      <leafValues>
        3.2039120793342590e-01 -1.7885775864124298e-01</leafValues></_>
    <_>
      <internalNodes>
        0 -1 162277 -5.7581933215260506e-03</internalNodes>
      <leafValues>
        -7.5448107719421387e-01 6.8867698311805725e-02</leafValues></_>
    <_>
      <internalNodes>
        0 -1 4781 2.6812595129013062e-01</internalNodes>
      <leafValues>
        5.0172068178653717e-02 -8.4922009706497192e-01</leafValues></_>
    <_>
      <internalNodes>
        0 -1 55648 -8.0698877573013306e-03</internalNodes>
      <leafValues>
        1.0534850507974625e-01 -4.4430708885192871e-01</leafValues></_></weakClassifiers></stage8>
</opencv_storage>
