<?xml version="1.0"?>
<opencv_storage>
<stage10>
  <maxWeakCount>38</maxWeakCount>
  <stageThreshold>-1.4006896018981934e+00</stageThreshold>
  <weakClassifiers>
    <_>
      <internalNodes>
        0 -1 156748 1.0812660679221153e-02</internalNodes>
      <leafValues>
        -4.8033127188682556e-01 7.3170728981494904e-02</leafValues></_>
    <_>
      <internalNodes>
        0 -1 11975 4.4834520667791367e-03</internalNodes>
      <leafValues>
        -2.9574087262153625e-01 2.1684014797210693e-01</leafValues></_>
    <_>
      <internalNodes>
        0 -1 33363 2.0987965166568756e-02</internalNodes>
      <leafValues>
        -1.2438061833381653e-01 4.9811407923698425e-01</leafValues></_>
    <_>
      <internalNodes>
        0 -1 146907 -6.1978166922926903e-03</internalNodes>
      <leafValues>
        3.5923868417739868e-01 -1.4918936789035797e-01</leafValues></_>
    <_>
      <internalNodes>
        0 -1 6661 -8.4684882313013077e-04</internalNodes>
      <leafValues>
        -7.0381826162338257e-01 7.1278057992458344e-02</leafValues></_>
    <_>
      <internalNodes>
        0 -1 54376 -2.6937252841889858e-03</internalNodes>
      <leafValues>
        2.7610173821449280e-01 -2.0449343323707581e-01</leafValues></_>
    <_>
      <internalNodes>
        0 -1 161139 -1.3133228057995439e-03</internalNodes>
      <leafValues>
        -7.8183138370513916e-01 4.8782914876937866e-02</leafValues></_>
    <_>
      <internalNodes>
        0 -1 147278 5.6845224462449551e-03</internalNodes>
      <leafValues>
        -1.1206267029047012e-01 4.7042822837829590e-01</leafValues></_>
    <_>
      <internalNodes>
        0 -1 146589 -8.2027502357959747e-03</internalNodes>
      <leafValues>
        -8.0450171232223511e-01 5.7086765766143799e-02</leafValues></_>
    <_>
      <internalNodes>
        0 -1 83533 -3.0582724139094353e-03</internalNodes>
      <leafValues>
        -8.5459476709365845e-01 5.4096307605504990e-02</leafValues></_>
    <_>
      <internalNodes>
        0 -1 104638 6.7976759746670723e-03</internalNodes>
      <leafValues>
        -2.7033200860023499e-01 1.7378631234169006e-01</leafValues></_>
    <_>
      <internalNodes>
        0 -1 127363 2.3316484875977039e-03</internalNodes>
      <leafValues>
        -1.8813496828079224e-01 3.2070636749267578e-01</leafValues></_>
    <_>
      <internalNodes>
        0 -1 11885 -5.2906479686498642e-04</internalNodes>
      <leafValues>
        2.9002073407173157e-01 -1.6178709268569946e-01</leafValues></_>
    <_>
      <internalNodes>
        0 -1 11959 -9.5987145323306322e-04</internalNodes>
      <leafValues>
        -6.1789774894714355e-01 8.3760805428028107e-02</leafValues></_>
    <_>
      <internalNodes>
        0 -1 101520 2.1661382168531418e-02</internalNodes>
      <leafValues>
        -7.0889137685298920e-02 7.0798820257186890e-01</leafValues></_>
    <_>
      <internalNodes>
        0 -1 117056 -1.4295487198978662e-03</internalNodes>
      <leafValues>
        3.4949544072151184e-01 -1.2419294565916061e-01</leafValues></_>
    <_>
      <internalNodes>
        0 -1 143886 4.1996869258582592e-03</internalNodes>
      <leafValues>
        -2.3562727868556976e-01 2.0986455678939819e-01</leafValues></_>
    <_>
      <internalNodes>
        0 -1 160868 -3.2758421730250120e-03</internalNodes>
      <leafValues>
        -9.4771105051040649e-01 5.0372641533613205e-02</leafValues></_>
    <_>
      <internalNodes>
        0 -1 161492 2.0397102460265160e-02</internalNodes>
      <leafValues>
        6.1392758041620255e-02 -6.4032024145126343e-01</leafValues></_>
    <_>
      <internalNodes>
        0 -1 126665 2.8242301195859909e-03</internalNodes>
      <leafValues>
        -2.5056120753288269e-01 1.9823163747787476e-01</leafValues></_>
    <_>
      <internalNodes>
        0 -1 137628 -8.9314969955012202e-04</internalNodes>
      <leafValues>
        4.0104520320892334e-01 -1.3500536978244781e-01</leafValues></_>
    <_>
      <internalNodes>
        0 -1 8162 1.5558617189526558e-02</internalNodes>
      <leafValues>
        9.5667362213134766e-02 -5.8882451057434082e-01</leafValues></_>
    <_>
      <internalNodes>
        0 -1 5050 -1.3021554332226515e-03</internalNodes>
      <leafValues>
        -6.6605180501937866e-01 6.7874774336814880e-02</leafValues></_>
    <_>
      <internalNodes>
        0 -1 155733 -5.0998083315789700e-04</internalNodes>
      <leafValues>
        2.6530328392982483e-01 -1.8854029476642609e-01</leafValues></_>
    <_>
      <internalNodes>
        0 -1 162247 -2.9150515329092741e-03</internalNodes>
      <leafValues>
        -8.5283941030502319e-01 6.2946051359176636e-02</leafValues></_>
    <_>
      <internalNodes>
        0 -1 80695 4.1728049836819991e-05</internalNodes>
      <leafValues>
        -2.9099482297897339e-01 1.5404367446899414e-01</leafValues></_>
    <_>
      <internalNodes>
        0 -1 106458 2.5816224515438080e-03</internalNodes>
      <leafValues>
        5.0104234367609024e-02 -7.9830181598663330e-01</leafValues></_>
    <_>
      <internalNodes>
        0 -1 32616 -1.2468615919351578e-01</internalNodes>
      <leafValues>
        -7.6259344816207886e-01 4.4165574014186859e-02</leafValues></_>
    <_>
      <internalNodes>
        0 -1 112217 -1.1474729515612125e-02</internalNodes>
      <leafValues>
        7.2955632209777832e-01 -7.8075975179672241e-02</leafValues></_>
    <_>
      <internalNodes>
        0 -1 12238 -1.0822524782270193e-03</internalNodes>
      <leafValues>
        -6.7483055591583252e-01 8.0988332629203796e-02</leafValues></_>
    <_>
      <internalNodes>
        0 -1 147051 8.1223173765465617e-04</internalNodes>
      <leafValues>
        -1.4522764086723328e-01 3.3693593740463257e-01</leafValues></_>
    <_>
      <internalNodes>
        0 -1 752 -2.2528203204274178e-02</internalNodes>
      <leafValues>
        4.7466811537742615e-01 -9.4448246061801910e-02</leafValues></_>
    <_>
      <internalNodes>
        0 -1 118249 -3.8941297680139542e-04</internalNodes>
      <leafValues>
        2.4315720796585083e-01 -1.8796831369400024e-01</leafValues></_>
    <_>
      <internalNodes>
        0 -1 155236 -2.2704842558596283e-04</internalNodes>
      <leafValues>
        -4.0021964907646179e-01 1.1772602051496506e-01</leafValues></_>
    <_>
      <internalNodes>
        0 -1 144922 1.0287309065461159e-02</internalNodes>
      <leafValues>
        -1.6489949822425842e-01 3.5189491510391235e-01</leafValues></_>
    <_>
      <internalNodes>
        0 -1 106313 -1.0545904748141766e-02</internalNodes>
      <leafValues>
        -8.0023002624511719e-01 7.4223056435585022e-02</leafValues></_>
    <_>
      <internalNodes>
        0 -1 160277 6.1750656459480524e-04</internalNodes>
      <leafValues>
        4.5886162668466568e-02 -7.7085924148559570e-01</leafValues></_>
    <_>
      <internalNodes>
        0 -1 97140 -1.5598058234900236e-03</internalNodes>
      <leafValues>
        2.5521153211593628e-01 -1.9671948254108429e-01</leafValues></_></weakClassifiers></stage10>
</opencv_storage>
