<?xml version="1.0"?>
<opencv_storage>
<stage2>
  <maxWeakCount>13</maxWeakCount>
  <stageThreshold>-1.2894036769866943e+00</stageThreshold>
  <weakClassifiers>
    <_>
      <internalNodes>
        0 -1 111692 -4.8241689801216125e-02</internalNodes>
      <leafValues>
        -8.3692306280136108e-01 1.3426423072814941e-01</leafValues></_>
    <_>
      <internalNodes>
        0 -1 8391 -1.5478563494980335e-02</internalNodes>
      <leafValues>
        3.1427821516990662e-01 -4.9027845263481140e-01</leafValues></_>
    <_>
      <internalNodes>
        0 -1 90346 -3.5896742343902588e-01</internalNodes>
      <leafValues>
        -1. 1.2814928591251373e-01</leafValues></_>
    <_>
      <internalNodes>
        0 -1 67269 2.9710140079259872e-03</internalNodes>
      <leafValues>
        -2.9239499568939209e-01 6.4188683032989502e-01</leafValues></_>
    <_>
      <internalNodes>
        0 -1 66631 -9.0737482532858849e-03</internalNodes>
      <leafValues>
        7.1043151617050171e-01 -1.7998875677585602e-01</leafValues></_>
    <_>
      <internalNodes>
        0 -1 119360 6.0134148225188255e-03</internalNodes>
      <leafValues>
        -2.0712068676948547e-01 6.6528093814849854e-01</leafValues></_>
    <_>
      <internalNodes>
        0 -1 128840 2.6457082480192184e-02</internalNodes>
      <leafValues>
        -3.6797285079956055e-01 4.0525591373443604e-01</leafValues></_>
    <_>
      <internalNodes>
        0 -1 138067 2.5958608835935593e-02</internalNodes>
      <leafValues>
        -7.2755461931228638e-01 2.1447715163230896e-01</leafValues></_>
    <_>
      <internalNodes>
        0 -1 11120 6.4921919256448746e-03</internalNodes>
      <leafValues>
        -3.2413434982299805e-01 3.7079167366027832e-01</leafValues></_>
    <_>
      <internalNodes>
        0 -1 102799 -1.5714555978775024e-02</internalNodes>
      <leafValues>
        6.3928186893463135e-01 -1.6043215990066528e-01</leafValues></_>
    <_>
      <internalNodes>
        0 -1 147474 -4.9987006932497025e-03</internalNodes>
      <leafValues>
        6.7312145233154297e-01 -1.3036097586154938e-01</leafValues></_>
    <_>
      <internalNodes>
        0 -1 159739 -2.7045089751482010e-02</internalNodes>
      <leafValues>
        -9.1348439455032349e-01 1.2521521747112274e-01</leafValues></_>
    <_>
      <internalNodes>
        0 -1 131521 -2.9403152875602245e-03</internalNodes>
      <leafValues>
        6.7408335208892822e-01 -1.7912644147872925e-01</leafValues></_></weakClassifiers></stage2>
</opencv_storage>
