<?xml version="1.0"?>
<opencv_storage>
<stage4>
  <maxWeakCount>5</maxWeakCount>
  <stageThreshold>-9.3707543611526489e-01</stageThreshold>
  <weakClassifiers>
    <_>
      <internalNodes>
        0 -1 10075 3.1904145143926144e-03</internalNodes>
      <leafValues>
        -7.5999999046325684e-01 2.6399999856948853e-01</leafValues></_>
    <_>
      <internalNodes>
        0 -1 10556 1.1065436899662018e-01</internalNodes>
      <leafValues>
        -6.0065948963165283e-01 3.8032644987106323e-01</leafValues></_>
    <_>
      <internalNodes>
        0 -1 123405 -8.2388948649168015e-03</internalNodes>
      <leafValues>
        4.8430749773979187e-01 -5.1584643125534058e-01</leafValues></_>
    <_>
      <internalNodes>
        0 -1 98684 -6.4962685108184814e-02</internalNodes>
      <leafValues>
        -8.9070892333984375e-01 2.9668393731117249e-01</leafValues></_>
    <_>
      <internalNodes>
        0 -1 58169 -3.0664945952594280e-03</internalNodes>
      <leafValues>
        8.1802493333816528e-01 -3.3823934197425842e-01</leafValues></_></weakClassifiers></stage4>
</opencv_storage>
