<?xml version="1.0"?>
<opencv_storage>
<stage12>
  <maxWeakCount>7</maxWeakCount>
  <stageThreshold>-6.2890547513961792e-01</stageThreshold>
  <weakClassifiers>
    <_>
      <internalNodes>
        0 -1 26313 -1.1427158862352371e-01</internalNodes>
      <leafValues>
        7.4193549156188965e-01 -4.5724907517433167e-01</leafValues></_>
    <_>
      <internalNodes>
        0 -1 162102 -4.6064938942436129e-05</internalNodes>
      <leafValues>
        2.5848466157913208e-01 -6.4750027656555176e-01</leafValues></_>
    <_>
      <internalNodes>
        0 -1 4086 -1.8537815194576979e-03</internalNodes>
      <leafValues>
        -8.5891127586364746e-01 2.2575968503952026e-01</leafValues></_>
    <_>
      <internalNodes>
        0 -1 49300 -6.5986554545816034e-05</internalNodes>
      <leafValues>
        3.5538610816001892e-01 -5.2165919542312622e-01</leafValues></_>
    <_>
      <internalNodes>
        0 -1 15 -6.2405713833868504e-04</internalNodes>
      <leafValues>
        5.5107694864273071e-01 -3.2328295707702637e-01</leafValues></_>
    <_>
      <internalNodes>
        0 -1 162327 8.2141830353066325e-04</internalNodes>
      <leafValues>
        1.9161280989646912e-01 -9.4362109899520874e-01</leafValues></_>
    <_>
      <internalNodes>
        0 -1 21181 6.9218309363350272e-04</internalNodes>
      <leafValues>
        2.0773962140083313e-01 -6.8240207433700562e-01</leafValues></_></weakClassifiers></stage12>
</opencv_storage>
