<?xml version="1.0"?>
<opencv_storage>
<stage13>
  <maxWeakCount>7</maxWeakCount>
  <stageThreshold>-5.8410841226577759e-01</stageThreshold>
  <weakClassifiers>
    <_>
      <internalNodes>
        0 -1 142873 4.6381652355194092e-03</internalNodes>
      <leafValues>
        -4.4444444775581360e-01 6.6666668653488159e-01</leafValues></_>
    <_>
      <internalNodes>
        0 -1 126675 1.5782240778207779e-02</internalNodes>
      <leafValues>
        -4.9524715542793274e-01 3.3877876400947571e-01</leafValues></_>
    <_>
      <internalNodes>
        0 -1 162319 -6.0940522234886885e-04</internalNodes>
      <leafValues>
        -1. 1.9954210519790649e-01</leafValues></_>
    <_>
      <internalNodes>
        0 -1 148424 3.1543257646262646e-03</internalNodes>
      <leafValues>
        -4.1744628548622131e-01 4.5984128117561340e-01</leafValues></_>
    <_>
      <internalNodes>
        0 -1 159561 -5.0088204443454742e-04</internalNodes>
      <leafValues>
        4.4665098190307617e-01 -3.5395541787147522e-01</leafValues></_>
    <_>
      <internalNodes>
        0 -1 104674 1.0722730308771133e-02</internalNodes>
      <leafValues>
        -4.6823978424072266e-01 3.5967856645584106e-01</leafValues></_>
    <_>
      <internalNodes>
        0 -1 78671 -3.6290427669882774e-03</internalNodes>
      <leafValues>
        8.6759483814239502e-01 -1.7783066630363464e-01</leafValues></_></weakClassifiers></stage13>
</opencv_storage>
