<?xml version="1.0"?>
<opencv_storage>
<stage11>
  <maxWeakCount>9</maxWeakCount>
  <stageThreshold>-1.2633874416351318e+00</stageThreshold>
  <weakClassifiers>
    <_>
      <internalNodes>
        0 -1 16463 -2.8239024803042412e-02</internalNodes>
      <leafValues>
        4.9019607901573181e-01 -5.0200802087783813e-01</leafValues></_>
    <_>
      <internalNodes>
        0 -1 95199 1.9913301803171635e-03</internalNodes>
      <leafValues>
        -4.7628223896026611e-01 3.6054441332817078e-01</leafValues></_>
    <_>
      <internalNodes>
        0 -1 12238 1.8284904072061181e-03</internalNodes>
      <leafValues>
        1.6928350925445557e-01 -8.9873528480529785e-01</leafValues></_>
    <_>
      <internalNodes>
        0 -1 161507 4.0229484438896179e-03</internalNodes>
      <leafValues>
        -3.3667474985122681e-01 4.7498369216918945e-01</leafValues></_>
    <_>
      <internalNodes>
        0 -1 25723 1.0692891664803028e-03</internalNodes>
      <leafValues>
        1.5244989097118378e-01 -9.5452976226806641e-01</leafValues></_>
    <_>
      <internalNodes>
        0 -1 96786 -9.1559562133625150e-04</internalNodes>
      <leafValues>
        6.3311076164245605e-01 -2.9311001300811768e-01</leafValues></_>
    <_>
      <internalNodes>
        0 -1 96072 -2.4016508832573891e-03</internalNodes>
      <leafValues>
        7.7922296524047852e-01 -2.3185878992080688e-01</leafValues></_>
    <_>
      <internalNodes>
        0 -1 73914 -3.0312449671328068e-03</internalNodes>
      <leafValues>
        4.4633021950721741e-01 -3.9583492279052734e-01</leafValues></_>
    <_>
      <internalNodes>
        0 -1 142834 1.4350565616041422e-03</internalNodes>
      <leafValues>
        -2.7557289600372314e-01 6.0723870992660522e-01</leafValues></_></weakClassifiers></stage11>
</opencv_storage>
