<?xml version="1.0"?>
<opencv_storage>
<stage5>
  <maxWeakCount>6</maxWeakCount>
  <stageThreshold>-1.1980228424072266e+00</stageThreshold>
  <weakClassifiers>
    <_>
      <internalNodes>
        0 -1 118704 3.8756467401981354e-02</internalNodes>
      <leafValues>
        -7.1098268032073975e-01 1.8110236525535583e-01</leafValues></_>
    <_>
      <internalNodes>
        0 -1 8915 -8.4507670253515244e-03</internalNodes>
      <leafValues>
        4.0033408999443054e-01 -5.2623891830444336e-01</leafValues></_>
    <_>
      <internalNodes>
        0 -1 151799 3.2053776521934196e-05</internalNodes>
      <leafValues>
        -8.0273753404617310e-01 2.5420758128166199e-01</leafValues></_>
    <_>
      <internalNodes>
        0 -1 26480 1.8861029297113419e-02</internalNodes>
      <leafValues>
        -3.6909666657447815e-01 6.3285374641418457e-01</leafValues></_>
    <_>
      <internalNodes>
        0 -1 96318 9.9140005186200142e-03</internalNodes>
      <leafValues>
        -4.8323583602905273e-01 4.9440410733222961e-01</leafValues></_>
    <_>
      <internalNodes>
        0 -1 90665 -1.9421469420194626e-02</internalNodes>
      <leafValues>
        8.9083027839660645e-01 -2.8924930095672607e-01</leafValues></_></weakClassifiers></stage5>
</opencv_storage>
