<?xml version="1.0"?>
<opencv_storage>
<stage2>
  <maxWeakCount>6</maxWeakCount>
  <stageThreshold>-1.1784394979476929e+00</stageThreshold>
  <weakClassifiers>
    <_>
      <internalNodes>
        0 -1 93183 -1.2170845642685890e-02</internalNodes>
      <leafValues>
        7.0149254798889160e-01 -6.3090127706527710e-01</leafValues></_>
    <_>
      <internalNodes>
        0 -1 152851 2.2030139341950417e-02</internalNodes>
      <leafValues>
        -5.7199293375015259e-01 6.1386984586715698e-01</leafValues></_>
    <_>
      <internalNodes>
        0 -1 24718 4.3893121182918549e-02</internalNodes>
      <leafValues>
        -7.7014005184173584e-01 4.6699786186218262e-01</leafValues></_>
    <_>
      <internalNodes>
        0 -1 131306 9.1834887862205505e-03</internalNodes>
      <leafValues>
        -4.9413990974426270e-01 7.1680498123168945e-01</leafValues></_>
    <_>
      <internalNodes>
        0 -1 9498 -5.0129676237702370e-03</internalNodes>
      <leafValues>
        6.2106615304946899e-01 -5.1455086469650269e-01</leafValues></_>
    <_>
      <internalNodes>
        0 -1 20867 1.2358550727367401e-01</internalNodes>
      <leafValues>
        -5.6946933269500732e-01 6.3087725639343262e-01</leafValues></_></weakClassifiers></stage2>
</opencv_storage>
