<?xml version="1.0"?>
<opencv_storage>
<stage15>
  <maxWeakCount>8</maxWeakCount>
  <stageThreshold>-5.8011180162429810e-01</stageThreshold>
  <weakClassifiers>
    <_>
      <internalNodes>
        0 -1 85883 -1.4347061514854431e-03</internalNodes>
      <leafValues>
        8.7999999523162842e-02 -6.3428568840026855e-01</leafValues></_>
    <_>
      <internalNodes>
        0 -1 57727 -6.5882690250873566e-03</internalNodes>
      <leafValues>
        5.0353860855102539e-01 -2.8892663121223450e-01</leafValues></_>
    <_>
      <internalNodes>
        0 -1 58160 -3.6328099668025970e-03</internalNodes>
      <leafValues>
        6.3847684860229492e-01 -2.0259356498718262e-01</leafValues></_>
    <_>
      <internalNodes>
        0 -1 160619 -5.6495529133826494e-04</internalNodes>
      <leafValues>
        -9.5330375432968140e-01 1.6638077795505524e-01</leafValues></_>
    <_>
      <internalNodes>
        0 -1 12233 -4.3034128611907363e-04</internalNodes>
      <leafValues>
        -1. 1.2328021973371506e-01</leafValues></_>
    <_>
      <internalNodes>
        0 -1 159363 1.6624979907646775e-03</internalNodes>
      <leafValues>
        -3.8426560163497925e-01 3.9512854814529419e-01</leafValues></_>
    <_>
      <internalNodes>
        0 -1 71122 -6.3058640807867050e-03</internalNodes>
      <leafValues>
        6.1752003431320190e-01 -2.1895948052406311e-01</leafValues></_>
    <_>
      <internalNodes>
        0 -1 155236 3.6129885120317340e-04</internalNodes>
      <leafValues>
        1.3697251677513123e-01 -9.2627209424972534e-01</leafValues></_></weakClassifiers></stage15>
</opencv_storage>
