<?xml version="1.0"?>
<opencv_storage>
<stage9>
  <maxWeakCount>7</maxWeakCount>
  <stageThreshold>-9.4239801168441772e-01</stageThreshold>
  <weakClassifiers>
    <_>
      <internalNodes>
        0 -1 60431 -4.4794909656047821e-02</internalNodes>
      <leafValues>
        4.9382716417312622e-02 -7.8260868787765503e-01</leafValues></_>
    <_>
      <internalNodes>
        0 -1 49310 -5.1882793195545673e-04</internalNodes>
      <leafValues>
        -8.9706742763519287e-01 1.6481016576290131e-01</leafValues></_>
    <_>
      <internalNodes>
        0 -1 72947 -1.3280570507049561e-01</internalNodes>
      <leafValues>
        6.7446553707122803e-01 -3.1168738007545471e-01</leafValues></_>
    <_>
      <internalNodes>
        0 -1 155010 3.9207460358738899e-03</internalNodes>
      <leafValues>
        -7.0667904615402222e-01 3.4779101610183716e-01</leafValues></_>
    <_>
      <internalNodes>
        0 -1 162290 -7.8797317110002041e-04</internalNodes>
      <leafValues>
        -9.4409447908401489e-01 2.2486250102519989e-01</leafValues></_>
    <_>
      <internalNodes>
        0 -1 13371 -2.3889315780252218e-03</internalNodes>
      <leafValues>
        -9.8154592514038086e-01 1.4514607191085815e-01</leafValues></_>
    <_>
      <internalNodes>
        0 -1 159577 -5.1322107901796699e-04</internalNodes>
      <leafValues>
        3.4364297986030579e-01 -5.0823307037353516e-01</leafValues></_></weakClassifiers></stage9>
</opencv_storage>
