<?xml version="1.0"?>
<opencv_storage>
<stage15>
  <maxWeakCount>5</maxWeakCount>
  <stageThreshold>-5.7614010572433472e-01</stageThreshold>
  <weakClassifiers>
    <_>
      <internalNodes>
        0 -1 161878 3.7622725358232856e-04</internalNodes>
      <leafValues>
        -7.9411762952804565e-01 4.8780485987663269e-02</leafValues></_>
    <_>
      <internalNodes>
        0 -1 162245 4.0086868102662265e-04</internalNodes>
      <leafValues>
        1.8018537759780884e-01 -8.8293468952178955e-01</leafValues></_>
    <_>
      <internalNodes>
        0 -1 90231 -5.8409594930708408e-03</internalNodes>
      <leafValues>
        6.6943836212158203e-01 -3.6576622724533081e-01</leafValues></_>
    <_>
      <internalNodes>
        0 -1 49401 -3.7905562203377485e-04</internalNodes>
      <leafValues>
        -9.5647895336151123e-01 2.6410695910453796e-01</leafValues></_>
    <_>
      <internalNodes>
        0 -1 89566 3.1353344093076885e-04</internalNodes>
      <leafValues>
        -7.0344668626785278e-01 3.4483093023300171e-01</leafValues></_></weakClassifiers></stage15>
</opencv_storage>
