<?xml version="1.0"?>
<opencv_storage>
<stage8>
  <maxWeakCount>5</maxWeakCount>
  <stageThreshold>-5.4817855358123779e-01</stageThreshold>
  <weakClassifiers>
    <_>
      <internalNodes>
        0 -1 132945 8.5491751087829471e-04</internalNodes>
      <leafValues>
        -6.2962961196899414e-01 4.2857143282890320e-01</leafValues></_>
    <_>
      <internalNodes>
        0 -1 78467 6.6863638348877430e-03</internalNodes>
      <leafValues>
        -6.3772630691528320e-01 4.1141337156295776e-01</leafValues></_>
    <_>
      <internalNodes>
        0 -1 9460 -1.7984835430979729e-03</internalNodes>
      <leafValues>
        5.8793222904205322e-01 -5.0629293918609619e-01</leafValues></_>
    <_>
      <internalNodes>
        0 -1 102834 -9.7165144979953766e-03</internalNodes>
      <leafValues>
        7.8687185049057007e-01 -3.9303401112556458e-01</leafValues></_>
    <_>
      <internalNodes>
        0 -1 22880 -1.0919071733951569e-02</internalNodes>
      <leafValues>
        5.6936460733413696e-01 -5.1138871908187866e-01</leafValues></_></weakClassifiers></stage8>
</opencv_storage>
