<?xml version="1.0"?>
<opencv_storage>
<stage14>
  <maxWeakCount>7</maxWeakCount>
  <stageThreshold>-4.6231094002723694e-01</stageThreshold>
  <weakClassifiers>
    <_>
      <internalNodes>
        0 -1 131642 1.9167229533195496e-02</internalNodes>
      <leafValues>
        -5.7894736528396606e-01 4.4444444775581360e-01</leafValues></_>
    <_>
      <internalNodes>
        0 -1 45970 1.7208611965179443e-01</internalNodes>
      <leafValues>
        -6.1794996261596680e-01 4.3732115626335144e-01</leafValues></_>
    <_>
      <internalNodes>
        0 -1 44965 -6.3981555285863578e-05</internalNodes>
      <leafValues>
        3.1822729110717773e-01 -6.6343128681182861e-01</leafValues></_>
    <_>
      <internalNodes>
        0 -1 154675 -1.0526457335799932e-03</internalNodes>
      <leafValues>
        8.5292226076126099e-01 -2.8679856657981873e-01</leafValues></_>
    <_>
      <internalNodes>
        0 -1 161181 -2.7842161944136024e-04</internalNodes>
      <leafValues>
        -9.4537347555160522e-01 2.7399775385856628e-01</leafValues></_>
    <_>
      <internalNodes>
        0 -1 56220 8.1555703654885292e-03</internalNodes>
      <leafValues>
        -3.0439537763595581e-01 8.9415091276168823e-01</leafValues></_>
    <_>
      <internalNodes>
        0 -1 137960 1.2439875863492489e-02</internalNodes>
      <leafValues>
        -3.2171586155891418e-01 7.3682498931884766e-01</leafValues></_></weakClassifiers></stage14>
</opencv_storage>
